{"learner":{"attributes":{"scikit_learn":"{\"_estimator_type\": \"regressor\"}"},"feature_names":["latitude","longitude","hour","dayofweek"],"feature_types":["float","float","int","int"],"gradient_booster":{"model":{"gbtree_model_param":{"num_parallel_tree":"1","num_trees":"100"},"iteration_indptr":[0,1,2,3,4,5,6,7,8,9,10,11,12,13,14,15,16,17,18,19,20,21,22,23,24,25,26,27,28,29,30,31,32,33,34,35,36,37,38,39,40,41,42,43,44,45,46,47,48,49,50,51,52,53,54,55,56,57,58,59,60,61,62,63,64,65,66,67,68,69,70,71,72,73,74,75,76,77,78,79,80,81,82,83,84,85,86,87,88,89,90,91,92,93,94,95,96,97,98,99,100],"tree_info":[0,0,0,0,0,0,0,0,0,0,0,0,0,0,0,0,0,0,0,0,0,0,0,0,0,0,0,0,0,0,0,0,0,0,0,0,0,0,0,0,0,0,0,0,0,0,0,0,0,0,0,0,0,0,0,0,0,0,0,0,0,0,0,0,0,0,0,0,0,0,0,0,0,0,0,0,0,0,0,0,0,0,0,0,0,0,0,0,0,0,0,0,0,0,0,0,0,0,0,0],"trees":[{"base_weights":[1.3133042E-5,1.0214498E2,-9.0181145E1,-5.98841E1,2.1173894E2,-1.0420858E2,8.443691E1,-6.879546E1,8.1979785E2,1.4989288E3,1.8170581E2,-5.7258118E1,-1.5095972E2,3.276553E2,-5.4096325E1,-4.5738167E1,-1.9725922E2,-6.595049E1,2.9430305E3,2.8113853E3,-1.6401509E2,2.747843E2,3.4504272E1,-7.4718445E1,8.384097E1,-2.4446713E2,-1.3222266E2,1.5660748E2,8.939842E2,6.0222763E1,-2.2489876E2,-1.4708522E2,-2.040633E1,-2.0909033E2,2.6745267E2,3.740084E3,-3.6777496E1,6.578796E1,5.186517E3,-4.2288795E1,-1.8741595E2,7.4217126E2,2.0251207E2,-3.5025368E1,2.5508836E2,-9.30346E1,5.6539703E1,1.2760585E3,-5.3203953E1,-2.4974648E2,-5.477704E1,-8.321897E1,-1.8877E2,5.226037E2,-1.889239E2,-1.8682085E2,1.384721E3,4.173606E2,-9.174411E1,-1.256472E2,-7.268436E1,7.1832113E0,-6.411889E1,1.1150907E2,-8.022582E0,9.93247E0,-6.889118E1,2.3796196E2,-5.811776E1,-3.1220327E1,1.5168472E3,-6.065235E1,3.3471252E2,1.7612994E3,1.4747832E2,2.0667763E1,-4.1812157E1,-6.531276E1,-1.7715908E1,6.584648E1,4.0160037E2,3.3097675E1,1.2025236E2,1.2628233E1,-3.8074833E1,5.4929456E2,5.8493958E0,-2.126831E1,-5.6837605E1,-1.3686025E0,3.21057E2,8.230662E2,-5.2645218E1,1.2409144E1,-5.7584606E1,-7.6049866E1,-6.0180874E1,-6.566132E1,7.382453E1,-5.605238E1,-9.72612E0,-4.247993E1,-6.767486E1,-2.4028666E1,3.0092337E2,-6.4863386E0,-6.1302814E1,-1.2121491E1,-6.686455E1,5.4989685E2,-4.4212555E1,-6.891856E1,2.5187602E2,-6.427823E1,-5.2328076E0,-1.682821E0,-6.449231E1],"categories":[],"categories_nodes":[],"categories_segments":[],"categories_sizes":[],"default_left":[0,0,0,0,0,0,0,0,0,0,0,0,0,0,0,0,0,0,0,0,0,0,0,0,0,0,0,0,0,0,0,0,0,0,0,0,0,0,0,0,0,0,0,0,0,0,0,0,0,0,0,0,0,0,0,0,0,0,0,0,0,0,0,0,0,0,0,0,0,0,0,0,0,0,0,0,0,0,0,0,0,0,0,0,0,0,0,0,0,0,0,0,0,0,0,0,0,0,0,0,0,0,0,0,0,0,0,0,0,0,0,0,0,0,0,0,0],"id":0,"left_children":[1,3,5,7,9,11,13,15,17,19,21,23,25,27,29,31,33,-1,35,37,39,41,43,45,47,49,51,53,55,57,59,61,63,65,67,69,-1,71,73,75,77,79,81,83,85,87,89,91,93,95,97,99,101,103,105,107,109,111,113,115,-1,-1,-1,-1,-1,-1,-1,-1,-1,-1,-1,-1,-1,-1,-1,-1,-1,-1,-1,-1,-1,-1,-1,-1,-1,-1,-1,-1,-1,-1,-1,-1,-1,-1,-1,-1,-1,-1,-1,-1,-1,-1,-1,-1,-1,-1,-1,-1,-1,-1,-1,-1,-1,-1,-1,-1,-1],"loss_changes":[7.241201E7,6.546649E7,1.0235228E7,1.172107E7,8.473732E7,8.47498E6,1.0496506E7,4.357006E6,3.3757716E7,1.0958818E8,2.9448304E7,4.7610835E6,3.359652E6,1.0806229E7,3.899214E6,3.208699E6,1.287486E6,0E0,1.2675824E7,1.8225117E8,5.7589938E4,4.433679E7,1.2800104E7,4.135579E6,3.4869396E7,3.08782E5,4.459502E6,1.1227491E7,1.4048854E7,6.551064E6,1.0757675E5,2.854653E6,2.4991208E6,1.097444E6,1.6084629E6,2.076292E7,0E0,4.1643172E6,4.53176E7,6.3572055E4,6.1025625E4,5.4579224E7,2.0835268E7,4.505311E6,7.421736E7,3.205925E6,1.3073327E7,4.734436E7,2.5271292E6,6.878E3,5.475515E5,4.5577125E6,1.268676E6,1.2532344E7,1.14243875E5,3.8513562E4,1.2632368E7,1.0028724E7,7.7003125E5,1.4891105E5,0E0,0E0,0E0,0E0,0E0,0E0,0E0,0E0,0E0,0E0,0E0,0E0,0E0,0E0,0E0,0E0,0E0,0E0,0E0,0E0,0E0,0E0,0E0,0E0,0E0,0E0,0E0,0E0,0E0,0E0,0E0,0E0,0E0,0E0,0E0,0E0,0E0,0E0,0E0,0E0,0E0,0E0,0E0,0E0,0E0,0E0,0E0,0E0,0E0,0E0,0E0,0E0,0E0,0E0,0E0,0E0,0E0],"parents":[2147483647,0,0,1,1,2,2,3,3,4,4,5,5,6,6,7,7,8,8,9,9,10,10,11,11,12,12,13,13,14,14,15,15,16,16,18,18,19,19,20,20,21,21,22,22,23,23,24,24,25,25,26,26,27,27,28,28,29,29,30,30,31,31,32,32,33,33,34,34,35,35,37,37,38,38,39,39,40,40,41,41,42,42,43,43,44,44,45,45,46,46,47,47,48,48,49,49,50,50,51,51,52,52,53,53,54,54,55,55,56,56,57,57,58,58,59,59],"right_children":[2,4,6,8,10,12,14,16,18,20,22,24,26,28,30,32,34,-1,36,38,40,42,44,46,48,50,52,54,56,58,60,62,64,66,68,70,-1,72,74,76,78,80,82,84,86,88,90,92,94,96,98,100,102,104,106,108,110,112,114,116,-1,-1,-1,-1,-1,-1,-1,-1,-1,-1,-1,-1,-1,-1,-1,-1,-1,-1,-1,-1,-1,-1,-1,-1,-1,-1,-1,-1,-1,-1,-1,-1,-1,-1,-1,-1,-1,-1,-1,-1,-1,-1,-1,-1,-1,-1,-1,-1,-1,-1,-1,-1,-1,-1,-1,-1,-1],"split_conditions":[-7.393267E1,4.066295E1,-7.3791435E1,-7.393487E1,4.0667263E1,-7.3884865E1,6E0,2.2E1,4.0639626E1,1.6E1,1.8E1,-7.389137E1,8E0,2.2E1,1.6E1,4.0594856E1,-7.394242E1,-6.595049E1,4.0651123E1,1.3E1,-7.398406E1,-7.398939E1,4.0806698E1,4.0865383E1,4.0673237E1,4.088241E1,1.8E1,1.7E1,-7.377509E1,-7.377509E1,-7.378738E1,6E0,4.0595642E1,4.0555607E1,-7.394016E1,6E0,-3.6777496E1,1.2E1,-7.394089E1,2.2E1,-7.393644E1,-7.399619E1,4.0785873E1,6E0,-7.396434E1,-7.3900894E1,2.3E1,6E0,1.8E1,7E0,-7.385815E1,-7.386674E1,4.0734695E1,4.0699326E1,-7.378738E1,4.0648815E1,-7.374219E1,9E0,4.0665466E1,4.071E1,-7.268436E1,7.1832113E0,-6.411889E1,1.1150907E2,-8.022582E0,9.93247E0,-6.889118E1,2.3796196E2,-5.811776E1,-3.1220327E1,1.5168472E3,-6.065235E1,3.3471252E2,1.7612994E3,1.4747832E2,2.0667763E1,-4.1812157E1,-6.531276E1,-1.7715908E1,6.584648E1,4.0160037E2,3.3097675E1,1.2025236E2,1.2628233E1,-3.8074833E1,5.4929456E2,5.8493958E0,-2.126831E1,-5.6837605E1,-1.3686025E0,3.21057E2,8.230662E2,-5.2645218E1,1.2409144E1,-5.7584606E1,-7.6049866E1,-6.0180874E1,-6.566132E1,7.382453E1,-5.605238E1,-9.72612E0,-4.247993E1,-6.767486E1,-2.4028666E1,3.0092337E2,-6.4863386E0,-6.1302814E1,-1.2121491E1,-6.686455E1,5.4989685E2,-4.4212555E1,-6.891856E1,2.5187602E2,-6.427823E1,-5.2328076E0,-1.682821E0,-6.449231E1],"split_indices":[1,0,1,1,0,1,3,2,0,2,2,1,2,2,2,0,1,0,0,2,1,1,0,0,0,0,2,2,1,1,1,3,0,0,1,3,0,2,1,2,1,1,0,3,1,1,2,3,2,2,1,1,0,0,1,0,1,2,0,0,0,0,0,0,0,0,0,0,0,0,0,0,0,0,0,0,0,0,0,0,0,0,0,0,0,0,0,0,0,0,0,0,0,0,0,0,0,0,0,0,0,0,0,0,0,0,0,0,0,0,0,0,0,0,0,0,0],"split_type":[0,0,0,0,0,0,0,0,0,0,0,0,0,0,0,0,0,0,0,0,0,0,0,0,0,0,0,0,0,0,0,0,0,0,0,0,0,0,0,0,0,0,0,0,0,0,0,0,0,0,0,0,0,0,0,0,0,0,0,0,0,0,0,0,0,0,0,0,0,0,0,0,0,0,0,0,0,0,0,0,0,0,0,0,0,0,0,0,0,0,0,0,0,0,0,0,0,0,0,0,0,0,0,0,0,0,0,0,0,0,0,0,0,0,0,0,0],"sum_hessian":[7.859E3,3.685E3,4.174E3,1.487E3,2.198E3,3.864E3,3.1E2,1.473E3,1.4E1,4.9E1,2.149E3,1.929E3,1.935E3,1.12E2,1.98E2,1.25E3,2.23E2,1E1,4E0,2.7E1,2.2E1,1.316E3,8.33E2,1.717E3,2.12E2,3.21E2,1.614E3,8.7E1,2.5E1,1.19E2,7.9E1,2.49E2,1.001E3,2.18E2,5E0,3E0,1E0,1.3E1,1.4E1,4E0,1.8E1,1.75E2,1.141E3,6.34E2,1.99E2,1.507E3,2.1E2,2.1E1,1.91E2,3.12E2,9E0,8.66E2,7.48E2,4.2E1,4.5E1,8E0,1.7E1,3.5E1,8.4E1,1.3E1,6.6E1,7E1,1.79E2,1.5E1,9.86E2,1.7E1,2.01E2,2E0,3E0,1E0,2E0,1.1E1,2E0,1.2E1,2E0,2E0,2E0,1.4E1,4E0,9.4E1,8.1E1,7.8E2,3.61E2,3.45E2,2.89E2,2.5E1,1.74E2,1.227E3,2.8E2,1.99E2,1.1E1,1E1,1.1E1,1.14E2,7.7E1,2.86E2,2.6E1,6E0,3E0,2.84E2,5.82E2,3.3E2,4.18E2,1.9E1,2.3E1,4E0,4.1E1,2E0,6E0,1.3E1,4E0,1.4E1,2.1E1,3.1E1,5.3E1,6E0,7E0],"tree_param":{"num_deleted":"0","num_feature":"4","num_nodes":"117","size_leaf_vector":"1"}},{"base_weights":[7.700726E-1,8.031162E1,-5.9196835E1,-4.4728493E1,1.7252359E2,-6.814777E1,6.106851E1,-6.2195858E1,8.389637E1,1.3576632E3,1.4882976E2,-3.5506447E1,-1.0582882E2,2.0669623E2,-8.309305E1,-1.378502E2,-4.131296E1,1.1700721E3,3.758838E1,1.3775862E2,5.27316E3,-1.09267845E2,1.8497319E2,3.87646E1,-6.2443134E1,-1.2806137E2,-5.4012844E1,5.1178107E2,4.7704052E1,1.1399012E3,-1.14319565E2,-2.1004785E2,-4.809658E1,2.2615076E1,-8.907371E1,2.239958E3,-5.769956E1,4.878907E2,-4.1954903E1,2.1095107E3,-3.409722E2,-7.246879E2,7.090358E3,-2.917731E2,1.0188498E1,3.3378867E2,5.3191475E1,-3.4099205E1,3.3421375E2,-8.875061E1,3.421992E1,-1.7290544E2,-1.13324455E2,-1.5987564E2,2.7633106E1,2.9192456E2,1.4279717E3,2.70575E2,-1.2987817E2,-1.0979925E1,4.632805E2,-5.567412E1,-2.644119E2,-5.3459938E1,-6.889613E1,-4.345459E1,1.57848425E1,3.666157E1,-2.0443392E1,-3.1791107E1,3.289733E1,-2.974741E1,9.158149E2,2.2060547E1,3.025702E2,6.2941547E1,-3.424692E1,1.117887E3,-2.2480952E2,-3.498843E2,-3.847E1,-2.9632297E2,-2.9786621E1,-1.9608894E1,2.4881616E3,-3.909447E1,-9.4914345E1,8.4497504E2,-2.7250277E1,6.632026E1,2.250827E2,3.7232082E1,-8.212491E0,-2.5084135E1,1.6281926E2,2.7537394E1,2.8675607E2,-1.3364186E1,-4.4467064E1,2.6300507E2,2.1069245E0,-5.577204E1,-4.4576942E1,-2.6354513E1,-5.1961792E1,-7.1575656E0,-5.360306E1,1.3962515E2,-1.5444841E0,-2.108682E1,2.4570824E2,1.6606954E3,1.0694715E2,3.5598984E1,4.477556E2,3.2658325E1,-5.6420853E1,-5.3019978E1,2.903639E2,-9.685811E1,-6.140631E1],"categories":[],"categories_nodes":[],"categories_segments":[],"categories_sizes":[],"default_left":[0,0,0,0,0,0,0,0,0,0,0,0,0,0,0,0,0,0,0,0,0,0,0,0,0,0,0,0,0,0,0,0,0,0,0,0,0,0,0,0,0,0,0,0,0,0,0,0,0,0,0,0,0,0,0,0,0,0,0,0,0,0,0,0,0,0,0,0,0,0,0,0,0,0,0,0,0,0,0,0,0,0,0,0,0,0,0,0,0,0,0,0,0,0,0,0,0,0,0,0,0,0,0,0,0,0,0,0,0,0,0,0,0,0,0,0,0,0,0,0,0],"id":1,"left_children":[1,3,5,7,9,11,13,15,17,19,21,23,25,27,29,31,33,35,37,39,41,43,45,47,49,51,53,55,57,59,61,63,65,67,69,71,-1,73,75,77,79,81,83,85,87,89,91,93,95,97,99,101,103,105,107,109,111,113,115,-1,-1,117,119,-1,-1,-1,-1,-1,-1,-1,-1,-1,-1,-1,-1,-1,-1,-1,-1,-1,-1,-1,-1,-1,-1,-1,-1,-1,-1,-1,-1,-1,-1,-1,-1,-1,-1,-1,-1,-1,-1,-1,-1,-1,-1,-1,-1,-1,-1,-1,-1,-1,-1,-1,-1,-1,-1,-1,-1,-1,-1],"loss_changes":[3.7495864E7,3.896824E7,4.828981E6,3.2292862E6,5.4414508E7,5.127632E6,6.546283E6,1.9912755E6,8.607381E6,1.8078184E8,1.7819048E7,4.477798E6,2.223358E6,7.494032E6,6.126121E6,1.758937E6,3.030839E6,1.0634133E7,5.9663445E6,2.9037438E7,1.0323176E8,5.126304E6,3.281132E7,1.2841814E7,4.178579E6,8.75216E5,5.043443E6,1.0258957E7,4.1116678E6,1.959472E6,1.3408228E6,5.3362E4,1.2061532E6,3.8498062E6,1.9189045E6,7.907242E6,0E0,5.319465E6,2.605149E6,3.0525374E7,4.239826E6,3.9547175E5,6.082621E7,3.282755E5,4.079773E7,3.67344E7,5.082616E6,1.3726334E7,1.7694796E7,3.387309E6,8.05899E6,7.7649E4,1.543891E6,6.45288E5,4.738282E6,8.458226E6,4.203961E7,8.361762E6,8.262419E5,0E0,0E0,1.4049034E7,8.401825E4,0E0,0E0,0E0,0E0,0E0,0E0,0E0,0E0,0E0,0E0,0E0,0E0,0E0,0E0,0E0,0E0,0E0,0E0,0E0,0E0,0E0,0E0,0E0,0E0,0E0,0E0,0E0,0E0,0E0,0E0,0E0,0E0,0E0,0E0,0E0,0E0,0E0,0E0,0E0,0E0,0E0,0E0,0E0,0E0,0E0,0E0,0E0,0E0,0E0,0E0,0E0,0E0,0E0,0E0,0E0,0E0,0E0,0E0],"parents":[2147483647,0,0,1,1,2,2,3,3,4,4,5,5,6,6,7,7,8,8,9,9,10,10,11,11,12,12,13,13,14,14,15,15,16,16,17,17,18,18,19,19,20,20,21,21,22,22,23,23,24,24,25,25,26,26,27,27,28,28,29,29,30,30,31,31,32,32,33,33,34,34,35,35,37,37,38,38,39,39,40,40,41,41,42,42,43,43,44,44,45,45,46,46,47,47,48,48,49,49,50,50,51,51,52,52,53,53,54,54,55,55,56,56,57,57,58,58,61,61,62,62],"right_children":[2,4,6,8,10,12,14,16,18,20,22,24,26,28,30,32,34,36,38,40,42,44,46,48,50,52,54,56,58,60,62,64,66,68,70,72,-1,74,76,78,80,82,84,86,88,90,92,94,96,98,100,102,104,106,108,110,112,114,116,-1,-1,118,120,-1,-1,-1,-1,-1,-1,-1,-1,-1,-1,-1,-1,-1,-1,-1,-1,-1,-1,-1,-1,-1,-1,-1,-1,-1,-1,-1,-1,-1,-1,-1,-1,-1,-1,-1,-1,-1,-1,-1,-1,-1,-1,-1,-1,-1,-1,-1,-1,-1,-1,-1,-1,-1,-1,-1,-1,-1,-1],"split_conditions":[-7.394016E1,4.066295E1,-7.3791435E1,-7.395451E1,4.0667263E1,-7.3884865E1,-7.37613E1,1E1,1E0,-7.394754E1,9E0,4.0702293E1,-7.383534E1,6E0,4.0594856E1,4.0620716E1,1.7E1,4.0612465E1,-7.3953125E1,-7.398994E1,6E0,4.072024E1,1.7E1,4.069723E1,4.0859375E1,1E1,4.0707623E1,4.0744488E1,1.5E1,1.2E1,4.0725513E1,4.0594856E1,-7.3998566E1,-7.399967E1,-7.395919E1,4.058443E1,-5.769956E1,4.0619057E1,4.0596687E1,1.4E1,-7.3984955E1,4.0664413E1,9E0,-7.3994965E1,4.072149E1,4.0785873E1,6E0,-7.389137E1,-7.3908646E1,4.0829235E1,-7.3927185E1,4.0831787E1,2.1E1,4.0665466E1,4.0712433E1,-7.377509E1,4.0747974E1,1.4E1,4.0676933E1,-1.0979925E1,4.632805E2,4.072149E1,1.7E1,-5.3459938E1,-6.889613E1,-4.345459E1,1.57848425E1,3.666157E1,-2.0443392E1,-3.1791107E1,3.289733E1,-2.974741E1,9.158149E2,2.2060547E1,3.025702E2,6.2941547E1,-3.424692E1,1.117887E3,-2.2480952E2,-3.498843E2,-3.847E1,-2.9632297E2,-2.9786621E1,-1.9608894E1,2.4881616E3,-3.909447E1,-9.4914345E1,8.4497504E2,-2.7250277E1,6.632026E1,2.250827E2,3.7232082E1,-8.212491E0,-2.5084135E1,1.6281926E2,2.7537394E1,2.8675607E2,-1.3364186E1,-4.4467064E1,2.6300507E2,2.1069245E0,-5.577204E1,-4.4576942E1,-2.6354513E1,-5.1961792E1,-7.1575656E0,-5.360306E1,1.3962515E2,-1.5444841E0,-2.108682E1,2.4570824E2,1.6606954E3,1.0694715E2,3.5598984E1,4.477556E2,3.2658325E1,-5.6420853E1,-5.3019978E1,2.903639E2,-9.685811E1,-6.140631E1],"split_indices":[1,0,1,1,0,1,1,2,2,1,2,0,1,3,0,0,2,0,1,1,3,0,2,0,0,2,0,0,2,2,0,0,1,1,1,0,0,0,0,2,1,0,2,1,0,0,3,1,1,0,1,0,2,0,0,1,0,2,0,0,0,0,2,0,0,0,0,0,0,0,0,0,0,0,0,0,0,0,0,0,0,0,0,0,0,0,0,0,0,0,0,0,0,0,0,0,0,0,0,0,0,0,0,0,0,0,0,0,0,0,0,0,0,0,0,0,0,0,0,0,0],"split_type":[0,0,0,0,0,0,0,0,0,0,0,0,0,0,0,0,0,0,0,0,0,0,0,0,0,0,0,0,0,0,0,0,0,0,0,0,0,0,0,0,0,0,0,0,0,0,0,0,0,0,0,0,0,0,0,0,0,0,0,0,0,0,0,0,0,0,0,0,0,0,0,0,0,0,0,0,0,0,0,0,0,0,0,0,0,0,0,0,0,0,0,0,0,0,0,0,0,0,0,0,0,0,0,0,0,0,0,0,0,0,0,0,0,0,0,0,0,0,0,0,0],"sum_hessian":[7.859E3,3.378E3,4.481E3,1.434E3,1.944E3,4.171E3,3.1E2,1.263E3,1.71E2,3.7E1,1.907E3,2.236E3,1.935E3,1.54E2,1.56E2,2.72E2,9.91E2,6E0,1.65E2,2.9E1,8E0,2.34E2,1.673E3,5.95E2,1.641E3,1.353E3,5.82E2,5.2E1,1.02E2,3E0,1.53E2,1.5E2,1.22E2,4.24E2,5.67E2,3E0,3E0,2.4E1,1.41E2,5E0,2.4E1,2E0,6E0,9.2E1,1.42E2,7.85E2,8.88E2,4.78E2,1.17E2,1.29E3,3.51E2,3.32E2,1.021E3,2.53E2,3.29E2,4.3E1,9E0,4.5E1,5.7E1,1E0,2E0,1.11E2,4.2E1,6.1E1,8.9E1,6.2E1,6E1,2.02E2,2.22E2,5.23E2,4.4E1,1E0,2E0,1.4E1,1E1,3.1E1,1.1E2,3E0,2E0,4E0,2E1,1E0,1E0,1E0,5E0,1.3E1,7.9E1,4E0,1.38E2,6.19E2,1.66E2,4.72E2,4.16E2,4.41E2,3.7E1,8.5E1,3.2E1,7.41E2,5.49E2,1E1,3.41E2,2.12E2,1.2E2,7.18E2,3.03E2,3.1E1,2.22E2,2.2E1,3.07E2,2.6E1,1.7E1,1E0,8E0,4.1E1,4E0,1.1E1,4.6E1,1E2,1.1E1,1.9E1,2.3E1],"tree_param":{"num_deleted":"0","num_feature":"4","num_nodes":"121","size_leaf_vector":"1"}},{"base_weights":[1.5875872E0,5.3890217E1,-4.458944E1,-2.6337955E1,1.081538E2,-5.2377426E1,5.234035E1,-3.3604362E1,6.894636E2,8.4023975E2,9.107825E1,-1.4189812E2,-4.574829E1,1.6050577E2,-5.478055E1,-1.891929E1,-1.1546785E2,-1.3707622E2,2.3699585E3,1.1325513E2,1.8387777E3,1.2856845E2,-9.44495E1,-1.5572139E2,1.1804381E2,3.9098083E2,-4.7440086E1,3.9583664E2,3.785488E1,9.1100604E2,-7.951019E1,4.1497654E1,-4.643618E1,-1.2382335E2,2.0875246E2,-4.280249E1,-1.216334E1,3.0082786E3,-2.749825E1,1.6255037E3,-2.5421472E2,4.441518E3,2.201562E2,7.82047E1,1.3828793E3,-2.8152512E2,-1.7947996E1,-1.653402E2,1.23426186E2,-5.670405E1,3.9207755E2,1.3483188E3,7.314201E0,-4.0753952E1,-1.324873E2,2.0945222E2,1.1763445E3,1.999102E2,-9.132442E1,-9.332937E0,3.706244E2,-1.1497751E2,1.0810026E2,4.2216965E1,-1.723046E1,-4.3440258E1,-3.8428633E0,1.6125753E1,-4.1710186E1,1.7778127E2,-3.939733E1,1.533048E3,1.8127951E2,-3.066198E2,9.614415E2,-2.659121E2,-2.7478573E1,-2.5187451E2,1.5947705E3,2.4661076E2,-3.083977E1,4.396401E1,-1.16721115E1,7.3242847E2,1.365234E2,-9.829063E1,4.268805E1,7.6465324E1,-3.334656E1,-5.3196583E1,-3.8829597E1,-5.2624176E1,1.6224893E2,-1.8288794E1,5.515201E2,-4.6887474E1,2.465058E2,-1.4155184E1,9.486061E1,-5.3474083E1,-2.1005753E1,2.295352E2,-6.8496313E0,1.4115912E3,7.84279E1,-5.8855762E1,1.5364352E2,2.3677288E1,-3.9854733E1,2.2042322E1,-4.621386E1,2.628313E2,-7.177214E1],"categories":[],"categories_nodes":[],"categories_segments":[],"categories_sizes":[],"default_left":[0,0,0,0,0,0,0,0,0,0,0,0,0,0,0,0,0,0,0,0,0,0,0,0,0,0,0,0,0,0,0,0,0,0,0,0,0,0,0,0,0,0,0,0,0,0,0,0,0,0,0,0,0,0,0,0,0,0,0,0,0,0,0,0,0,0,0,0,0,0,0,0,0,0,0,0,0,0,0,0,0,0,0,0,0,0,0,0,0,0,0,0,0,0,0,0,0,0,0,0,0,0,0,0,0,0,0,0,0,0,0,0,0],"id":2,"left_children":[1,3,5,7,9,11,13,15,17,19,21,23,25,27,29,31,33,35,37,39,41,43,45,47,49,51,53,55,57,59,61,63,65,67,69,-1,-1,71,-1,73,75,77,79,81,83,85,87,89,91,-1,-1,93,95,97,99,101,103,105,107,-1,-1,109,111,-1,-1,-1,-1,-1,-1,-1,-1,-1,-1,-1,-1,-1,-1,-1,-1,-1,-1,-1,-1,-1,-1,-1,-1,-1,-1,-1,-1,-1,-1,-1,-1,-1,-1,-1,-1,-1,-1,-1,-1,-1,-1,-1,-1,-1,-1,-1,-1,-1,-1],"loss_changes":[1.8985718E7,1.6049733E7,3.1543975E6,7.7627125E6,2.7412682E7,2.287172E6,3.6122802E6,1.769816E6,2.1159804E7,3.608783E7,1.4966408E7,9.741865E5,2.6784255E6,4.458865E6,3.8221535E6,2.0816974E6,6.326695E5,1.603125E2,8.132248E6,1.70844E7,8.7492056E7,1.1290621E8,5.1757335E6,6.997285E5,5.3577915E6,5.132319E6,2.0343015E6,7.4637595E6,2.1744782E6,1.2609552E6,1.0371511E6,3.8562028E6,2.842744E6,5.9900025E5,8.61058E5,0E0,0E0,1.7123912E7,0E0,2.8363384E7,2.4888465E6,4.1404784E7,2.8058288E6,1.377998E7,6.665545E7,2.0985735E6,6.5892575E6,8.2458E4,1.2175015E6,0E0,0E0,2.8747245E6,1.5940176E6,7.651132E6,7.33592E5,5.6966505E6,3.1056998E7,5.7895265E6,4.205175E5,0E0,0E0,9.684521E5,6.878577E6,0E0,0E0,0E0,0E0,0E0,0E0,0E0,0E0,0E0,0E0,0E0,0E0,0E0,0E0,0E0,0E0,0E0,0E0,0E0,0E0,0E0,0E0,0E0,0E0,0E0,0E0,0E0,0E0,0E0,0E0,0E0,0E0,0E0,0E0,0E0,0E0,0E0,0E0,0E0,0E0,0E0,0E0,0E0,0E0,0E0,0E0,0E0,0E0,0E0,0E0],"parents":[2147483647,0,0,1,1,2,2,3,3,4,4,5,5,6,6,7,7,8,8,9,9,10,10,11,11,12,12,13,13,14,14,15,15,16,16,17,17,18,18,19,19,20,20,21,21,22,22,23,23,24,24,25,25,26,26,27,27,28,28,29,29,30,30,31,31,32,32,33,33,34,34,37,37,39,39,40,40,41,41,42,42,43,43,44,44,45,45,46,46,47,47,48,48,51,51,52,52,53,53,54,54,55,55,56,56,57,57,58,58,61,61,62,62],"right_children":[2,4,6,8,10,12,14,16,18,20,22,24,26,28,30,32,34,36,38,40,42,44,46,48,50,52,54,56,58,60,62,64,66,68,70,-1,-1,72,-1,74,76,78,80,82,84,86,88,90,92,-1,-1,94,96,98,100,102,104,106,108,-1,-1,110,112,-1,-1,-1,-1,-1,-1,-1,-1,-1,-1,-1,-1,-1,-1,-1,-1,-1,-1,-1,-1,-1,-1,-1,-1,-1,-1,-1,-1,-1,-1,-1,-1,-1,-1,-1,-1,-1,-1,-1,-1,-1,-1,-1,-1,-1,-1,-1,-1,-1,-1],"split_conditions":[-7.393267E1,4.066295E1,-7.3791435E1,-7.393487E1,4.0667263E1,4.0656982E1,-7.37613E1,2.2E1,4.0639626E1,-7.394754E1,4.0811737E1,-7.380355E1,4.0658302E1,6E0,4.0594856E1,6E0,-7.394242E1,4.0638546E1,4.0651123E1,-7.398994E1,-7.394089E1,4.0806698E1,4.0821167E1,2.3E1,4.0596687E1,6E0,-7.381339E1,4.0744488E1,1.5E1,1.2E1,2.2E1,4.0619057E1,4.0600513E1,4.0555607E1,-7.394016E1,-4.280249E1,-1.216334E1,-7.393381E1,-2.749825E1,-7.3994095E1,-7.3984955E1,6E0,-7.3939644E1,1.8E1,-7.396321E1,2.1E1,-7.394585E1,1.8E1,4.0651123E1,-5.670405E1,3.9207755E2,-7.392091E1,2E1,-7.382009E1,-7.380053E1,1.6E1,4.0747974E1,9E0,4.0676933E1,-9.332937E0,3.706244E2,9E0,2.3E1,4.2216965E1,-1.723046E1,-4.3440258E1,-3.8428633E0,1.6125753E1,-4.1710186E1,1.7778127E2,-3.939733E1,1.533048E3,1.8127951E2,-3.066198E2,9.614415E2,-2.659121E2,-2.7478573E1,-2.5187451E2,1.5947705E3,2.4661076E2,-3.083977E1,4.396401E1,-1.16721115E1,7.3242847E2,1.365234E2,-9.829063E1,4.268805E1,7.6465324E1,-3.334656E1,-5.3196583E1,-3.8829597E1,-5.2624176E1,1.6224893E2,-1.8288794E1,5.515201E2,-4.6887474E1,2.465058E2,-1.4155184E1,9.486061E1,-5.3474083E1,-2.1005753E1,2.295352E2,-6.8496313E0,1.4115912E3,7.84279E1,-5.8855762E1,1.5364352E2,2.3677288E1,-3.9854733E1,2.2042322E1,-4.621386E1,2.628313E2,-7.177214E1],"split_indices":[1,0,1,1,0,0,1,2,0,1,0,1,0,3,0,3,1,0,0,1,1,0,0,2,0,3,1,0,2,2,2,0,0,0,1,0,0,1,0,1,1,3,1,2,1,2,1,2,0,0,0,1,2,1,1,2,0,2,0,0,0,2,2,0,0,0,0,0,0,0,0,0,0,0,0,0,0,0,0,0,0,0,0,0,0,0,0,0,0,0,0,0,0,0,0,0,0,0,0,0,0,0,0,0,0,0,0,0,0,0,0,0,0],"split_type":[0,0,0,0,0,0,0,0,0,0,0,0,0,0,0,0,0,0,0,0,0,0,0,0,0,0,0,0,0,0,0,0,0,0,0,0,0,0,0,0,0,0,0,0,0,0,0,0,0,0,0,0,0,0,0,0,0,0,0,0,0,0,0,0,0,0,0,0,0,0,0,0,0,0,0,0,0,0,0,0,0,0,0,0,0,0,0,0,0,0,0,0,0,0,0,0,0,0,0,0,0,0,0,0,0,0,0,0,0,0,0,0,0],"sum_hessian":[7.859E3,3.685E3,4.174E3,1.487E3,2.198E3,3.864E3,3.1E2,1.473E3,1.4E1,4.9E1,2.149E3,2.65E2,3.599E3,1.54E2,1.56E2,1.25E3,2.23E2,1E1,4E0,2.9E1,2E1,1.788E3,3.61E2,2.52E2,1.3E1,1.3E1,3.586E3,5.2E1,1.02E2,3E0,1.53E2,3.91E2,8.59E2,2.18E2,5E0,9E0,1E0,3E0,1E0,5E0,2.4E1,7E0,1.3E1,1.72E3,6.8E1,1.04E2,2.57E2,2.44E2,8E0,1.1E1,2E0,3E0,1E1,3.326E3,2.6E2,4.3E1,9E0,4.5E1,5.7E1,1E0,2E0,1.29E2,2.4E1,1.95E2,1.96E2,2.18E2,6.41E2,1.7E1,2.01E2,2E0,3E0,1E0,2E0,2E0,3E0,4E0,2E1,1E0,6E0,4E0,9E0,1.086E3,6.34E2,3.1E1,3.7E1,9.4E1,1E1,6.5E1,1.92E2,1.8E2,6.4E1,5E0,3E0,1E0,2E0,9E0,1E0,3.268E3,5.8E1,1.49E2,1.11E2,1.2E1,3.1E1,1E0,8E0,2E1,2.5E1,1.1E1,4.6E1,2.2E1,1.07E2,7E0,1.7E1],"tree_param":{"num_deleted":"0","num_feature":"4","num_nodes":"113","size_leaf_vector":"1"}},{"base_weights":[2.1218398E0,-7.9784706E1,1.8141565E1,-1.1733154E2,-4.0745213E1,7.398388E1,-2.8653683E1,-8.876799E1,-2.5651898E2,2.105432E3,-5.776773E1,2.6354282E2,4.5870064E1,1.7195954E0,-6.1501644E1,-9.9160904E1,4.2477567E2,-3.436079E2,-2.1013486E2,-4.3834882E2,1.8420833E3,4.8708823E2,-6.827097E1,1.7465527E2,1.8858961E3,-2.8728055E2,6.961846E1,4.152206E1,-3.8213253E1,-6.909034E1,8.702938E1,-6.152377E1,-1.3699123E2,-8.842528E1,8.78041E2,-1.507517E2,-2.897816E2,-2.249987E2,-5.7525368E1,9.293222E1,-2.3729436E2,-5.8630688E1,8.527796E2,-7.3182915E1,7.0277893E2,6.3994877E1,7.0937634E2,6.457291E2,3.6654307E3,-2.1882913E2,-3.858537E2,1.3941129E3,6.2495243E1,8.894053E1,-1.1234562E2,-5.4316242E1,5.231451E2,-2.165861E1,-9.061563E1,-6.2017082E1,8.3669147E2,2.1055725E1,-2.6034704E1,-6.745257E1,-3.453194E1,-3.6933266E1,3.1962543E2,-9.3733154E1,-3.419446E1,-3.1585093E1,-7.3876366E1,-3.0754734E1,3.8611126E1,3.168639E2,-8.568796E1,1.0742686E2,-2.4274815E1,4.7666977E2,-3.666827E1,7.843117E1,-2.835076E0,3.428094E2,-2.8172598E1,-4.2524208E1,4.764229E2,-6.488275E1,1.4986138E3,2.83868E1,-8.543065E1,-3.5849415E1,-1.2548844E2,1.6384761E2,1.7354346E3,4.9152016E1,2.0011182E0,1.8751074E1,1.7107845E2,-3.7729965E1,-1.7653633E1,1.2666873E1,-2.0701387E1,6.2907605E2,4.250687E1,-1.4564699E1,2.444933E2,-2.1009636E1,-4.29967E1,9.496172E1,-4.100841E1,6.4205237E2,-3.7578873E1],"categories":[],"categories_nodes":[],"categories_segments":[],"categories_sizes":[],"default_left":[0,0,0,0,0,0,0,0,0,0,0,0,0,0,0,0,0,0,0,0,0,0,0,0,0,0,0,0,0,0,0,0,0,0,0,0,0,0,0,0,0,0,0,0,0,0,0,0,0,0,0,0,0,0,0,0,0,0,0,0,0,0,0,0,0,0,0,0,0,0,0,0,0,0,0,0,0,0,0,0,0,0,0,0,0,0,0,0,0,0,0,0,0,0,0,0,0,0,0,0,0,0,0,0,0,0,0,0,0,0,0],"id":3,"left_children":[1,3,5,7,9,11,13,15,17,19,21,23,25,27,29,31,33,35,37,39,-1,41,43,45,47,49,51,53,55,57,59,61,63,-1,65,-1,67,69,71,-1,-1,-1,73,75,77,79,81,83,85,87,89,91,93,95,97,99,101,103,105,107,109,-1,-1,-1,-1,-1,-1,-1,-1,-1,-1,-1,-1,-1,-1,-1,-1,-1,-1,-1,-1,-1,-1,-1,-1,-1,-1,-1,-1,-1,-1,-1,-1,-1,-1,-1,-1,-1,-1,-1,-1,-1,-1,-1,-1,-1,-1,-1,-1,-1,-1],"loss_changes":[1.0314715E7,1.88025E6,1.7183614E7,2.581306E6,2.3210696E7,1.596493E7,3.5698775E6,2.9509055E6,3.76185E5,5.401039E7,3.6271455E6,5.547871E7,2.0685604E7,2.9579185E6,1.9435945E6,7.53318E5,3.8463045E6,1.7084E5,1.5718425E5,1.3002745E6,0E0,3.1617808E6,2.3882245E6,2.1730066E7,4.177153E7,1.089625E6,2.292401E7,6.810022E6,8.426154E6,1.6683635E6,9.437586E6,9.043253E5,4.85528E5,0E0,1.444315E6,0E0,8.3908E4,1.47109E5,8.022236E4,0E0,0E0,0E0,2.1543995E6,2.0767195E6,3.1184268E6,4.439831E6,2.2036386E7,9.872096E6,4.238012E7,2.1971825E6,5.54874E5,4.524071E7,1.3729802E7,9.037038E6,1.5056425E5,1.2847895E6,1.5311342E7,1.1558273E7,1.210463E6,2.0504155E6,1.782256E7,0E0,0E0,0E0,0E0,0E0,0E0,0E0,0E0,0E0,0E0,0E0,0E0,0E0,0E0,0E0,0E0,0E0,0E0,0E0,0E0,0E0,0E0,0E0,0E0,0E0,0E0,0E0,0E0,0E0,0E0,0E0,0E0,0E0,0E0,0E0,0E0,0E0,0E0,0E0,0E0,0E0,0E0,0E0,0E0,0E0,0E0,0E0,0E0,0E0,0E0],"parents":[2147483647,0,0,1,1,2,2,3,3,4,4,5,5,6,6,7,7,8,8,9,9,10,10,11,11,12,12,13,13,14,14,15,15,16,16,17,17,18,18,19,19,21,21,22,22,23,23,24,24,25,25,26,26,27,27,28,28,29,29,30,30,31,31,32,32,34,34,36,36,37,37,38,38,42,42,43,43,44,44,45,45,46,46,47,47,48,48,49,49,50,50,51,51,52,52,53,53,54,54,55,55,56,56,57,57,58,58,59,59,60,60],"right_children":[2,4,6,8,10,12,14,16,18,20,22,24,26,28,30,32,34,36,38,40,-1,42,44,46,48,50,52,54,56,58,60,62,64,-1,66,-1,68,70,72,-1,-1,-1,74,76,78,80,82,84,86,88,90,92,94,96,98,100,102,104,106,108,110,-1,-1,-1,-1,-1,-1,-1,-1,-1,-1,-1,-1,-1,-1,-1,-1,-1,-1,-1,-1,-1,-1,-1,-1,-1,-1,-1,-1,-1,-1,-1,-1,-1,-1,-1,-1,-1,-1,-1,-1,-1,-1,-1,-1,-1,-1,-1,-1,-1,-1],"split_conditions":[9E0,4.072024E1,1.7E1,4.0698196E1,4.072149E1,-7.398939E1,6E0,4.069723E1,4.0702785E1,-7.39804E1,4.0723747E1,4.0743317E1,-7.3982605E1,2.1E1,4.086822E1,4.064359E1,4E0,-7.398939E1,-7.381339E1,-7.3988235E1,1.8420833E3,4.0723095E1,-7.37499E1,-7.3994965E1,1.5E1,1.5E1,-7.3982124E1,-7.388611E1,-7.377509E1,-7.3957794E1,2.3E1,1E0,-7.3957794E1,-8.842528E1,-7.396457E1,-1.507517E2,-7.3884865E1,-7.3994965E1,8E0,9.293222E1,-2.3729436E2,-5.8630688E1,-7.381719E1,-7.399967E1,4.0725513E1,6E0,4.0703617E1,4.0755856E1,-7.400466E1,-7.398732E1,4.0664413E1,1.5E1,-7.393381E1,-7.389137E1,2E1,-7.399305E1,-7.3765884E1,4.0806698E1,2.2E1,-7.390375E1,-7.389342E1,2.1055725E1,-2.6034704E1,-6.745257E1,-3.453194E1,-3.6933266E1,3.1962543E2,-9.3733154E1,-3.419446E1,-3.1585093E1,-7.3876366E1,-3.0754734E1,3.8611126E1,3.168639E2,-8.568796E1,1.0742686E2,-2.4274815E1,4.7666977E2,-3.666827E1,7.843117E1,-2.835076E0,3.428094E2,-2.8172598E1,-4.2524208E1,4.764229E2,-6.488275E1,1.4986138E3,2.83868E1,-8.543065E1,-3.5849415E1,-1.2548844E2,1.6384761E2,1.7354346E3,4.9152016E1,2.0011182E0,1.8751074E1,1.7107845E2,-3.7729965E1,-1.7653633E1,1.2666873E1,-2.0701387E1,6.2907605E2,4.250687E1,-1.4564699E1,2.444933E2,-2.1009636E1,-4.29967E1,9.496172E1,-4.100841E1,6.4205237E2,-3.7578873E1],"split_indices":[2,0,2,0,0,1,3,0,0,1,0,0,1,2,0,0,2,1,1,1,0,0,1,1,2,2,1,1,1,1,2,2,1,0,1,0,1,1,2,0,0,0,1,1,0,3,0,0,1,1,0,2,1,1,2,1,1,0,2,1,1,0,0,0,0,0,0,0,0,0,0,0,0,0,0,0,0,0,0,0,0,0,0,0,0,0,0,0,0,0,0,0,0,0,0,0,0,0,0,0,0,0,0,0,0,0,0,0,0,0,0],"split_type":[0,0,0,0,0,0,0,0,0,0,0,0,0,0,0,0,0,0,0,0,0,0,0,0,0,0,0,0,0,0,0,0,0,0,0,0,0,0,0,0,0,0,0,0,0,0,0,0,0,0,0,0,0,0,0,0,0,0,0,0,0,0,0,0,0,0,0,0,0,0,0,0,0,0,0,0,0,0,0,0,0,0,0,0,0,0,0,0,0,0,0,0,0,0,0,0,0,0,0,0,0,0,0,0,0,0,0,0,0,0,0],"sum_hessian":[7.859E3,1.285E3,6.574E3,6.54E2,6.31E2,2.997E3,3.577E3,5.44E2,1.1E2,4E0,6.27E2,3.86E2,2.611E3,1.859E3,1.718E3,5.34E2,1E1,3.6E1,7.4E1,3E0,1E0,1.1E1,6.16E2,3.67E2,1.9E1,1.73E2,2.438E3,9.31E2,9.28E2,1.635E3,8.3E1,2.69E2,2.65E2,4E0,6E0,7E0,2.9E1,6.7E1,7E0,1E0,2E0,4E0,7E0,6.13E2,3E0,3.05E2,6.2E1,1.2E1,7E0,1.04E2,6.9E1,1.2E1,2.426E3,7.12E2,2.19E2,9.03E2,2.5E1,5.11E2,1.124E3,7E1,1.3E1,4.3E1,2.26E2,5.1E1,2.14E2,1E0,5E0,2.5E1,4E0,1.1E1,5.6E1,6E0,1E0,6E0,1E0,1E1,6.03E2,1E0,2E0,8.2E1,2.23E2,4E1,2.2E1,7E0,5E0,2E0,5E0,1.8E1,8.6E1,8E0,6.1E1,1.1E1,1E0,8.61E2,1.565E3,6.76E2,3.6E1,1.74E2,4.5E1,1.19E2,7.84E2,4E0,2.1E1,4.96E2,1.5E1,8.1E2,3.14E2,1.1E1,5.9E1,5E0,8E0],"tree_param":{"num_deleted":"0","num_feature":"4","num_nodes":"111","size_leaf_vector":"1"}},{"base_weights":[2.4670565E0,1.8790407E1,-4.644616E1,7.5325346E0,5.3830347E2,-3.0981192E2,-3.7569134E1,-2.0623956E0,1.10467705E2,1.6145352E3,1.662001E2,-4.1936954E1,-3.7727148E2,3.8687027E2,-4.9459732E1,1.2334745E1,-5.6023926E1,2.1401059E2,-1.9854674E2,1.7062369E3,4.5588196E2,9.257613E2,9.444504E1,-2.2749579E2,4.788341E2,-4.891045E2,-2.5974936E2,9.540782E2,-2.6387744E2,-7.800331E1,3.613411E0,-4.381741E1,4.1459824E1,-6.307038E1,3.5265228E2,5.5487434E1,5.636575E2,-2.2837793E2,7.534835E2,-4.0184122E2,1.6620354E3,4.7876645E2,-4.300124E1,-6.633148E1,4.742027E2,-8.963231E1,-2.4662E1,-4.6960434E1,3.5774112E2,-9.369491E1,-1.6215137E2,-2.5554043E1,-8.109231E1,5.1090146E2,3.4854133E3,-1.600889E1,-9.309845E1,-1.6351855E2,-6.45642E1,3.443171E2,-2.726178E1,-9.053495E0,-4.6586193E1,-6.8369403E0,2.2382498E1,-2.0127981E1,2.7744846E1,3.0080893E2,-3.3029453E1,1.0628219E2,-1.0236588E0,5.895899E2,7.436628E1,-9.5287476E1,-1.1913647E1,4.7910635E2,-1.8010807E1,6.765509E1,-4.455073E2,6.019542E2,-2.6741254E2,-4.655051E1,2.932328E2,2.583872E2,6.258489E0,3.300877E2,5.0645382E1,-3.0837576E1,1.4147238E3,-3.413999E1,1.1066663E1,-9.894666E1,-2.4117619E1,2.248404E1,-2.1235157E1,4.214609E1,4.0435745E2,1.7860136E1,-2.783665E1],"categories":[],"categories_nodes":[],"categories_segments":[],"categories_sizes":[],"default_left":[0,0,0,0,0,0,0,0,0,0,0,0,0,0,0,0,0,0,0,0,0,0,0,0,0,0,0,0,0,0,0,0,0,0,0,0,0,0,0,0,0,0,0,0,0,0,0,0,0,0,0,0,0,0,0,0,0,0,0,0,0,0,0,0,0,0,0,0,0,0,0,0,0,0,0,0,0,0,0,0,0,0,0,0,0,0,0,0,0,0,0,0,0,0,0,0,0,0,0],"id":4,"left_children":[1,3,5,7,9,11,13,15,17,19,21,23,25,27,29,31,33,35,37,-1,39,41,43,45,47,49,51,53,55,57,59,61,63,65,67,69,71,73,75,77,79,-1,-1,81,83,-1,-1,-1,-1,-1,-1,-1,-1,85,87,89,-1,91,93,95,97,-1,-1,-1,-1,-1,-1,-1,-1,-1,-1,-1,-1,-1,-1,-1,-1,-1,-1,-1,-1,-1,-1,-1,-1,-1,-1,-1,-1,-1,-1,-1,-1,-1,-1,-1,-1,-1,-1],"loss_changes":[6.276513E6,3.4467664E7,4.587018E6,5.6990015E6,4.9790344E7,1.140705E6,9.628316E6,4.1019025E6,1.5784646E7,1.484185E8,5.035788E6,1.4618041E6,5.432405E5,1.944544E7,2.807387E6,6.818313E6,3.2244898E6,2.0421334E7,3.693704E6,0E0,2.7566068E7,5.960205E6,5.3433365E6,8.935481E4,2.0003521E6,5.8365E4,2.67405E4,2.9630506E7,2.8287388E5,1.3742875E6,6.8364065E6,2.1602895E6,5.8479445E6,6.908005E5,5.8257515E6,4.488805E6,5.0411416E7,2.024766E6,2.8408162E6,1.1207599E7,1.1464102E7,0E0,0E0,5.9006575E6,4.5445875E6,0E0,0E0,0E0,0E0,0E0,0E0,0E0,0E0,4.854774E6,1.814348E7,3.0062602E4,0E0,2.226836E6,9.103265E5,1.0856448E7,3.3952485E6,0E0,0E0,0E0,0E0,0E0,0E0,0E0,0E0,0E0,0E0,0E0,0E0,0E0,0E0,0E0,0E0,0E0,0E0,0E0,0E0,0E0,0E0,0E0,0E0,0E0,0E0,0E0,0E0,0E0,0E0,0E0,0E0,0E0,0E0,0E0,0E0,0E0,0E0],"parents":[2147483647,0,0,1,1,2,2,3,3,4,4,5,5,6,6,7,7,8,8,9,9,10,10,11,11,12,12,13,13,14,14,15,15,16,16,17,17,18,18,20,20,21,21,22,22,23,23,24,24,25,25,26,26,27,27,28,28,29,29,30,30,31,31,32,32,33,33,34,34,35,35,36,36,37,37,38,38,39,39,40,40,43,43,44,44,53,53,54,54,55,55,57,57,58,58,59,59,60,60],"right_children":[2,4,6,8,10,12,14,16,18,20,22,24,26,28,30,32,34,36,38,-1,40,42,44,46,48,50,52,54,56,58,60,62,64,66,68,70,72,74,76,78,80,-1,-1,82,84,-1,-1,-1,-1,-1,-1,-1,-1,86,88,90,-1,92,94,96,98,-1,-1,-1,-1,-1,-1,-1,-1,-1,-1,-1,-1,-1,-1,-1,-1,-1,-1,-1,-1,-1,-1,-1,-1,-1,-1,-1,-1,-1,-1,-1,-1,-1,-1,-1,-1,-1,-1],"split_conditions":[4.0813217E1,4.0806698E1,-7.39507E1,4.0773952E1,-7.396321E1,4.0818756E1,-7.394585E1,2.1E1,4.0798206E1,1.7E1,4.0807423E1,-7.395285E1,1.8E1,1.9E1,4.0859375E1,1.2E1,-7.37499E1,-7.3947E1,-7.391505E1,1.7062369E3,2.2E1,-7.394242E1,2.1E1,1.8E1,4.0814816E1,9E0,-7.395451E1,1.8E1,4.0814816E1,-7.393828E1,-7.392155E1,4.0747204E1,4.066295E1,4.0765675E1,-7.374219E1,1.3E1,-7.394312E1,-7.394242E1,-7.391274E1,6E0,2.3E1,4.7876645E2,-4.300124E1,-7.390228E1,-7.393828E1,-8.963231E1,-2.4662E1,-4.6960434E1,3.5774112E2,-9.369491E1,-1.6215137E2,-2.5554043E1,-8.109231E1,4.0823204E1,4.081818E1,6E0,-9.309845E1,1.5E1,-7.393644E1,-7.392226E1,4.0872623E1,-9.053495E0,-4.6586193E1,-6.8369403E0,2.2382498E1,-2.0127981E1,2.7744846E1,3.0080893E2,-3.3029453E1,1.0628219E2,-1.0236588E0,5.895899E2,7.436628E1,-9.5287476E1,-1.1913647E1,4.7910635E2,-1.8010807E1,6.765509E1,-4.455073E2,6.019542E2,-2.6741254E2,-4.655051E1,2.932328E2,2.583872E2,6.258489E0,3.300877E2,5.0645382E1,-3.0837576E1,1.4147238E3,-3.413999E1,1.1066663E1,-9.894666E1,-2.4117619E1,2.248404E1,-2.1235157E1,4.214609E1,4.0435745E2,1.7860136E1,-2.783665E1],"split_indices":[0,0,1,0,1,0,1,2,0,2,0,1,2,2,0,2,1,1,1,0,2,1,2,2,0,2,1,2,0,1,1,0,0,0,1,2,1,1,1,3,2,0,0,1,1,0,0,0,0,0,0,0,0,0,0,3,0,2,1,1,0,0,0,0,0,0,0,0,0,0,0,0,0,0,0,0,0,0,0,0,0,0,0,0,0,0,0,0,0,0,0,0,0,0,0,0,0,0,0],"split_type":[0,0,0,0,0,0,0,0,0,0,0,0,0,0,0,0,0,0,0,0,0,0,0,0,0,0,0,0,0,0,0,0,0,0,0,0,0,0,0,0,0,0,0,0,0,0,0,0,0,0,0,0,0,0,0,0,0,0,0,0,0,0,0,0,0,0,0,0,0,0,0,0,0,0,0,0,0,0,0,0,0,0,0,0,0,0,0,0,0,0,0,0,0,0,0,0,0,0,0],"sum_hessian":[7.859E3,5.893E3,1.966E3,5.769E3,1.24E2,6.3E1,1.903E3,5.278E3,4.91E2,3.1E1,9.3E1,1.3E1,5E1,5.1E1,1.852E3,4.167E3,1.111E3,3.68E2,1.23E2,6E0,2.5E1,7E0,8.6E1,1E1,3E0,2.4E1,2.6E1,2.7E1,2.4E1,1.204E3,6.48E2,1.423E3,2.744E3,1.093E3,1.8E1,2.54E2,1.14E2,1.2E2,3E0,1.5E1,1E1,4E0,3E0,6.1E1,2.5E1,6E0,4E0,2E0,1E0,7E0,1.7E1,2E0,2.4E1,2.4E1,3E0,4E0,2E1,1.62E2,1.042E3,5.3E1,5.95E2,1.269E3,1.54E2,9.34E2,1.81E3,1.066E3,2.7E1,7E0,1.1E1,4.1E1,2.13E2,2E1,9.4E1,8.1E1,3.9E1,1E0,2E0,1E1,5E0,9E0,1E0,5.7E1,4E0,1.3E1,1.2E1,8E0,1.6E1,1E0,2E0,1E0,3E0,5.3E1,1.09E2,4.4E1,9.98E2,4.5E1,8E0,2.56E2,3.39E2],"tree_param":{"num_deleted":"0","num_feature":"4","num_nodes":"99","size_leaf_vector":"1"}},{"base_weights":[2.4604747E0,2.5223936E1,-1.7637388E1,-6.3926952E1,4.0546696E1,-1.6548213E2,-1.5659931E1,-3.7334286E1,-1.852652E2,2.186138E1,1.6110817E2,-1.5166435E2,-1.0633064E2,3.6116273E0,-2.9207258E1,-5.4138897E1,1.2012264E3,-2.2667786E2,3.0378525E2,8.827295E0,2.1290231E2,1.0339858E3,4.366851E1,-7.978555E1,-1.685901E2,-1.4284325E1,1.1060582E2,-1.14448616E2,-2.2058943E1,-7.951606E1,1.9476364E2,-1.6391983E2,5.774339E2,-2.595771E2,-1.4455896E2,-3.6362194E1,1.0525085E3,3.571177E1,-5.819369E1,1.1215155E3,-2.395365E1,3.0798994E3,5.097634E2,1.6101982E2,-8.3052734E1,-4.015523E1,-3.4118755E0,-1.8587505E2,-3.967117E1,1.2214308E2,-3.1655937E1,3.1484512E1,6.155486E2,-3.703682E0,-1.734217E2,4.0693167E2,-2.6117994E1,-1.9894405E1,-8.246524E1,7.5838904E2,-1.678851E1,-1.2526158E1,-6.1237766E1,-6.629781E1,-1.1729372E2,-5.3264797E1,1.7991631E0,5.304587E2,-5.6829765E1,8.074106E0,1.7953691E2,9.064687E0,-3.220601E1,9.7699133E2,8.675758E1,5.3979614E1,-6.8249146E1,-9.394829E1,1.6182399E3,3.1339508E2,1.3721029E1,1.0666526E2,-2.7786161E1,-3.1737553E1,1.4821237E2,4.0154915E1,-3.165153E1,-3.8968525E1,-6.2361187E1,8.155008E0,2.841757E2,-2.762929E1,-4.626132E0,2.5370651E1,-4.8575726E1,9.204989E2,1.3290417E2,-4.6813007E1,2.9765457E1,-4.8883503E1,-1.6040475E2,-3.133917E1,4.333939E2,1.4422423E1,-1.0485733E1],"categories":[],"categories_nodes":[],"categories_segments":[],"categories_sizes":[],"default_left":[0,0,0,0,0,0,0,0,0,0,0,0,0,0,0,0,0,0,0,0,0,0,0,0,0,0,0,0,0,0,0,0,0,0,0,0,0,0,0,0,0,0,0,0,0,0,0,0,0,0,0,0,0,0,0,0,0,0,0,0,0,0,0,0,0,0,0,0,0,0,0,0,0,0,0,0,0,0,0,0,0,0,0,0,0,0,0,0,0,0,0,0,0,0,0,0,0,0,0,0,0,0,0,0,0],"id":5,"left_children":[1,3,5,7,9,11,13,15,17,19,21,23,-1,25,27,29,31,33,35,37,39,41,43,45,47,49,51,53,55,57,59,61,-1,63,65,-1,67,69,71,73,75,77,79,81,83,-1,85,87,-1,89,91,93,95,97,99,101,103,-1,-1,-1,-1,-1,-1,-1,-1,-1,-1,-1,-1,-1,-1,-1,-1,-1,-1,-1,-1,-1,-1,-1,-1,-1,-1,-1,-1,-1,-1,-1,-1,-1,-1,-1,-1,-1,-1,-1,-1,-1,-1,-1,-1,-1,-1,-1,-1],"loss_changes":[3.5963705E6,5.037807E6,1.2179971E6,1.7387325E6,7.083564E6,8.9845125E4,1.0760085E6,9.327057E6,2.03339E6,6.783489E6,4.321426E7,5.1028875E4,0E0,3.2605062E6,1.4720594E6,2.7947205E6,6.242044E6,2.05624E5,2.6731865E6,4.6003335E6,3.7473484E7,5.205567E7,5.5602205E6,4.9093227E4,1.811375E3,3.4616438E6,9.728842E6,1.2206492E6,3.900683E6,1.01342225E6,2.4126156E7,6.2123906E3,0E0,2.330105E5,1.4013806E5,0E0,3.0014765E6,9.00475E6,3.1802958E6,6.3034264E7,5.809379E6,8.021257E7,1.012849E7,9.60507E6,2.414334E6,0E0,9.82027E4,5.0126875E3,0E0,1.2902353E7,1.2693644E6,2.1902332E6,1.2605952E7,1.0503018E6,3.74624E5,1.1295248E7,1.4528506E6,0E0,0E0,0E0,0E0,0E0,0E0,0E0,0E0,0E0,0E0,0E0,0E0,0E0,0E0,0E0,0E0,0E0,0E0,0E0,0E0,0E0,0E0,0E0,0E0,0E0,0E0,0E0,0E0,0E0,0E0,0E0,0E0,0E0,0E0,0E0,0E0,0E0,0E0,0E0,0E0,0E0,0E0,0E0,0E0,0E0,0E0,0E0,0E0],"parents":[2147483647,0,0,1,1,2,2,3,3,4,4,5,5,6,6,7,7,8,8,9,9,10,10,11,11,13,13,14,14,15,15,16,16,17,17,18,18,19,19,20,20,21,21,22,22,23,23,24,24,25,25,26,26,27,27,28,28,29,29,30,30,31,31,33,33,34,34,36,36,37,37,38,38,39,39,40,40,41,41,42,42,43,43,44,44,46,46,47,47,49,49,50,50,51,51,52,52,53,53,54,54,55,55,56,56],"right_children":[2,4,6,8,10,12,14,16,18,20,22,24,-1,26,28,30,32,34,36,38,40,42,44,46,48,50,52,54,56,58,60,62,-1,64,66,-1,68,70,72,74,76,78,80,82,84,-1,86,88,-1,90,92,94,96,98,100,102,104,-1,-1,-1,-1,-1,-1,-1,-1,-1,-1,-1,-1,-1,-1,-1,-1,-1,-1,-1,-1,-1,-1,-1,-1,-1,-1,-1,-1,-1,-1,-1,-1,-1,-1,-1,-1,-1,-1,-1,-1,-1,-1,-1,-1,-1,-1,-1,-1],"split_conditions":[-7.393267E1,9E0,-7.393002E1,-7.394659E1,-7.394376E1,4.0859375E1,1.5E1,-7.3947E1,-7.393487E1,4.0806698E1,-7.394242E1,1.3E1,-1.0633064E2,1.4E1,-7.392226E1,-7.395203E1,4.0811737E1,4.0814816E1,4.070543E1,-7.396434E1,4.080972E1,1.4E1,4.080972E1,4.067094E1,4.0831528E1,-7.391771E1,-7.382009E1,-7.392786E1,-7.392155E1,4.079066E1,-7.395142E1,4.06417E1,5.774339E2,4.0764313E1,7E0,-3.6362194E1,4.0798206E1,-7.3965065E1,4.0651817E1,1.7E1,6E0,1.2E1,1.7E1,1.8E1,-7.393381E1,-4.015523E1,4.069723E1,4.0664413E1,-3.967117E1,-7.391943E1,-7.390137E1,-7.385914E1,-7.381719E1,1.9E1,4.086822E1,4.084084E1,4.0673237E1,-1.9894405E1,-8.246524E1,7.5838904E2,-1.678851E1,-1.2526158E1,-6.1237766E1,-6.629781E1,-1.1729372E2,-5.3264797E1,1.7991631E0,5.304587E2,-5.6829765E1,8.074106E0,1.7953691E2,9.064687E0,-3.220601E1,9.7699133E2,8.675758E1,5.3979614E1,-6.8249146E1,-9.394829E1,1.6182399E3,3.1339508E2,1.3721029E1,1.0666526E2,-2.7786161E1,-3.1737553E1,1.4821237E2,4.0154915E1,-3.165153E1,-3.8968525E1,-6.2361187E1,8.155008E0,2.841757E2,-2.762929E1,-4.626132E0,2.5370651E1,-4.8575726E1,9.204989E2,1.3290417E2,-4.6813007E1,2.9765457E1,-4.8883503E1,-1.6040475E2,-3.133917E1,4.333939E2,1.4422423E1,-1.0485733E1],"split_indices":[1,2,1,1,1,0,2,1,1,0,1,2,0,2,1,1,0,0,0,1,0,2,0,0,0,1,1,1,1,0,1,0,0,0,2,0,0,1,0,2,3,2,2,2,1,0,0,0,0,1,1,1,1,2,0,0,0,0,0,0,0,0,0,0,0,0,0,0,0,0,0,0,0,0,0,0,0,0,0,0,0,0,0,0,0,0,0,0,0,0,0,0,0,0,0,0,0,0,0,0,0,0,0,0,0],"split_type":[0,0,0,0,0,0,0,0,0,0,0,0,0,0,0,0,0,0,0,0,0,0,0,0,0,0,0,0,0,0,0,0,0,0,0,0,0,0,0,0,0,0,0,0,0,0,0,0,0,0,0,0,0,0,0,0,0,0,0,0,0,0,0,0,0,0,0,0,0,0,0,0,0,0,0,0,0,0,0,0,0,0,0,0,0,0,0,0,0,0,0,0,0,0,0,0,0,0,0,0,0,0,0,0,0],"sum_hessian":[7.859E3,3.685E3,4.174E3,5.4E2,3.145E3,5.4E1,4.12E3,4.44E2,9.6E1,2.724E3,4.21E2,5.2E1,2E0,1.701E3,2.419E3,4.39E2,5E0,8.9E1,7E0,2.551E3,1.73E2,4.9E1,3.72E2,1.1E1,4.1E1,1.458E3,2.43E2,1.86E2,2.233E3,3.99E2,4E1,2E0,3E0,6.2E1,2.7E1,5E0,2E0,1.821E3,7.3E2,3.5E1,1.38E2,9E0,4E1,1.93E2,1.79E2,6E0,5E0,2.5E1,1.6E1,1.64E2,1.294E3,2.11E2,3.2E1,6.5E1,1.21E2,2E1,2.213E3,3.75E2,2.4E1,3E0,3.7E1,1E0,1E0,5E1,1.2E1,2.2E1,5E0,1E0,1E0,1.794E3,2.7E1,2.61E2,4.69E2,9E0,2.6E1,6.9E1,6.9E1,4E0,5E0,1.8E1,2.2E1,1.09E2,8.4E1,1.73E2,6E0,2E0,3E0,9E0,1.6E1,1.48E2,1.6E1,2.73E2,1.021E3,1.66E2,4.5E1,1E0,3.1E1,2.6E1,3.9E1,1.19E2,2E0,1.4E1,6E0,2.35E2,1.978E3],"tree_param":{"num_deleted":"0","num_feature":"4","num_nodes":"105","size_leaf_vector":"1"}},{"base_weights":[2.459836E0,-6.0820274E1,7.830359E0,1.0080607E1,-9.134759E1,2.5313826E2,-7.9034865E-1,-5.5486053E1,1.1696024E3,-1.1339516E2,-1.8406544E1,4.2933817E2,2.401858E1,-6.190283E1,4.163309E0,-1.0650813E2,6.2703285E1,1.7468495E3,5.5956674E0,1.4492487E1,-1.8005782E2,-2.8008694E2,6.2346485E1,1.6358513E2,8.991069E2,2.0555994E2,-1.5465872E2,-1.0498273E2,3.7846255E2,5.290469E2,1.7205875E0,-3.4859886E0,-1.808646E2,6.977245E2,-7.980594E1,-1.3291258E2,1.6704926E2,-3.0904884E1,3.6957242E2,-2.4812094E2,-1.408508E2,-5.5239315E0,-3.1904718E2,1.7553033E2,-8.928938E1,-1.7285223E2,3.1051627E2,5.5829553E2,4.6788633E3,6.244204E0,6.3899744E2,-1.9082979E2,-1.26705124E2,5.218426E1,-2.0146951E2,1.7132395E3,1.02045616E2,-2.2022673E2,1.6713094E3,3.1248861E1,-1.1238769E1,-3.2394836E1,7.347354E1,-8.606665E1,-3.656269E1,-4.7125664E1,3.2595374E2,8.729679E1,-5.0352737E1,-1.59427E1,-4.519368E1,2.3771507E1,-3.1870375E1,-5.2406513E1,3.1009744E2,-8.889677E1,-6.2444286E1,-8.935055E-1,-4.8742672E1,-2.5094213E1,3.432696E1,3.2829027E0,-1.00828156E2,9.4807014E1,-7.114824E1,-4.8340412E1,3.845544E1,-3.717424E1,-6.593623E1,-1.4589105E2,1.1627766E2,2.8426706E2,-1.0058968E2,1.9367477E3,-9.780332E1,-8.2252884E1,4.8908974E1,6.558506E2,-1.5665934E0,-2.195607E1,-5.9680424E1,-4.1206593E1,8.739527E0,-3.254393E0,8.626767E2,-4.018336E1,-8.0025314E1,1.1918461E2,1.1322224E3,5.7207196E2,-4.5439236E1,-1.1049024E1,-9.061147E1,1.4705508E3,2.7960117E2,3.438513E0,6.423518E1,-2.8436789E1,-2.1758692E0],"categories":[],"categories_nodes":[],"categories_segments":[],"categories_sizes":[],"default_left":[0,0,0,0,0,0,0,0,0,0,0,0,0,0,0,0,0,0,0,0,0,0,0,0,0,0,0,0,0,0,0,0,0,0,0,0,0,0,0,0,0,0,0,0,0,0,0,0,0,0,0,0,0,0,0,0,0,0,0,0,0,0,0,0,0,0,0,0,0,0,0,0,0,0,0,0,0,0,0,0,0,0,0,0,0,0,0,0,0,0,0,0,0,0,0,0,0,0,0,0,0,0,0,0,0,0,0,0,0,0,0,0,0,0,0,0,0,0,0],"id":6,"left_children":[1,3,5,7,9,11,13,15,17,19,21,23,25,27,29,31,33,-1,35,37,39,41,43,45,47,49,51,53,55,57,59,61,63,65,67,69,-1,71,73,75,77,79,81,83,85,87,89,91,93,95,97,99,101,103,105,107,109,111,113,115,117,-1,-1,-1,-1,-1,-1,-1,-1,-1,-1,-1,-1,-1,-1,-1,-1,-1,-1,-1,-1,-1,-1,-1,-1,-1,-1,-1,-1,-1,-1,-1,-1,-1,-1,-1,-1,-1,-1,-1,-1,-1,-1,-1,-1,-1,-1,-1,-1,-1,-1,-1,-1,-1,-1,-1,-1,-1,-1],"loss_changes":[2.671676E6,1.3320348E6,1.5323517E7,1.4205727E7,6.894275E5,9.920921E6,2.1196728E6,1.0740354E6,5.413132E7,2.815968E6,2.1517425E6,1.7206022E7,3.5350222E6,9.999453E6,8.30354E6,9.492545E5,4.942487E6,0E0,7.611653E5,1.849067E6,5.441275E5,2.5496638E5,1.354366E6,4.5026545E6,6.1797004E7,4.661119E6,3.1432E4,7.2743265E6,1.7166054E7,2.6044082E7,2.4677908E6,1.4021552E6,4.1534175E5,3.4940735E6,1.5177985E6,3.310875E3,0E0,8.5471775E5,4.879233E6,8.861E4,4.1692075E5,4.7053934E4,1.2180775E5,2.6840585E6,5.518881E5,3.7079E4,4.05767E6,1.6666274E7,3.767855E7,1.715404E6,1.6955614E7,6.417375E3,6.0430875E4,3.259888E7,1.273487E6,2.0196396E7,1.859082E7,2.7395094E5,2.4091632E7,7.1150275E6,1.4919156E6,0E0,0E0,0E0,0E0,0E0,0E0,0E0,0E0,0E0,0E0,0E0,0E0,0E0,0E0,0E0,0E0,0E0,0E0,0E0,0E0,0E0,0E0,0E0,0E0,0E0,0E0,0E0,0E0,0E0,0E0,0E0,0E0,0E0,0E0,0E0,0E0,0E0,0E0,0E0,0E0,0E0,0E0,0E0,0E0,0E0,0E0,0E0,0E0,0E0,0E0,0E0,0E0,0E0,0E0,0E0,0E0,0E0,0E0],"parents":[2147483647,0,0,1,1,2,2,3,3,4,4,5,5,6,6,7,7,8,8,9,9,10,10,11,11,12,12,13,13,14,14,15,15,16,16,18,18,19,19,20,20,21,21,22,22,23,23,24,24,25,25,26,26,27,27,28,28,29,29,30,30,31,31,32,32,33,33,34,34,35,35,37,37,38,38,39,39,40,40,41,41,42,42,43,43,44,44,45,45,46,46,47,47,48,48,49,49,50,50,51,51,52,52,53,53,54,54,55,55,56,56,57,57,58,58,59,59,60,60],"right_children":[2,4,6,8,10,12,14,16,18,20,22,24,26,28,30,32,34,-1,36,38,40,42,44,46,48,50,52,54,56,58,60,62,64,66,68,70,-1,72,74,76,78,80,82,84,86,88,90,92,94,96,98,100,102,104,106,108,110,112,114,116,118,-1,-1,-1,-1,-1,-1,-1,-1,-1,-1,-1,-1,-1,-1,-1,-1,-1,-1,-1,-1,-1,-1,-1,-1,-1,-1,-1,-1,-1,-1,-1,-1,-1,-1,-1,-1,-1,-1,-1,-1,-1,-1,-1,-1,-1,-1,-1,-1,-1,-1,-1,-1,-1,-1,-1,-1,-1,-1],"split_conditions":[-7.400217E1,-7.4118126E1,-7.399305E1,4.0631783E1,4.065508E1,1.8E1,-7.3982605E1,-7.415887E1,4.063267E1,1.3E1,1.4E1,1.5E1,6E0,4.07603E1,-7.3982124E1,4.0545635E1,4.0555607E1,1.7468495E3,4.0637398E1,1.2E1,1.7E1,4.0684277E1,1.9E1,4.0622208E1,4.0738438E1,4.072024E1,2E1,4.0692646E1,4.076205E1,4.0718655E1,-7.394016E1,-7.4190636E1,6E0,4.0545635E1,1.1E1,6E0,1.6704926E2,-7.4031715E1,-7.4022575E1,6E0,4.0600513E1,4.0675213E1,-7.401518E1,4.0716793E1,4.0726917E1,9E0,6E0,4.071767E1,1.7E1,2.1E1,4.0726917E1,4.0594856E1,4.07544E1,4.069035E1,-7.3984955E1,4.076135E1,-7.398939E1,4.0686035E1,4.072795E1,-7.394376E1,4.064087E1,-3.2394836E1,7.347354E1,-8.606665E1,-3.656269E1,-4.7125664E1,3.2595374E2,8.729679E1,-5.0352737E1,-1.59427E1,-4.519368E1,2.3771507E1,-3.1870375E1,-5.2406513E1,3.1009744E2,-8.889677E1,-6.2444286E1,-8.935055E-1,-4.8742672E1,-2.5094213E1,3.432696E1,3.2829027E0,-1.00828156E2,9.4807014E1,-7.114824E1,-4.8340412E1,3.845544E1,-3.717424E1,-6.593623E1,-1.4589105E2,1.1627766E2,2.8426706E2,-1.0058968E2,1.9367477E3,-9.780332E1,-8.2252884E1,4.8908974E1,6.558506E2,-1.5665934E0,-2.195607E1,-5.9680424E1,-4.1206593E1,8.739527E0,-3.254393E0,8.626767E2,-4.018336E1,-8.0025314E1,1.1918461E2,1.1322224E3,5.7207196E2,-4.5439236E1,-1.1049024E1,-9.061147E1,1.4705508E3,2.7960117E2,3.438513E0,6.423518E1,-2.8436789E1,-2.1758692E0],"split_indices":[1,1,1,0,0,2,1,1,0,2,2,2,3,0,1,0,0,0,0,2,2,0,2,0,0,0,2,0,0,0,1,1,3,0,2,3,0,1,1,3,0,0,1,0,0,2,3,0,2,2,0,0,0,0,1,0,1,0,0,1,0,0,0,0,0,0,0,0,0,0,0,0,0,0,0,0,0,0,0,0,0,0,0,0,0,0,0,0,0,0,0,0,0,0,0,0,0,0,0,0,0,0,0,0,0,0,0,0,0,0,0,0,0,0,0,0,0,0,0],"split_type":[0,0,0,0,0,0,0,0,0,0,0,0,0,0,0,0,0,0,0,0,0,0,0,0,0,0,0,0,0,0,0,0,0,0,0,0,0,0,0,0,0,0,0,0,0,0,0,0,0,0,0,0,0,0,0,0,0,0,0,0,0,0,0,0,0,0,0,0,0,0,0,0,0,0,0,0,0,0,0,0,0,0,0,0,0,0,0,0,0,0,0,0,0,0,0,0,0,0,0,0,0,0,0,0,0,0,0,0,0,0,0,0,0,0,0,0,0,0,0],"sum_hessian":[7.859E3,6.14E2,7.245E3,1.85E2,4.29E2,2.45E2,7E3,1.76E2,9E0,3.29E2,1E2,1.38E2,1.07E2,5.24E2,6.476E3,1.23E2,5.3E1,1E0,8E0,1.13E2,2.16E2,2.3E1,7.7E1,8.9E1,4.9E1,5.3E1,5.4E1,4.78E2,4.6E1,2.9E1,6.447E3,5.2E1,7.1E1,9E0,4.4E1,7E0,1E0,1.01E2,1.2E1,7.7E1,1.39E2,3E0,2E1,4.4E1,3.3E1,2.7E1,6.2E1,4.6E1,3E0,3.7E1,1.6E1,2.1E1,3.3E1,1.82E2,2.96E2,7E0,3.9E1,1.8E1,1.1E1,1.966E3,4.481E3,3.7E1,1.5E1,2.4E1,4.7E1,3E0,6E0,8E0,3.6E1,2E0,5E0,4.1E1,6E1,7E0,5E0,3.2E1,4.5E1,1.9E1,1.2E2,2E0,1E0,1E0,1.9E1,3.3E1,1.1E1,2.5E1,8E0,1.5E1,1.2E1,5E0,5.7E1,3.2E1,1.4E1,2E0,1E0,1.3E1,2.4E1,4E0,1.2E1,2E0,1.9E1,3.1E1,2E0,1.79E2,3E0,1.47E2,1.49E2,5E0,2E0,4E0,3.5E1,6E0,1.2E1,1E0,1E1,1.775E3,1.91E2,2.03E2,4.278E3],"tree_param":{"num_deleted":"0","num_feature":"4","num_nodes":"119","size_leaf_vector":"1"}},{"base_weights":[2.8237453E0,-4.088213E1,8.509627E0,-4.3681797E1,4.7179437E2,3.029006E1,-1.2061809E1,-6.208885E1,1.46247E1,-2.2822773E1,8.623999E2,5.2078537E1,-3.3690197E1,-8.515342E1,-7.432998E0,-1.825264E1,-8.4207695E1,7.7628784E2,-4.577745E1,4.075476E2,-1.9467636E1,4.1867386E1,1.3945222E3,-1.7252208E2,-8.471105E0,1.9142252E1,-1.1242059E2,6.320022E0,-3.6430656E1,-8.71589E1,2.3216995E1,-1.2300249E2,-3.994345E1,-5.568082E1,1.1123849E3,-1.1094077E2,5.093644E1,2.8810047E1,2.4084715E2,1.01537976E3,2.1567146E2,-2.6069745E2,-4.4336586E1,2.6829178E2,-2.5378775E1,-1.1930227E2,6.7436096E2,-1.1780502E2,1.1882452E2,-5.5144155E-1,5.5998334E2,4.2371926E0,-6.4265945E1,-6.650446E0,-2.8882132E1,3.513823E2,-7.84539E0,-4.503836E1,-2.134023E1,2.915516E2,-1.6221813E1,5.1166922E2,-1.7753592E1,-6.608724E1,-2.8721563E1,3.3467972E2,3.112466E0,3.7311237E1,1.889464E0,4.6928207E1,5.973949E2,3.9132837E2,4.871834E0,-1.3846852E2,-6.1663883E1,3.1202389E1,-4.8761723E1,-1.4535406E2,1.1493516E2,-1.1409445E2,-4.7415905E0,-4.626687E1,2.7793432E1,-3.8246483E1,2.4213705E2,-4.3684456E1,-2.0743183E1,-1.5019871E0,4.8799774E1,4.8060977E2,-6.2556282E1,-8.8191805E0,2.69847E2,-2.8873932E1,-7.7926035E0],"categories":[],"categories_nodes":[],"categories_segments":[],"categories_sizes":[],"default_left":[0,0,0,0,0,0,0,0,0,0,0,0,0,0,0,0,0,0,0,0,0,0,0,0,0,0,0,0,0,0,0,0,0,0,0,0,0,0,0,0,0,0,0,0,0,0,0,0,0,0,0,0,0,0,0,0,0,0,0,0,0,0,0,0,0,0,0,0,0,0,0,0,0,0,0,0,0,0,0,0,0,0,0,0,0,0,0,0,0,0,0,0,0,0,0],"id":7,"left_children":[1,3,5,7,9,11,13,15,17,-1,19,21,23,25,27,29,31,33,35,-1,-1,37,39,41,43,45,47,49,51,53,55,57,59,-1,61,63,65,67,69,-1,71,73,75,77,79,81,83,85,-1,87,89,91,93,-1,-1,-1,-1,-1,-1,-1,-1,-1,-1,-1,-1,-1,-1,-1,-1,-1,-1,-1,-1,-1,-1,-1,-1,-1,-1,-1,-1,-1,-1,-1,-1,-1,-1,-1,-1,-1,-1,-1,-1,-1,-1],"loss_changes":[1.9536085E6,1.319577E6,3.1170345E6,9.679065E5,1.1356138E6,4.712189E6,1.2099018E6,6.6264325E5,1.0018858E7,0E0,1.468222E6,3.4499216E7,3.0060815E6,6.078916E5,1.3426092E6,6.6211006E5,7.76423E5,5.379079E6,1.278695E6,0E0,0E0,6.496222E6,4.384412E7,1.480412E6,3.4134235E6,4.1624678E6,5.093815E5,8.689735E6,1.2262299E6,4.9403062E4,8.248887E6,3.29803E5,3.1118365E6,0E0,8.440297E6,1.8005588E5,3.529544E6,5.0546475E6,2.2445736E7,0E0,2.8015445E6,7.69204E5,9.8131344E5,3.8161545E6,2.3283952E6,2.9553812E5,9.5454275E5,2.1727875E5,0E0,1.6420211E6,2.2756994E7,1.3305544E7,7.84887E5,0E0,0E0,0E0,0E0,0E0,0E0,0E0,0E0,0E0,0E0,0E0,0E0,0E0,0E0,0E0,0E0,0E0,0E0,0E0,0E0,0E0,0E0,0E0,0E0,0E0,0E0,0E0,0E0,0E0,0E0,0E0,0E0,0E0,0E0,0E0,0E0,0E0,0E0,0E0,0E0,0E0,0E0],"parents":[2147483647,0,0,1,1,2,2,3,3,4,4,5,5,6,6,7,7,8,8,10,10,11,11,12,12,13,13,14,14,15,15,16,16,17,17,18,18,21,21,22,22,23,23,24,24,25,25,26,26,27,27,28,28,29,29,30,30,31,31,32,32,34,34,35,35,36,36,37,37,38,38,40,40,41,41,42,42,43,43,44,44,45,45,46,46,47,47,49,49,50,50,51,51,52,52],"right_children":[2,4,6,8,10,12,14,16,18,-1,20,22,24,26,28,30,32,34,36,-1,-1,38,40,42,44,46,48,50,52,54,56,58,60,-1,62,64,66,68,70,-1,72,74,76,78,80,82,84,86,-1,88,90,92,94,-1,-1,-1,-1,-1,-1,-1,-1,-1,-1,-1,-1,-1,-1,-1,-1,-1,-1,-1,-1,-1,-1,-1,-1,-1,-1,-1,-1,-1,-1,-1,-1,-1,-1,-1,-1,-1,-1,-1,-1,-1,-1],"split_conditions":[6E0,-7.373325E1,1.7E1,4.0821167E1,4.0654755E1,4.080972E1,-7.4009224E1,4.0656982E1,4.082525E1,-2.2822773E1,4.0725513E1,4.0807423E1,4.0823204E1,4.0555607E1,-7.3889915E1,4.0611706E1,4.072795E1,-7.395285E1,4.0859375E1,4.075476E2,-1.9467636E1,4.077903E1,-7.396321E1,-7.391771E1,4.082812E1,-7.415887E1,4.0710964E1,-7.389137E1,4.0722027E1,-7.415887E1,4.0612465E1,-7.3884865E1,4.0729248E1,-5.568082E1,-7.389488E1,-7.394135E1,-7.392886E1,-7.398939E1,-7.383172E1,1.01537976E3,1.2E1,4.0813217E1,-7.3900894E1,-7.394827E1,-7.394175E1,-7.416732E1,4.0545635E1,2.2E1,1.1882452E2,4.0867413E1,4.0678505E1,4.072024E1,4.0821167E1,-6.650446E0,-2.8882132E1,3.513823E2,-7.84539E0,-4.503836E1,-2.134023E1,2.915516E2,-1.6221813E1,5.1166922E2,-1.7753592E1,-6.608724E1,-2.8721563E1,3.3467972E2,3.112466E0,3.7311237E1,1.889464E0,4.6928207E1,5.973949E2,3.9132837E2,4.871834E0,-1.3846852E2,-6.1663883E1,3.1202389E1,-4.8761723E1,-1.4535406E2,1.1493516E2,-1.1409445E2,-4.7415905E0,-4.626687E1,2.7793432E1,-3.8246483E1,2.4213705E2,-4.3684456E1,-2.0743183E1,-1.5019871E0,4.8799774E1,4.8060977E2,-6.2556282E1,-8.8191805E0,2.69847E2,-2.8873932E1,-7.7926035E0],"split_indices":[2,1,2,0,0,0,1,0,0,0,0,0,0,0,1,0,0,1,0,0,0,0,1,1,0,1,0,1,0,1,0,1,0,0,1,1,1,1,1,0,2,0,1,1,1,1,0,2,0,0,0,0,0,0,0,0,0,0,0,0,0,0,0,0,0,0,0,0,0,0,0,0,0,0,0,0,0,0,0,0,0,0,0,0,0,0,0,0,0,0,0,0,0,0,0],"split_type":[0,0,0,0,0,0,0,0,0,0,0,0,0,0,0,0,0,0,0,0,0,0,0,0,0,0,0,0,0,0,0,0,0,0,0,0,0,0,0,0,0,0,0,0,0,0,0,0,0,0,0,0,0,0,0,0,0,0,0,0,0,0,0,0,0,0,0,0,0,0,0,0,0,0,0,0,0,0,0,0,0,0,0,0,0,0,0,0,0,0,0,0,0,0,0],"sum_hessian":[7.859E3,9.04E2,6.955E3,9E2,4E0,3.378E3,3.577E3,6.84E2,2.16E2,2E0,2E0,2.52E3,8.58E2,2.12E2,3.365E3,2.3E2,4.54E2,1.5E1,2.01E2,1E0,1E0,2.502E3,1.8E1,1.31E2,7.27E2,4.4E1,1.68E2,2.283E3,1.082E3,8.6E1,1.44E2,2.41E2,2.13E2,4E0,1.1E1,1.2E2,8.1E1,2.349E3,1.53E2,6E0,1.2E1,7.7E1,5.4E1,4.1E1,6.86E2,3.7E1,7E0,1.67E2,1E0,2.256E3,2.7E1,4.4E2,6.42E2,1.1E1,7.5E1,5E0,1.39E2,1.57E2,8.4E1,2E0,2.11E2,7E0,4E0,1.3E1,1.07E2,2E0,7.9E1,4.47E2,1.902E3,1.47E2,6E0,1E0,1.1E1,1.5E1,6.2E1,2.4E1,3E1,5E0,3.6E1,1.7E1,6.69E2,3.2E1,5E0,1E0,6E0,1.05E2,6.2E1,2.197E3,5.9E1,1.1E1,1.6E1,4.25E2,1.5E1,3.49E2,2.93E2],"tree_param":{"num_deleted":"0","num_feature":"4","num_nodes":"95","size_leaf_vector":"1"}},{"base_weights":[2.5136573E0,-2.4702353E1,1.1218155E1,-1.3451303E1,-7.608229E1,3.7519064E2,7.4505935E0,-2.736707E1,1.1322406E2,-9.988166E1,7.176971E1,2.179663E3,2.7707864E2,1.6206157E2,1.5142239E0,-8.080378E1,-1.6004324E1,-1.5785356E2,4.0447824E2,-1.5795546E2,-6.1364815E1,1.6814899E2,-2.006475E2,1.1200602E3,-1.3921178E2,5.5294775E2,4.2971226E1,5.49308E1,6.374202E2,-9.7559006E1,5.16725E0,-1.2576164E1,-1.2121903E2,-3.2829807E1,3.4817413E1,-1.7378575E2,-6.114778E1,1.01599744E3,1.4785043E2,3.6885278E0,-1.8547182E2,1.1471395E2,-9.203646E1,1.0502745E2,3.5661044E2,-1.1680088E2,-1.323608E2,-1.2231651E1,2.5331143E3,-1.12217316E2,4.8967874E2,-5.447612E1,1.8213008E2,1.2076857E3,-2.051557E2,-1.4427327E2,-3.1560873E1,-6.1843006E1,1.0019203E1,-1.7297445E1,1.1021103E2,-6.1450573E1,-2.3104904E1,-4.988014E0,-6.655794E1,1.2373124E2,-7.128584E0,-4.0431805E1,-6.116529E1,-1.00950365E1,-2.088902E1,-4.3186794E1,4.0968848E2,-4.579534E1,9.070246E1,-7.814563E1,5.8643913E1,-7.758115E1,-4.367755E1,-2.6858467E1,2.1331584E2,-6.5692215E0,-3.450673E1,4.8538612E1,-5.1781993E0,-4.5270935E1,-2.2726896E1,-1.6344983E2,6.6463745E1,-1.9701038E2,9.9072534E2,2.7303516E1,-4.1172684E1,-8.573074E1,3.385448E1,1.4239888E2,4.8717175E0,1.03491844E2,9.760691E2,4.0512344E1,-7.045742E1,5.86952E0,-5.0496952E1,-2.4971033E1,1.09299614E2,-3.734101E1,8.111561E1,1.5998615E2,2.2333884E0],"categories":[],"categories_nodes":[],"categories_segments":[],"categories_sizes":[],"default_left":[0,0,0,0,0,0,0,0,0,0,0,0,0,0,0,0,0,0,0,0,0,0,0,0,0,0,0,0,0,0,0,0,0,0,0,0,0,0,0,0,0,0,0,0,0,0,0,0,0,0,0,0,0,0,0,0,0,0,0,0,0,0,0,0,0,0,0,0,0,0,0,0,0,0,0,0,0,0,0,0,0,0,0,0,0,0,0,0,0,0,0,0,0,0,0,0,0,0,0,0,0,0,0,0,0,0,0,0,0],"id":8,"left_children":[1,3,5,7,9,11,13,15,17,19,21,23,25,27,29,31,33,35,37,39,41,43,45,-1,-1,47,49,51,53,55,57,59,61,63,65,67,69,71,73,75,77,79,81,83,-1,85,-1,87,89,91,-1,93,95,97,99,101,103,105,107,-1,-1,-1,-1,-1,-1,-1,-1,-1,-1,-1,-1,-1,-1,-1,-1,-1,-1,-1,-1,-1,-1,-1,-1,-1,-1,-1,-1,-1,-1,-1,-1,-1,-1,-1,-1,-1,-1,-1,-1,-1,-1,-1,-1,-1,-1,-1,-1,-1,-1],"loss_changes":[1.8623242E6,1.1002156E6,8.1646005E6,2.7600938E6,1.2105929E6,1.0195526E7,5.4112675E6,8.548414E5,1.2301484E7,6.5016875E5,1.2939968E6,1.4056421E7,3.786637E6,1.1066752E7,2.0558316E6,6.79562E5,9.9647994E5,1.14173125E5,1.1619746E7,5.21083E5,9.772699E5,2.1942318E6,2.1067366E5,0E0,0E0,3.024802E7,8.322281E6,2.500972E6,1.946744E7,6.182234E5,1.7816852E6,1.6141536E6,5.57114E5,2.6763235E6,6.424815E6,5.3544125E4,6.8909766E2,9.118806E6,2.553093E6,9.6291175E5,2.54E5,3.3521928E6,2.4415012E5,2.4576416E5,0E0,3.9649531E3,0E0,2.8599282E6,1.6892316E7,1.701504E5,0E0,3.7862418E6,4.0201635E6,4.1237732E7,2.0349462E5,4.6824825E5,1.7692661E6,7.7320495E6,6.8788385E6,0E0,0E0,0E0,0E0,0E0,0E0,0E0,0E0,0E0,0E0,0E0,0E0,0E0,0E0,0E0,0E0,0E0,0E0,0E0,0E0,0E0,0E0,0E0,0E0,0E0,0E0,0E0,0E0,0E0,0E0,0E0,0E0,0E0,0E0,0E0,0E0,0E0,0E0,0E0,0E0,0E0,0E0,0E0,0E0,0E0,0E0,0E0,0E0,0E0,0E0],"parents":[2147483647,0,0,1,1,2,2,3,3,4,4,5,5,6,6,7,7,8,8,9,9,10,10,11,11,12,12,13,13,14,14,15,15,16,16,17,17,18,18,19,19,20,20,21,21,22,22,25,25,26,26,27,27,28,28,29,29,30,30,31,31,32,32,33,33,34,34,35,35,36,36,37,37,38,38,39,39,40,40,41,41,42,42,43,43,45,45,47,47,48,48,49,49,51,51,52,52,53,53,54,54,55,55,56,56,57,57,58,58],"right_children":[2,4,6,8,10,12,14,16,18,20,22,24,26,28,30,32,34,36,38,40,42,44,46,-1,-1,48,50,52,54,56,58,60,62,64,66,68,70,72,74,76,78,80,82,84,-1,86,-1,88,90,92,-1,94,96,98,100,102,104,106,108,-1,-1,-1,-1,-1,-1,-1,-1,-1,-1,-1,-1,-1,-1,-1,-1,-1,-1,-1,-1,-1,-1,-1,-1,-1,-1,-1,-1,-1,-1,-1,-1,-1,-1,-1,-1,-1,-1,-1,-1,-1,-1,-1,-1,-1,-1,-1,-1,-1,-1],"split_conditions":[4.066295E1,4.0651817E1,4.0665466E1,4.0644726E1,2.1E1,-7.398994E1,-7.399305E1,4.05869E1,-7.396114E1,-7.393002E1,-7.388611E1,1.4E1,1.6E1,-7.3994965E1,1E0,4.0555607E1,-7.395377E1,2.2E1,-7.395377E1,-7.400217E1,-7.391505E1,-7.3896385E1,-7.385055E1,1.1200602E3,-1.3921178E2,1.5E1,-7.377509E1,-7.400088E1,1.8E1,-7.3888855E1,-7.3982605E1,-7.415887E1,6E0,-7.3957794E1,-7.395039E1,-7.397516E1,-7.400466E1,2E0,-7.393487E1,-7.400319E1,1.4E1,-7.391606E1,5E0,2.3E1,3.5661044E2,4.065629E1,-1.323608E2,-7.394242E1,-7.398732E1,-7.398406E1,4.8967874E2,1.5E1,1.6E1,1.6E1,4.0681835E1,-7.397516E1,4.085761E1,4.075363E1,-7.3982124E1,-1.7297445E1,1.1021103E2,-6.1450573E1,-2.3104904E1,-4.988014E0,-6.655794E1,1.2373124E2,-7.128584E0,-4.0431805E1,-6.116529E1,-1.00950365E1,-2.088902E1,-4.3186794E1,4.0968848E2,-4.579534E1,9.070246E1,-7.814563E1,5.8643913E1,-7.758115E1,-4.367755E1,-2.6858467E1,2.1331584E2,-6.5692215E0,-3.450673E1,4.8538612E1,-5.1781993E0,-4.5270935E1,-2.2726896E1,-1.6344983E2,6.6463745E1,-1.9701038E2,9.9072534E2,2.7303516E1,-4.1172684E1,-8.573074E1,3.385448E1,1.4239888E2,4.8717175E0,1.03491844E2,9.760691E2,4.0512344E1,-7.045742E1,5.86952E0,-5.0496952E1,-2.4971033E1,1.09299614E2,-3.734101E1,8.111561E1,1.5998615E2,2.2333884E0],"split_indices":[0,0,0,0,2,1,1,0,1,1,1,2,2,1,2,0,1,2,1,1,1,1,1,0,0,2,1,1,2,1,1,1,3,1,1,1,1,2,1,1,2,1,2,2,0,0,0,1,1,1,0,2,2,2,0,1,0,0,1,0,0,0,0,0,0,0,0,0,0,0,0,0,0,0,0,0,0,0,0,0,0,0,0,0,0,0,0,0,0,0,0,0,0,0,0,0,0,0,0,0,0,0,0,0,0,0,0,0,0],"split_type":[0,0,0,0,0,0,0,0,0,0,0,0,0,0,0,0,0,0,0,0,0,0,0,0,0,0,0,0,0,0,0,0,0,0,0,0,0,0,0,0,0,0,0,0,0,0,0,0,0,0,0,0,0,0,0,0,0,0,0,0,0,0,0,0,0,0,0,0,0,0,0,0,0,0,0,0,0,0,0,0,0,0,0,0,0,0,0,0,0,0,0,0,0,0,0,0,0,0,0,0,0,0,0,0,0,0,0,0,0],"sum_hessian":[7.859E3,1.904E3,5.955E3,1.563E3,3.41E2,6E1,5.895E3,1.409E3,1.54E2,2.94E2,4.7E1,2E0,5.8E1,2.17E2,5.678E3,2.46E2,1.163E3,8E1,7.4E1,1.16E2,1.78E2,3.5E1,1.2E1,1E0,1E0,2.6E1,3.2E1,1.78E2,3.9E1,2.01E2,5.477E3,9.2E1,1.54E2,8.74E2,2.89E2,6.8E1,1.2E1,2.1E1,5.3E1,1.7E1,9.9E1,2.6E1,1.52E2,3.4E1,1E0,1E1,2E0,2.1E1,5E0,3E1,2E0,9.6E1,8.2E1,2.3E1,1.6E1,1.17E2,8.4E1,3.69E2,5.108E3,8.3E1,9E0,5.2E1,1.02E2,8.06E2,6.8E1,3.8E1,2.51E2,3.2E1,3.6E1,4E0,8E0,5E0,1.6E1,1.8E1,3.5E1,7E0,1E1,3.3E1,6.6E1,2E1,6E0,3.8E1,1.14E2,2.3E1,1.1E1,4E0,6E0,6E0,1.5E1,1E0,4E0,3E0,2.7E1,4E1,5.6E1,2.9E1,5.3E1,1.7E1,6E0,1E0,1.5E1,1.5E1,1.02E2,7.5E1,9E0,3.11E2,5.8E1,2.4E1,5.084E3],"tree_param":{"num_deleted":"0","num_feature":"4","num_nodes":"109","size_leaf_vector":"1"}},{"base_weights":[2.278715E0,1.0090059E1,-2.1579489E1,4.6264997E0,2.1606815E2,-1.4033505E2,-1.1182939E1,8.5957365E0,-1.7617116E2,7.3647095E2,7.7798004E1,-1.8387492E2,-1.0804779E2,7.2711334E1,-2.2786175E1,4.297869E0,4.0209723E2,-2.0205255E2,6.507836E2,2.5123591E3,2.3002133E2,-1.9148784E2,1.7979712E2,-2.94157E2,-1.2061068E2,2.4534864E1,-1.1279254E2,8.7945795E0,4.4195523E2,-8.282655E1,-6.2199364E0,1.5206063E1,-1.7905989E1,1.7999141E3,-2.7310358E2,-2.834739E2,-7.231854E1,4.0176538E2,-7.5301185E0,4.042969E2,1.0848234E3,-3.9014902E2,1.1111763E3,1.9425795E2,-2.3653453E2,2.4296867E2,1.0756645E2,-1.1192948E2,-6.815454E1,-2.9567806E1,-2.34056E2,-2.2742702E1,4.8834972E1,-5.5350178E1,-1.22777115E2,2.2646542E2,-9.924052E1,2.4034377E3,7.590636E1,-3.4989323E1,-1.380583E2,1.3485218E1,-5.784074E1,3.6990983E0,2.3433601E2,-4.1271782E1,-2.232145E0,-1.1180652E1,1.5651449E3,-1.3648369E2,3.6922947E1,-1.13502464E2,-1.2613193E1,8.431013E0,-2.7931654E1,2.440534E1,-3.5686237E2,4.1487613E2,-2.4093977E2,-8.892041E1,1.3828024E2,-5.7404125E1,5.3520164E1,5.3353046E1,-3.6032383E1,-2.6347649E1,-9.36115E1,-1.899585E1,8.433042E0,-4.1958282E1,-2.7256754E1,1.6112994E2,1.6278006E1,-4.2182083E1,5.154866E1,1.2764098E3,-7.469079E1,-7.428111E1,6.5307175E1,-2.2788752E1,5.2951797E1,-7.791231E1,-3.35795E1,-3.73896E0,7.088203E1,-5.7875202E1,-9.834618E0],"categories":[],"categories_nodes":[],"categories_segments":[],"categories_sizes":[],"default_left":[0,0,0,0,0,0,0,0,0,0,0,0,0,0,0,0,0,0,0,0,0,0,0,0,0,0,0,0,0,0,0,0,0,0,0,0,0,0,0,0,0,0,0,0,0,0,0,0,0,0,0,0,0,0,0,0,0,0,0,0,0,0,0,0,0,0,0,0,0,0,0,0,0,0,0,0,0,0,0,0,0,0,0,0,0,0,0,0,0,0,0,0,0,0,0,0,0,0,0,0,0,0,0,0,0,0,0],"id":9,"left_children":[1,3,5,7,9,11,13,15,17,19,21,23,25,27,29,31,33,35,37,39,41,43,45,47,49,51,53,55,57,59,61,63,65,67,69,71,73,-1,-1,-1,-1,75,77,-1,79,-1,81,-1,-1,83,85,-1,-1,87,89,91,93,95,97,99,101,103,105,-1,-1,-1,-1,-1,-1,-1,-1,-1,-1,-1,-1,-1,-1,-1,-1,-1,-1,-1,-1,-1,-1,-1,-1,-1,-1,-1,-1,-1,-1,-1,-1,-1,-1,-1,-1,-1,-1,-1,-1,-1,-1,-1,-1],"loss_changes":[1.4650439E6,6.663462E6,2.3924135E6,4.1422325E6,1.0951998E7,1.9943475E5,1.7382828E6,9.548576E6,2.7854322E6,2.8202838E7,3.3853928E6,4.18021E5,6.0642E4,5.117502E6,1.5590854E6,1.353466E6,5.8063796E7,1.257637E6,1.8948218E6,4.1253E6,1.4641645E7,1.4381862E6,3.963489E6,3.68425E4,4.3720012E5,6.782994E4,4.4249E4,4.3964675E6,2.2793514E7,8.90853E5,1.251931E6,8.243387E6,2.3045922E6,1.2575616E8,3.081764E6,1.6789805E6,1.02815E5,0E0,0E0,0E0,0E0,6.127387E6,6.832894E6,0E0,1.5145439E6,0E0,1.749171E6,0E0,0E0,4.908365E5,1.892595E5,0E0,0E0,1.1756746E4,2.8193125E4,3.287418E6,1.4258065E6,2.5610782E7,1.3382222E6,1.5992191E6,4.6992225E5,5.1538165E6,1.1445219E6,0E0,0E0,0E0,0E0,0E0,0E0,0E0,0E0,0E0,0E0,0E0,0E0,0E0,0E0,0E0,0E0,0E0,0E0,0E0,0E0,0E0,0E0,0E0,0E0,0E0,0E0,0E0,0E0,0E0,0E0,0E0,0E0,0E0,0E0,0E0,0E0,0E0,0E0,0E0,0E0,0E0,0E0,0E0,0E0],"parents":[2147483647,0,0,1,1,2,2,3,3,4,4,5,5,6,6,7,7,8,8,9,9,10,10,11,11,12,12,13,13,14,14,15,15,16,16,17,17,18,18,19,19,20,20,21,21,22,22,23,23,24,24,25,25,26,26,27,27,28,28,29,29,30,30,31,31,32,32,33,33,34,34,35,35,36,36,41,41,42,42,44,44,46,46,49,49,50,50,53,53,54,54,55,55,56,56,57,57,58,58,59,59,60,60,61,61,62,62],"right_children":[2,4,6,8,10,12,14,16,18,20,22,24,26,28,30,32,34,36,38,40,42,44,46,48,50,52,54,56,58,60,62,64,66,68,70,72,74,-1,-1,-1,-1,76,78,-1,80,-1,82,-1,-1,84,86,-1,-1,88,90,92,94,96,98,100,102,104,106,-1,-1,-1,-1,-1,-1,-1,-1,-1,-1,-1,-1,-1,-1,-1,-1,-1,-1,-1,-1,-1,-1,-1,-1,-1,-1,-1,-1,-1,-1,-1,-1,-1,-1,-1,-1,-1,-1,-1,-1,-1,-1,-1,-1],"split_conditions":[4.0814816E1,4.0806698E1,4.0821167E1,4.0798206E1,-7.396321E1,-7.393899E1,4.0829235E1,4.079066E1,-7.391505E1,1.7E1,-7.394659E1,6E0,-7.393828E1,4.082812E1,4.083916E1,-7.3900894E1,1.4E1,1.8E1,-7.391274E1,1E1,2.2E1,4.0807423E1,-7.394422E1,1.6E1,-7.39526E1,1.4E1,8E0,1.5E1,-7.394585E1,4.0835293E1,4.0872623E1,-7.390137E1,-7.389137E1,1E1,-7.394312E1,-7.394242E1,-7.396457E1,4.0176538E2,-7.5301185E0,4.042969E2,1.0848234E3,6E0,2.3E1,1.9425795E2,2E1,2.4296867E2,1.1E1,-1.1192948E2,-6.815454E1,4.081818E1,9E0,-2.2742702E1,4.8834972E1,-7.386438E1,1.8E1,-7.393644E1,-7.388059E1,6E0,-7.393899E1,4.0834106E1,-7.394175E1,4.0867413E1,-7.390461E1,3.6990983E0,2.3433601E2,-4.1271782E1,-2.232145E0,-1.1180652E1,1.5651449E3,-1.3648369E2,3.6922947E1,-1.13502464E2,-1.2613193E1,8.431013E0,-2.7931654E1,2.440534E1,-3.5686237E2,4.1487613E2,-2.4093977E2,-8.892041E1,1.3828024E2,-5.7404125E1,5.3520164E1,5.3353046E1,-3.6032383E1,-2.6347649E1,-9.36115E1,-1.899585E1,8.433042E0,-4.1958282E1,-2.7256754E1,1.6112994E2,1.6278006E1,-4.2182083E1,5.154866E1,1.2764098E3,-7.469079E1,-7.428111E1,6.5307175E1,-2.2788752E1,5.2951797E1,-7.791231E1,-3.35795E1,-3.73896E0,7.088203E1,-5.7875202E1,-9.834618E0],"split_indices":[0,0,0,0,1,1,0,0,1,2,1,3,1,0,0,1,2,2,1,2,2,0,1,2,1,2,2,2,1,0,0,1,1,2,1,1,1,0,0,0,0,3,2,0,2,0,2,0,0,0,2,0,0,1,2,1,1,3,1,0,1,0,1,0,0,0,0,0,0,0,0,0,0,0,0,0,0,0,0,0,0,0,0,0,0,0,0,0,0,0,0,0,0,0,0,0,0,0,0,0,0,0,0,0,0,0,0],"split_type":[0,0,0,0,0,0,0,0,0,0,0,0,0,0,0,0,0,0,0,0,0,0,0,0,0,0,0,0,0,0,0,0,0,0,0,0,0,0,0,0,0,0,0,0,0,0,0,0,0,0,0,0,0,0,0,0,0,0,0,0,0,0,0,0,0,0,0,0,0,0,0,0,0,0,0,0,0,0,0,0,0,0,0,0,0,0,0,0,0,0,0,0,0,0,0,0,0,0,0,0,0,0,0,0,0,0,0],"sum_hessian":[7.859E3,5.921E3,1.938E3,5.769E3,1.52E2,1.55E2,1.783E3,5.646E3,1.23E2,3.1E1,1.21E2,6.4E1,9.1E1,2.16E2,1.567E3,5.586E3,6E1,1.2E2,3E0,6E0,2.5E1,3.3E1,8.8E1,2.2E1,4.2E1,3E0,8.8E1,1.85E2,3.1E1,3.38E2,1.229E3,3.746E3,1.84E3,1.9E1,4.1E1,7.3E1,4.7E1,1E0,2E0,4E0,2E0,1.5E1,1E1,1E0,3.2E1,8E0,8E1,8E0,1.4E1,2.4E1,1.8E1,2E0,1E0,1.4E1,7.4E1,6.1E1,1.24E2,4E0,2.7E1,1.82E2,1.56E2,8.9E2,3.39E2,3.733E3,1.3E1,1.47E2,1.693E3,1.3E1,6E0,2.8E1,1.3E1,5.2E1,2.1E1,8E0,3.9E1,1E1,5E0,9E0,1E0,3E1,2E0,1.5E1,6.5E1,7E0,1.7E1,7E0,1.1E1,1.3E1,1E0,4.6E1,2.8E1,2.1E1,4E1,1.08E2,1.6E1,2E0,2E0,8E0,1.9E1,1.53E2,2.9E1,2.6E1,1.3E2,7.98E2,9.2E1,5.2E1,2.87E2],"tree_param":{"num_deleted":"0","num_feature":"4","num_nodes":"107","size_leaf_vector":"1"}},{"base_weights":[2.1895125E0,-3.9358597E1,5.9092474E0,-9.088035E1,6.990419E0,2.2494797E2,4.3185267E0,-2.4150486E1,-1.455504E2,2.8563958E3,-2.6751036E1,6.379275E2,1.0636039E2,2.6748624E2,2.9889777E0,-5.6597706E1,1.4195714E2,-1.8792668E2,-6.8137474E1,3.8870625E3,-3.5340633E1,-2.1915385E2,-1.2662379E1,8.545566E2,-1.0205257E2,-1.253993E1,9.968083E2,-5.9242344E1,6.452997E0,1.36385765E1,-1.1701672E2,3.7740717E2,-1.0532265E2,-3.6300003E2,-1.5123167E2,5.2160427E1,-1.1970776E2,-1.5484318E1,1.7646625E3,-2.1256357E1,-2.3785602E2,1.5284116E2,-4.5840504E1,-7.562939E1,1.7881653E3,-1.6900816E2,2.3773927E2,1.9263E2,-1.2582657E2,1.4794187E3,1.169907E1,-5.3218845E1,-2.7438043E2,1.3104015E2,3.5805827E-1,1.8979315E2,-1.8274446E1,-8.061257E1,-2.3928177E1,3.0172977E2,4.534765E1,-7.477253E1,-6.6236496E-1,-1.1190581E2,-2.8900732E1,-6.5290413E0,-5.4857166E1,-3.644357E1,4.9071915E1,-1.7079601E1,-4.350386E1,-7.6473015E1,-1.6873968E1,-2.2626581E1,3.831523E2,6.937219E0,-2.6008148E1,-7.302576E1,-2.4083513E1,3.1530023E2,-2.1891329E1,-4.4218105E1,3.1054498E2,-6.89086E1,-2.0462454E1,-3.1892067E1,1.4336201E2,-1.7376123E1,1.6096315E2,-9.146039E1,-3.0486078E1,3.235173E1,5.723888E2,-1.6358982E1,1.6081486E0],"categories":[],"categories_nodes":[],"categories_segments":[],"categories_sizes":[],"default_left":[0,0,0,0,0,0,0,0,0,0,0,0,0,0,0,0,0,0,0,0,0,0,0,0,0,0,0,0,0,0,0,0,0,0,0,0,0,0,0,0,0,0,0,0,0,0,0,0,0,0,0,0,0,0,0,0,0,0,0,0,0,0,0,0,0,0,0,0,0,0,0,0,0,0,0,0,0,0,0,0,0,0,0,0,0,0,0,0,0,0,0,0,0,0,0],"id":10,"left_children":[1,3,5,7,9,11,13,15,17,19,21,-1,23,25,27,29,31,33,35,37,-1,39,41,43,45,47,49,51,53,55,57,59,61,63,65,67,69,-1,-1,-1,71,73,75,-1,-1,77,79,81,83,-1,85,87,89,91,93,-1,-1,-1,-1,-1,-1,-1,-1,-1,-1,-1,-1,-1,-1,-1,-1,-1,-1,-1,-1,-1,-1,-1,-1,-1,-1,-1,-1,-1,-1,-1,-1,-1,-1,-1,-1,-1,-1,-1,-1],"loss_changes":[1.2149795E6,1.5432718E6,2.5129468E6,1.1128115E6,3.28612E7,1.1499392E7,2.5058442E6,7.5720706E5,5.3831475E5,1.271953E7,9.134406E5,0E0,7.8838985E6,7.364753E6,1.5371845E6,4.980979E5,1.3788562E6,6.3892925E5,3.846757E5,2.3878312E7,0E0,4.6937875E4,1.742193E6,6.365893E7,9.5021844E5,6.517994E5,3.870229E7,4.7265E5,5.1286105E6,2.576729E6,3.3460912E5,1.553951E6,1.7753192E5,1.215725E4,3.6861988E5,3.8743653E5,6.0051688E4,0E0,0E0,0E0,4.7605625E4,1.3698446E7,7.458066E5,0E0,0E0,2.0494281E5,1.845514E6,3.0173418E6,9.2058375E4,0E0,5.459033E5,1.048696E6,2.16895E4,1.2780586E7,1.768547E6,0E0,0E0,0E0,0E0,0E0,0E0,0E0,0E0,0E0,0E0,0E0,0E0,0E0,0E0,0E0,0E0,0E0,0E0,0E0,0E0,0E0,0E0,0E0,0E0,0E0,0E0,0E0,0E0,0E0,0E0,0E0,0E0,0E0,0E0,0E0,0E0,0E0,0E0,0E0,0E0],"parents":[2147483647,0,0,1,1,2,2,3,3,4,4,5,5,6,6,7,7,8,8,9,9,10,10,12,12,13,13,14,14,15,15,16,16,17,17,18,18,19,19,21,21,22,22,23,23,24,24,25,25,26,26,27,27,28,28,29,29,30,30,31,31,32,32,33,33,34,34,35,35,36,36,40,40,41,41,42,42,45,45,46,46,47,47,48,48,50,50,51,51,52,52,53,53,54,54],"right_children":[2,4,6,8,10,12,14,16,18,20,22,-1,24,26,28,30,32,34,36,38,-1,40,42,44,46,48,50,52,54,56,58,60,62,64,66,68,70,-1,-1,-1,72,74,76,-1,-1,78,80,82,84,-1,86,88,90,92,94,-1,-1,-1,-1,-1,-1,-1,-1,-1,-1,-1,-1,-1,-1,-1,-1,-1,-1,-1,-1,-1,-1,-1,-1,-1,-1,-1,-1,-1,-1,-1,-1,-1,-1,-1,-1,-1,-1,-1,-1],"split_conditions":[4.0610523E1,-7.398086E1,4.0612465E1,-7.413902E1,-7.39804E1,1E0,-7.4118126E1,-7.415887E1,1.8E1,4.0602726E1,-7.397516E1,6.379275E2,-7.400088E1,4.0631783E1,-7.400217E1,1.5E1,6E0,6E0,2E1,4.0577812E1,-3.5340633E1,1E1,-7.396675E1,-7.400319E1,-7.394376E1,1.1E1,4.063267E1,4.074198E1,-7.398939E1,6E0,1.7E1,1.8E1,1.8E1,1.7E1,4.0588264E1,4.0595642E1,-7.40824E1,-1.5484318E1,1.7646625E3,-2.1256357E1,2.2E1,-7.396836E1,6E0,-7.562939E1,1.7881653E3,1.9E1,-7.393899E1,1E1,1.7E1,1.4794187E3,4.0637398E1,4.074091E1,6E0,4.0765015E1,-7.3979034E1,1.8979315E2,-1.8274446E1,-8.061257E1,-2.3928177E1,3.0172977E2,4.534765E1,-7.477253E1,-6.6236496E-1,-1.1190581E2,-2.8900732E1,-6.5290413E0,-5.4857166E1,-3.644357E1,4.9071915E1,-1.7079601E1,-4.350386E1,-7.6473015E1,-1.6873968E1,-2.2626581E1,3.831523E2,6.937219E0,-2.6008148E1,-7.302576E1,-2.4083513E1,3.1530023E2,-2.1891329E1,-4.4218105E1,3.1054498E2,-6.89086E1,-2.0462454E1,-3.1892067E1,1.4336201E2,-1.7376123E1,1.6096315E2,-9.146039E1,-3.0486078E1,3.235173E1,5.723888E2,-1.6358982E1,1.6081486E0],"split_indices":[0,1,0,1,1,2,1,1,2,0,1,0,1,0,1,2,3,3,2,0,0,2,1,1,1,2,0,0,1,3,2,2,2,2,0,0,1,0,0,0,2,1,3,0,0,2,1,2,2,0,0,0,3,0,1,0,0,0,0,0,0,0,0,0,0,0,0,0,0,0,0,0,0,0,0,0,0,0,0,0,0,0,0,0,0,0,0,0,0,0,0,0,0,0,0],"split_type":[0,0,0,0,0,0,0,0,0,0,0,0,0,0,0,0,0,0,0,0,0,0,0,0,0,0,0,0,0,0,0,0,0,0,0,0,0,0,0,0,0,0,0,0,0,0,0,0,0,0,0,0,0,0,0,0,0,0,0,0,0,0,0,0,0,0,0,0,0,0,0,0,0,0,0,0,0,0,0,0,0,0,0,0,0,0,0,0,0,0,0,0,0,0,0],"sum_hessian":[7.859E3,6.45E2,7.214E3,3.05E2,3.4E2,5.1E1,7.163E3,1.38E2,1.67E2,3E0,3.37E2,2E0,4.9E1,3.5E1,7.128E3,1.16E2,2.2E1,1.07E2,6E1,2E0,1E0,2.2E1,3.15E2,1E1,3.9E1,2.6E1,9E0,3.75E2,6.753E3,5.4E1,6.2E1,1.1E1,1.1E1,1.7E1,9E1,1.8E1,4.2E1,1E0,1E0,3E0,1.9E1,5.2E1,2.63E2,9E0,1E0,3.3E1,6E0,9E0,1.7E1,1E0,8E0,3.66E2,9E0,3.14E2,6.439E3,5E0,4.9E1,1.1E1,5.1E1,2E0,9E0,4E0,7E0,1.6E1,1E0,1.8E1,7.2E1,7E0,1.1E1,1.3E1,2.9E1,1.7E1,2E0,4.4E1,8E0,9.8E1,1.65E2,1.7E1,1.6E1,1E0,5E0,7E0,2E0,5E0,1.2E1,7E0,1E0,3.64E2,2E0,7E0,2E0,3.11E2,3E0,5.37E2,5.902E3],"tree_param":{"num_deleted":"0","num_feature":"4","num_nodes":"95","size_leaf_vector":"1"}},{"base_weights":[2.4175673E0,8.518626E0,-1.621724E1,4.4605794E0,1.6150171E2,-1.0198884E2,-8.707941E0,7.2566643E0,-1.22909996E2,5.55553E2,5.682021E1,-1.3612537E2,-7.802511E1,-2.6442874E2,-5.3649864E0,4.01842E0,3.0372897E2,-1.4423508E2,5.5290125E2,1.9700048E3,1.5337164E2,-1.2843712E2,1.2695425E2,-8.122206E1,-2.0632155E2,-1.4348313E1,-8.144124E1,-9.258057E1,-1.4302893E2,2.889946E2,-1.2896375E1,-1.4483399E1,1.3587236E1,1.3361104E3,-1.9511285E2,-7.141588E1,-2.221005E2,3.4125934E2,-6.3457246E0,3.0687973E2,8.675371E2,-2.9539056E2,7.9217377E2,1.6487802E2,-1.6563783E2,3.6959692E2,1.53260355E1,1.2975241E2,-1.3477452E2,-1.9853529E1,-2.5206273E2,4.572058E1,-1.6743872E1,-4.095025E1,-8.845355E1,-5.9939316E1,-2.7241913E1,6.773365E2,-1.6858635E2,-3.507475E1,1.36605E1,-1.331625E0,-1.684294E1,8.8968216E1,2.645729E0,-8.514024E0,1.1622655E3,-1.766482E2,-1.610287E1,-5.4090538E1,5.314447E1,-2.2763542E1,-1.1615242E2,1.7310728E1,-2.680488E2,3.0242535E2,-2.0504002E2,-1.1366772E2,-2.4233372E0,-5.3097897E1,1.3268024E2,-5.6983692E1,1.753625E1,-4.536258E1,3.1447192E2,-5.6200047E1,-2.5068827E1,-9.6095634E1,-4.5532444E1,4.12685E1,-2.0694237E1,-5.788E0,-2.1066021E1,-3.3194775E1,-2.1862906E1,8.43981E1,1.0066882E3,-7.2313065E1,-2.424094E1,-5.8767138E0,-3.8562088E1,1.1595729E2,-1.1343845E0],"categories":[],"categories_nodes":[],"categories_segments":[],"categories_sizes":[],"default_left":[0,0,0,0,0,0,0,0,0,0,0,0,0,0,0,0,0,0,0,0,0,0,0,0,0,0,0,0,0,0,0,0,0,0,0,0,0,0,0,0,0,0,0,0,0,0,0,0,0,0,0,0,0,0,0,0,0,0,0,0,0,0,0,0,0,0,0,0,0,0,0,0,0,0,0,0,0,0,0,0,0,0,0,0,0,0,0,0,0,0,0,0,0,0,0,0,0,0,0,0,0,0,0],"id":11,"left_children":[1,3,5,7,9,11,13,15,17,19,21,23,25,27,29,31,33,35,37,39,41,43,45,47,49,51,53,-1,55,57,59,61,63,65,67,69,71,-1,-1,-1,-1,73,75,-1,77,79,81,83,85,-1,87,89,-1,91,93,-1,-1,95,97,99,101,-1,-1,-1,-1,-1,-1,-1,-1,-1,-1,-1,-1,-1,-1,-1,-1,-1,-1,-1,-1,-1,-1,-1,-1,-1,-1,-1,-1,-1,-1,-1,-1,-1,-1,-1,-1,-1,-1,-1,-1,-1,-1],"loss_changes":[8.937577E5,3.6757315E6,1.2479916E6,2.0558136E6,6.279664E6,1.1699275E5,1.5236571E6,5.420179E6,1.8668024E6,1.7901572E7,1.6014325E6,2.2604425E5,1.9279125E4,7.9201E4,3.9099688E6,9.893221E5,3.1675388E7,6.7022E5,1.3664974E6,3.152878E6,7.6874275E6,9.4862306E5,2.4049685E6,4.355208E5,1.5639712E5,1.7496193E4,2.1648125E4,0E0,5.5739844E3,7.9328955E6,1.0129499E6,7.9691194E5,4.9666975E6,6.937443E7,2.307191E6,1.7641084E6,1.370596E6,0E0,0E0,0E0,0E0,3.4305458E6,4.1936645E6,0E0,1.1057524E6,1.1904655E6,5.59988E5,2.222976E6,6.5095E4,0E0,8.8288875E4,4.1092008E4,0E0,8.153631E3,1.7867312E4,0E0,0E0,2.4511056E7,1.14094E5,1.3536769E6,5.093631E6,0E0,0E0,0E0,0E0,0E0,0E0,0E0,0E0,0E0,0E0,0E0,0E0,0E0,0E0,0E0,0E0,0E0,0E0,0E0,0E0,0E0,0E0,0E0,0E0,0E0,0E0,0E0,0E0,0E0,0E0,0E0,0E0,0E0,0E0,0E0,0E0,0E0,0E0,0E0,0E0,0E0,0E0],"parents":[2147483647,0,0,1,1,2,2,3,3,4,4,5,5,6,6,7,7,8,8,9,9,10,10,11,11,12,12,13,13,14,14,15,15,16,16,17,17,18,18,19,19,20,20,21,21,22,22,23,23,24,24,25,25,26,26,28,28,29,29,30,30,31,31,32,32,33,33,34,34,35,35,36,36,41,41,42,42,44,44,45,45,46,46,47,47,48,48,50,50,51,51,53,53,54,54,57,57,58,58,59,59,60,60],"right_children":[2,4,6,8,10,12,14,16,18,20,22,24,26,28,30,32,34,36,38,40,42,44,46,48,50,52,54,-1,56,58,60,62,64,66,68,70,72,-1,-1,-1,-1,74,76,-1,78,80,82,84,86,-1,88,90,-1,92,94,-1,-1,96,98,100,102,-1,-1,-1,-1,-1,-1,-1,-1,-1,-1,-1,-1,-1,-1,-1,-1,-1,-1,-1,-1,-1,-1,-1,-1,-1,-1,-1,-1,-1,-1,-1,-1,-1,-1,-1,-1,-1,-1,-1,-1,-1,-1],"split_conditions":[4.0814816E1,4.0806698E1,4.0821167E1,4.0798206E1,-7.396321E1,-7.394016E1,-7.39507E1,4.079066E1,-7.391505E1,1.7E1,-7.394659E1,-7.39526E1,-7.393828E1,2E1,-7.394585E1,4.066295E1,1.4E1,4.0802357E1,-7.391274E1,1E1,2.2E1,4.0807423E1,-7.393724E1,4.081818E1,9E0,6E0,8E0,-9.258057E1,-7.395285E1,1.9E1,-7.3896385E1,4.0651123E1,4.0665466E1,1E1,1.7E1,-7.394242E1,-7.39497E1,3.4125934E2,-6.3457246E0,3.0687973E2,8.675371E2,6E0,2.3E1,1.6487802E2,4.0811737E1,1E1,-7.392091E1,-7.395285E1,1.7E1,-1.9853529E1,1.6E1,4.0818756E1,-1.6743872E1,-7.3903275E1,1.5E1,-5.9939316E1,-2.7241913E1,1.8E1,6E0,4.086822E1,-7.389342E1,-1.331625E0,-1.684294E1,8.8968216E1,2.645729E0,-8.514024E0,1.1622655E3,-1.766482E2,-1.610287E1,-5.4090538E1,5.314447E1,-2.2763542E1,-1.1615242E2,1.7310728E1,-2.680488E2,3.0242535E2,-2.0504002E2,-1.1366772E2,-2.4233372E0,-5.3097897E1,1.3268024E2,-5.6983692E1,1.753625E1,-4.536258E1,3.1447192E2,-5.6200047E1,-2.5068827E1,-9.6095634E1,-4.5532444E1,4.12685E1,-2.0694237E1,-5.788E0,-2.1066021E1,-3.3194775E1,-2.1862906E1,8.43981E1,1.0066882E3,-7.2313065E1,-2.424094E1,-5.8767138E0,-3.8562088E1,1.1595729E2,-1.1343845E0],"split_indices":[0,0,0,0,1,1,1,0,1,2,1,1,1,2,1,0,2,0,1,2,2,0,1,0,2,3,2,0,1,2,1,0,0,2,2,1,1,0,0,0,0,3,2,0,0,2,1,1,2,0,2,0,0,1,2,0,0,2,3,0,1,0,0,0,0,0,0,0,0,0,0,0,0,0,0,0,0,0,0,0,0,0,0,0,0,0,0,0,0,0,0,0,0,0,0,0,0,0,0,0,0,0,0],"split_type":[0,0,0,0,0,0,0,0,0,0,0,0,0,0,0,0,0,0,0,0,0,0,0,0,0,0,0,0,0,0,0,0,0,0,0,0,0,0,0,0,0,0,0,0,0,0,0,0,0,0,0,0,0,0,0,0,0,0,0,0,0,0,0,0,0,0,0,0,0,0,0,0,0,0,0,0,0,0,0,0,0,0,0,0,0,0,0,0,0,0,0,0,0,0,0,0,0,0,0,0,0,0,0],"sum_hessian":[7.859E3,5.921E3,1.938E3,5.769E3,1.52E2,1.55E2,1.783E3,5.646E3,1.23E2,3.1E1,1.21E2,6.2E1,9.3E1,2.2E1,1.761E3,5.586E3,6E1,1.2E2,3E0,6E0,2.5E1,3.3E1,8.8E1,3.6E1,2.6E1,5E0,8.8E1,1.5E1,7E0,4.3E1,1.718E3,1.904E3,3.682E3,1.9E1,4.1E1,6.3E1,5.7E1,1E0,2E0,4E0,2E0,1.5E1,1E1,1E0,3.2E1,2.7E1,6.1E1,7E0,2.9E1,7E0,1.9E1,2E0,3E0,1.4E1,7.4E1,2E0,5E0,2.3E1,2E1,9.36E2,7.82E2,1.535E3,3.69E2,6E1,3.622E3,1.3E1,6E0,1E1,3.1E1,4.4E1,1.9E1,3.1E1,2.6E1,1E1,5E0,9E0,1E0,1.3E1,1.9E1,3E0,2.4E1,1E1,5.1E1,6E0,1E0,1.3E1,1.6E1,1E1,9E0,1E0,1E0,9E0,5E0,2.8E1,4.6E1,2.1E1,2E0,1E1,1E1,8.04E2,1.32E2,3.4E1,7.48E2],"tree_param":{"num_deleted":"0","num_feature":"4","num_nodes":"103","size_leaf_vector":"1"}},{"base_weights":[2.0959756E0,7.9920945E0,-1.5548529E1,-1.2672896E1,1.7976688E1,-3.7111847E1,1.0475258E1,-5.675499E0,-2.797434E2,9.641857E2,1.4387116E1,4.8931816E1,-4.907871E1,9.1191124E1,-2.5400894E1,-1.015227E1,3.394589E2,-3.38616E2,-5.7629707E1,3.5140068E3,-2.8247705E2,1.5231714E2,9.477894E0,-5.3901093E1,5.655464E2,-2.1572264E1,-8.640898E1,6.2951645E1,1.1633666E3,1.06168076E2,-7.708442E1,-2.5319834E0,-1.8548494E2,8.472012E2,-2.3888353E2,-4.965812E1,-3.690472E2,1.331091E3,-2.6676615E1,-3.231774E2,-1.9865116E1,4.72548E2,-6.432939E1,1.285745E2,2.661289E0,1.7498571E0,-7.094432E1,1.3096008E3,1.3101431E2,-6.3194942E1,3.1759966E1,2.5759657E1,-9.205549E1,-5.1915382E1,1.6605043E2,1.3122229E3,-3.0229298E1,-4.166554E1,3.2851373E2,8.9052704E1,-9.88155E1,-3.738423E0,1.0412281E2,-1.7684286E1,-6.692713E1,-5.374652E1,3.5190707E2,-1.2719607E1,-8.990025E1,-1.2230567E2,-5.7487286E1,-1.2131002E2,-3.617971E1,1.09963135E2,5.1973987E2,-8.786627E1,1.0588857E1,2.4294225E2,1.2955703E1,-1.29812975E1,4.727466E0,1.6532025E0,-6.375755E0,-2.2348501E1,1.5281757E1,-3.5985565E1,5.418331E2,-4.5543797E1,5.5861217E1,-2.5009558E1,1.5918472E1,4.3704697E1,-1.783347E1,-1.0146721E1,1.1239964E2,-3.610799E1,-1.8087105E1,-4.5547344E1,2.0250227E1,6.469358E2,2.7819345E1,-1.8815796E1,9.590521E1,1.3534248E2,-2.410031E1,1.1370095E2,-3.5877377E1,-1.632195E1,-4.124015E1],"categories":[],"categories_nodes":[],"categories_segments":[],"categories_sizes":[],"default_left":[0,0,0,0,0,0,0,0,0,0,0,0,0,0,0,0,0,0,0,0,0,0,0,0,0,0,0,0,0,0,0,0,0,0,0,0,0,0,0,0,0,0,0,0,0,0,0,0,0,0,0,0,0,0,0,0,0,0,0,0,0,0,0,0,0,0,0,0,0,0,0,0,0,0,0,0,0,0,0,0,0,0,0,0,0,0,0,0,0,0,0,0,0,0,0,0,0,0,0,0,0,0,0,0,0,0,0,0,0],"id":12,"left_children":[1,3,5,7,9,11,13,15,17,19,21,23,25,27,29,31,33,35,-1,37,39,41,43,45,47,49,51,53,55,57,59,61,63,65,67,-1,69,-1,-1,71,-1,73,75,77,79,81,83,85,87,89,91,93,95,97,99,-1,-1,101,103,105,107,-1,-1,-1,-1,-1,-1,-1,-1,-1,-1,-1,-1,-1,-1,-1,-1,-1,-1,-1,-1,-1,-1,-1,-1,-1,-1,-1,-1,-1,-1,-1,-1,-1,-1,-1,-1,-1,-1,-1,-1,-1,-1,-1,-1,-1,-1,-1,-1],"loss_changes":[8.1783225E5,1.2159331E6,1.1053111E6,3.586505E6,1.3480362E7,1.1113589E6,2.5882432E6,2.8958502E6,1.87785E5,4.8674132E7,2.6793112E6,7.0429815E6,9.695105E5,8.253125E6,4.217352E6,2.4699518E6,7.249956E6,8.639725E4,0E0,1.7021392E7,7.542056E4,9.465658E6,3.1041128E6,1.0540459E5,6.9413645E6,1.2140344E6,2.5634925E5,3.1942935E6,2.8852052E7,5.765966E6,1.615401E6,6.1591295E6,3.5325375E5,4.557481E6,1.30612125E5,0E0,7.955025E4,0E0,0E0,9.925856E4,0E0,6.71059E6,1.8774972E6,1.2006151E7,2.1771692E6,2.4528245E3,4.058003E4,5.894938E6,2.624053E5,7.243146E5,2.5023252E6,4.2844262E5,3.3619775E5,1.5373852E6,2.0522782E7,0E0,0E0,8.264744E5,3.5457735E6,3.1911385E6,6.68815E5,0E0,0E0,0E0,0E0,0E0,0E0,0E0,0E0,0E0,0E0,0E0,0E0,0E0,0E0,0E0,0E0,0E0,0E0,0E0,0E0,0E0,0E0,0E0,0E0,0E0,0E0,0E0,0E0,0E0,0E0,0E0,0E0,0E0,0E0,0E0,0E0,0E0,0E0,0E0,0E0,0E0,0E0,0E0,0E0,0E0,0E0,0E0,0E0],"parents":[2147483647,0,0,1,1,2,2,3,3,4,4,5,5,6,6,7,7,8,8,9,9,10,10,11,11,12,12,13,13,14,14,15,15,16,16,17,17,19,19,20,20,21,21,22,22,23,23,24,24,25,25,26,26,27,27,28,28,29,29,30,30,31,31,32,32,33,33,34,34,36,36,39,39,41,41,42,42,43,43,44,44,45,45,46,46,47,47,48,48,49,49,50,50,51,51,52,52,53,53,54,54,57,57,58,58,59,59,60,60],"right_children":[2,4,6,8,10,12,14,16,18,20,22,24,26,28,30,32,34,36,-1,38,40,42,44,46,48,50,52,54,56,58,60,62,64,66,68,-1,70,-1,-1,72,-1,74,76,78,80,82,84,86,88,90,92,94,96,98,100,-1,-1,102,104,106,108,-1,-1,-1,-1,-1,-1,-1,-1,-1,-1,-1,-1,-1,-1,-1,-1,-1,-1,-1,-1,-1,-1,-1,-1,-1,-1,-1,-1,-1,-1,-1,-1,-1,-1,-1,-1,-1,-1,-1,-1,-1,-1,-1,-1,-1,-1,-1,-1],"split_conditions":[-7.3875595E1,4.0675213E1,-7.383534E1,4.0673237E1,4.0676933E1,4.067216E1,6E0,4.067216E1,1.8E1,1E1,4.0682823E1,4.0668476E1,-7.385914E1,4.0856003E1,1.1E1,4.0667263E1,6E0,9E0,-5.7629707E1,-7.3976105E1,-7.391841E1,-7.395039E1,-7.399305E1,9E0,-7.385361E1,-7.386599E1,1E0,4.0704468E1,4.086822E1,8E0,-7.382705E1,4.0664413E1,9E0,-7.396321E1,7E0,-4.965812E1,-7.394422E1,1.331091E3,-2.6676615E1,1.8E1,-1.9865116E1,-7.395451E1,-7.3927185E1,4.0702785E1,-7.3965065E1,4.0656982E1,4.0667263E1,6E0,-7.384961E1,4.086313E1,1.6E1,4.0874714E1,1.8E1,1.9E1,4.070543E1,1.3122229E3,-3.0229298E1,-7.373325E1,-7.377509E1,4.073172E1,4.0710964E1,-3.738423E0,1.0412281E2,-1.7684286E1,-6.692713E1,-5.374652E1,3.5190707E2,-1.2719607E1,-8.990025E1,-1.2230567E2,-5.7487286E1,-1.2131002E2,-3.617971E1,1.09963135E2,5.1973987E2,-8.786627E1,1.0588857E1,2.4294225E2,1.2955703E1,-1.29812975E1,4.727466E0,1.6532025E0,-6.375755E0,-2.2348501E1,1.5281757E1,-3.5985565E1,5.418331E2,-4.5543797E1,5.5861217E1,-2.5009558E1,1.5918472E1,4.3704697E1,-1.783347E1,-1.0146721E1,1.1239964E2,-3.610799E1,-1.8087105E1,-4.5547344E1,2.0250227E1,6.469358E2,2.7819345E1,-1.8815796E1,9.590521E1,1.3534248E2,-2.410031E1,1.1370095E2,-3.5877377E1,-1.632195E1,-4.124015E1],"split_indices":[1,0,1,0,0,0,3,0,2,2,0,0,1,0,2,0,3,2,0,1,1,1,1,2,1,1,2,0,0,2,1,0,2,1,2,0,1,0,0,2,0,1,1,0,1,0,0,3,1,0,2,0,2,2,0,0,0,1,1,0,0,0,0,0,0,0,0,0,0,0,0,0,0,0,0,0,0,0,0,0,0,0,0,0,0,0,0,0,0,0,0,0,0,0,0,0,0,0,0,0,0,0,0,0,0,0,0,0,0],"split_type":[0,0,0,0,0,0,0,0,0,0,0,0,0,0,0,0,0,0,0,0,0,0,0,0,0,0,0,0,0,0,0,0,0,0,0,0,0,0,0,0,0,0,0,0,0,0,0,0,0,0,0,0,0,0,0,0,0,0,0,0,0,0,0,0,0,0,0,0,0,0,0,0,0,0,0,0,0,0,0,0,0,0,0,0,0,0,0,0,0,0,0,0,0,0,0,0,0,0,0,0,0,0,0,0,0,0,0,0,0],"sum_hessian":[7.859E3,5.891E3,1.968E3,1.919E3,3.972E3,1.076E3,8.92E2,1.871E3,4.8E1,1.4E1,3.958E3,1.31E2,9.45E2,2.74E2,6.18E2,1.848E3,2.3E1,2.7E1,2.1E1,4E0,1E1,1.35E2,3.823E3,1.1E2,2.1E1,5.45E2,4E2,2.68E2,6E0,1.74E2,4.44E2,1.772E3,7.6E1,1.2E1,1.1E1,5E0,2.2E1,3E0,1E0,8E0,2E0,5.4E1,8.1E1,2.06E2,3.617E3,2.6E1,8.4E1,7E0,1.4E1,3.06E2,2.39E2,1.9E1,3.81E2,1.27E2,1.41E2,1E0,5E0,1.05E2,6.9E1,5.1E1,3.93E2,1.724E3,4.8E1,1.8E1,5.8E1,3E0,9E0,3E0,8E0,1.7E1,5E0,5E0,3E0,5.1E1,3E0,2.4E1,5.7E1,2.2E1,1.84E2,8.02E2,2.815E3,2.3E1,3E0,8.2E1,2E0,2E0,5E0,2E0,1.2E1,2.61E2,4.5E1,1.06E2,1.33E2,1.7E1,2E0,2E2,1.81E2,6.9E1,5.8E1,4E0,1.37E2,1E2,5E0,5.3E1,1.6E1,2.1E1,3E1,1.84E2,2.09E2],"tree_param":{"num_deleted":"0","num_feature":"4","num_nodes":"109","size_leaf_vector":"1"}},{"base_weights":[2.0474133E0,1.0872272E1,-8.516844E0,2.6811125E0,7.133092E1,-4.8211533E1,-2.7181582E0,-5.537942E1,8.299095E0,3.1116876E2,3.4438343E1,-3.0186428E1,-3.577569E2,2.7164264E2,-9.097752E0,9.4833015E1,-7.166391E1,7.025905E2,4.2388587E0,3.713238E1,3.1366892E3,-8.745632E2,4.4689636E1,2.5481447E1,-5.95857E1,-2.019513E2,-1.8369168E2,1.3561819E3,9.23356E1,7.065356E1,-1.196225E1,8.2206195E2,-3.3821392E1,-8.558005E0,-1.1230838E2,2.6548605E2,2.3846367E3,1.0132E0,1.09220955E2,-2.2921165E2,2.0691362E2,-1.4965732E2,1.189071E3,-1.1264338E2,-3.2463824E2,8.171607E2,3.393213E1,-1.2637675E1,1.9960329E2,-8.875343E1,7.169313E1,-7.545578E1,-4.5614655E1,-5.7844604E1,2.4209827E3,1.995974E2,-1.4289404E2,9.2803705E2,-1.846488E1,-8.868985E1,-5.9845667E0,-6.4963135E1,7.464728E2,5.477928E0,-4.5475845E1,-1.1250124E1,4.677733E1,-5.780224E1,-1.7166954E1,-5.4745064E1,4.1313293E2,-5.9945854E1,1.5207009E3,8.846661E-1,-1.5989948E2,9.373628E1,-3.0041672E1,-5.8362423E1,-1.0877856E2,6.1589294E2,-1.1856122E0,1.1893242E3,-1.815518E2,1.358248E2,4.1145363E0,-2.0810228E1,4.866362E0,9.556317E1,-2.2101492E1,-1.8964043E1,-5.9862125E1,-7.566516E1,8.460566E1,2.4856752E2,1.5574657E3,3.9059074E1,3.2446152E2,3.6557957E1,-5.9035065E1,-2.4066689E1,9.9221497E2,-3.865886E1,2.5090946E1,1.1064716E2,-3.3204674E1,2.0968102E2,-3.2730212E0],"categories":[],"categories_nodes":[],"categories_segments":[],"categories_sizes":[],"default_left":[0,0,0,0,0,0,0,0,0,0,0,0,0,0,0,0,0,0,0,0,0,0,0,0,0,0,0,0,0,0,0,0,0,0,0,0,0,0,0,0,0,0,0,0,0,0,0,0,0,0,0,0,0,0,0,0,0,0,0,0,0,0,0,0,0,0,0,0,0,0,0,0,0,0,0,0,0,0,0,0,0,0,0,0,0,0,0,0,0,0,0,0,0,0,0,0,0,0,0,0,0,0,0,0,0,0,0],"id":13,"left_children":[1,3,5,7,9,11,13,15,17,19,21,23,25,27,29,31,33,35,37,39,41,43,45,47,49,51,-1,53,55,57,59,61,63,65,67,69,71,73,75,77,79,-1,-1,-1,-1,81,83,85,87,89,91,-1,-1,-1,93,95,97,99,101,103,105,-1,-1,-1,-1,-1,-1,-1,-1,-1,-1,-1,-1,-1,-1,-1,-1,-1,-1,-1,-1,-1,-1,-1,-1,-1,-1,-1,-1,-1,-1,-1,-1,-1,-1,-1,-1,-1,-1,-1,-1,-1,-1,-1,-1,-1,-1],"loss_changes":[7.328652E5,2.1208635E6,8.234423E5,1.2311482E6,4.510732E6,2.5334928E6,5.46869E6,8.213582E5,9.697156E6,5.2535612E7,4.1764722E6,7.085275E5,8.67847E5,1.3681828E7,6.982954E5,3.115323E6,7.710755E5,1.4071511E7,1.1587031E6,2.8963012E6,2.0014244E7,1.11646E5,3.628612E6,9.9812825E5,1.0899998E6,3.807375E3,0E0,1.6960538E7,1.592853E6,8.116456E6,1.3515792E6,9.191337E6,1.8063433E5,5.7234875E5,7.99109E5,8.716852E6,2.8763392E7,3.4344192E6,4.371276E6,4.507125E4,1.5189691E7,0E0,0E0,0E0,0E0,2.9257814E7,3.6770358E6,2.0413272E5,9.0106175E5,6.438291E5,3.6137172E6,0E0,0E0,0E0,2.2170028E7,2.4910938E6,3.0932912E5,2.4255302E7,1.1041406E6,2.1839898E6,9.50727E6,0E0,0E0,0E0,0E0,0E0,0E0,0E0,0E0,0E0,0E0,0E0,0E0,0E0,0E0,0E0,0E0,0E0,0E0,0E0,0E0,0E0,0E0,0E0,0E0,0E0,0E0,0E0,0E0,0E0,0E0,0E0,0E0,0E0,0E0,0E0,0E0,0E0,0E0,0E0,0E0,0E0,0E0,0E0,0E0,0E0,0E0],"parents":[2147483647,0,0,1,1,2,2,3,3,4,4,5,5,6,6,7,7,8,8,9,9,10,10,11,11,12,12,13,13,14,14,15,15,16,16,17,17,18,18,19,19,20,20,21,21,22,22,23,23,24,24,25,25,27,27,28,28,29,29,30,30,31,31,32,32,33,33,34,34,35,35,36,36,37,37,38,38,39,39,40,40,45,45,46,46,47,47,48,48,49,49,50,50,54,54,55,55,56,56,57,57,58,58,59,59,60,60],"right_children":[2,4,6,8,10,12,14,16,18,20,22,24,26,28,30,32,34,36,38,40,42,44,46,48,50,52,-1,54,56,58,60,62,64,66,68,70,72,74,76,78,80,-1,-1,-1,-1,82,84,86,88,90,92,-1,-1,-1,94,96,98,100,102,104,106,-1,-1,-1,-1,-1,-1,-1,-1,-1,-1,-1,-1,-1,-1,-1,-1,-1,-1,-1,-1,-1,-1,-1,-1,-1,-1,-1,-1,-1,-1,-1,-1,-1,-1,-1,-1,-1,-1,-1,-1,-1,-1,-1,-1,-1,-1],"split_conditions":[1.7E1,1.6E1,-7.39888E1,4.0610523E1,-7.3992325E1,4.0743317E1,-7.3984535E1,4.0545635E1,4.0612465E1,-7.3994965E1,-7.398994E1,4.0616215E1,-7.3994095E1,1.8E1,4.0602726E1,6E0,9E0,1.5E1,-7.378242E1,4.0631783E1,4.0702293E1,4.062795E1,-7.398939E1,4.0612465E1,4.072024E1,6E0,-1.8369168E2,-7.3986664E1,-7.398562E1,-7.39804E1,4.064087E1,4.053399E1,1E1,-7.3810905E1,-7.397516E1,-7.395377E1,-7.4031715E1,-7.378738E1,-7.375498E1,-7.4009224E1,-7.4118126E1,-1.4965732E2,1.189071E3,-1.1264338E2,-3.2463824E2,6E0,4.0605965E1,-7.416732E1,6E0,-7.3994095E1,2E1,-7.545578E1,-4.5614655E1,-5.7844604E1,4.0744488E1,4.0765675E1,4.061805E1,-7.398086E1,-7.395142E1,-7.398406E1,4.064765E1,-6.4963135E1,7.464728E2,5.477928E0,-4.5475845E1,-1.1250124E1,4.677733E1,-5.780224E1,-1.7166954E1,-5.4745064E1,4.1313293E2,-5.9945854E1,1.5207009E3,8.846661E-1,-1.5989948E2,9.373628E1,-3.0041672E1,-5.8362423E1,-1.0877856E2,6.1589294E2,-1.1856122E0,1.1893242E3,-1.815518E2,1.358248E2,4.1145363E0,-2.0810228E1,4.866362E0,9.556317E1,-2.2101492E1,-1.8964043E1,-5.9862125E1,-7.566516E1,8.460566E1,2.4856752E2,1.5574657E3,3.9059074E1,3.2446152E2,3.6557957E1,-5.9035065E1,-2.4066689E1,9.9221497E2,-3.865886E1,2.5090946E1,1.1064716E2,-3.3204674E1,2.0968102E2,-3.2730212E0],"split_indices":[2,2,1,0,1,0,1,0,0,1,1,0,1,2,0,3,2,2,1,0,0,0,1,0,0,3,0,1,1,1,0,0,2,1,1,1,1,1,1,1,1,0,0,0,0,3,0,1,3,1,2,0,0,0,0,0,0,1,1,1,0,0,0,0,0,0,0,0,0,0,0,0,0,0,0,0,0,0,0,0,0,0,0,0,0,0,0,0,0,0,0,0,0,0,0,0,0,0,0,0,0,0,0,0,0,0,0],"split_type":[0,0,0,0,0,0,0,0,0,0,0,0,0,0,0,0,0,0,0,0,0,0,0,0,0,0,0,0,0,0,0,0,0,0,0,0,0,0,0,0,0,0,0,0,0,0,0,0,0,0,0,0,0,0,0,0,0,0,0,0,0,0,0,0,0,0,0,0,0,0,0,0,0,0,0,0,0,0,0,0,0,0,0,0,0,0,0,0,0,0,0,0,0,0,0,0,0,0,0,0,0,0,0,0,0,0,0],"sum_hessian":[7.859E3,4.282E3,3.577E3,3.772E3,5.1E2,4.55E2,3.122E3,3.32E2,3.44E3,6.7E1,4.43E2,4.31E2,2.4E1,7E1,3.052E3,3.2E1,3E2,1.9E1,3.421E3,6.2E1,5E0,4E0,4.39E2,1.49E2,2.82E2,1.6E1,8E0,9E0,6.1E1,1.05E2,2.947E3,4E0,2.8E1,1.18E2,1.82E2,1.6E1,3E0,3.32E3,1.01E2,2.4E1,3.8E1,1E0,4E0,2E0,2E0,5E0,4.34E2,1.23E2,2.6E1,2.31E2,5.1E1,6E0,1E1,4E0,5E0,4.2E1,1.9E1,9E0,9.6E1,2.12E2,2.735E3,3E0,1E0,2E1,8E0,1.01E2,1.7E1,7.3E1,1.09E2,1.2E1,4E0,2E0,1E0,3.309E3,1.1E1,5.1E1,5E1,2.1E1,3E0,3E0,3.5E1,1E0,4E0,1.9E1,4.15E2,4.1E1,8.2E1,1.8E1,8E0,1.89E2,4.2E1,2E1,3.1E1,4E0,1E0,4E1,2E0,3E0,1.6E1,7E0,2E0,4.6E1,5E1,9E0,2.03E2,1.8E1,2.717E3],"tree_param":{"num_deleted":"0","num_feature":"4","num_nodes":"107","size_leaf_vector":"1"}},{"base_weights":[2.3916929E0,8.501873E0,-8.647187E0,6.326516E0,4.463657E2,-1.5681779E1,3.8344444E1,8.40066E0,-1.4999004E2,1.59363E3,-2.9857236E2,2.7123E1,-2.3479506E1,2.0036548E2,-2.0222044E1,3.820071E0,1.1070404E2,4.486138E1,-1.8977597E2,1.2687798E3,4.0606287E2,-1.2941965E2,-3.3546326E1,-2.0673503E-1,3.209241E2,-8.0270805E1,-6.57022E0,7.416305E1,5.811411E2,-5.9887493E1,8.455777E0,8.411324E0,-8.044308E1,4.7801953E2,4.551283E1,-1.9614629E2,4.2150137E2,-1.6201588E2,-4.3497372E2,-4.930456E1,1.0175614E3,-1.3045197E1,2.831091E2,-1.27025795E2,6.341017E2,-5.2566452E1,-2.1173224E2,-2.0065697E1,1.0337035E2,-1.4182361E1,1.0777747E3,1.8135672E2,2.5347239E3,-1.0078517E2,1.4775288E2,9.3538124E1,-3.705864E1,5.329031E0,-8.035906E0,2.5110186E1,-3.324998E1,3.519747E1,5.248362E2,-6.5445695E0,1.4689946E2,-8.495548E1,-1.1493414E1,-6.921234E1,2.7996304E2,-5.962245E1,-4.1864613E1,-3.8936737E1,-1.7855014E2,-6.7458176E1,4.519967E2,1.3978514E1,-1.759731E1,-5.2158047E1,1.5869392E2,-2.591664E0,-5.2055004E1,2.7767435E2,-4.5510162E1,7.4055E0,-2.260168E1,-1.02431656E2,-4.93153E1,-3.3110929E0,-3.1717007E1,5.459871E2,1.5682336E1,7.16721E1,-3.245774E1,1.1147722E3,-5.7909973E1,3.3418515E2,-1.0788515E1,1.5762113E3,-3.691798E1,-6.3916332E1,-1.7293613E1,1.0665851E2,-5.471384E1,7.440315E1,-5.453465E-1,5.5201183E1,-1.3659167E1],"categories":[],"categories_nodes":[],"categories_segments":[],"categories_sizes":[],"default_left":[0,0,0,0,0,0,0,0,0,0,0,0,0,0,0,0,0,0,0,0,0,0,0,0,0,0,0,0,0,0,0,0,0,0,0,0,0,0,0,0,0,0,0,0,0,0,0,0,0,0,0,0,0,0,0,0,0,0,0,0,0,0,0,0,0,0,0,0,0,0,0,0,0,0,0,0,0,0,0,0,0,0,0,0,0,0,0,0,0,0,0,0,0,0,0,0,0,0,0,0,0,0,0,0,0,0,0],"id":14,"left_children":[1,3,5,7,9,11,13,15,17,19,21,23,25,27,29,31,33,35,37,-1,39,-1,-1,41,43,45,47,49,51,53,55,57,59,61,63,65,67,69,71,-1,73,75,77,79,81,83,85,87,89,91,93,95,97,99,101,103,105,-1,-1,-1,-1,-1,-1,-1,-1,-1,-1,-1,-1,-1,-1,-1,-1,-1,-1,-1,-1,-1,-1,-1,-1,-1,-1,-1,-1,-1,-1,-1,-1,-1,-1,-1,-1,-1,-1,-1,-1,-1,-1,-1,-1,-1,-1,-1,-1,-1,-1],"loss_changes":[5.3022694E5,4.8168775E6,9.265192E5,1.6340465E6,2.1841836E7,8.140586E5,3.467538E6,2.3290358E6,5.201685E5,2.9582598E7,3.4864862E5,3.0191608E6,1.979612E6,4.618217E6,3.064989E5,1.841807E6,5.078687E6,1.1719534E6,3.0389662E5,0E0,2.9576805E6,0E0,0E0,1.2585754E6,4.569759E6,1.7115615E6,2.361158E6,6.576457E6,1.8284596E7,9.744883E5,6.1144475E5,1.4863609E6,1.2364134E6,1.4469932E7,5.453191E6,9.905269E4,1.8840045E6,1.4347E4,1.6719656E5,0E0,2.769433E6,9.031658E5,1.7772985E6,7.5555766E4,4.4922695E6,6.91469E5,4.4746225E5,1.094711E6,1.5166497E7,1.6675616E6,2.0832654E7,4.2961255E6,2.9555956E7,4.4782944E5,1.3681158E6,8.1059306E5,2.0127864E5,0E0,0E0,0E0,0E0,0E0,0E0,0E0,0E0,0E0,0E0,0E0,0E0,0E0,0E0,0E0,0E0,0E0,0E0,0E0,0E0,0E0,0E0,0E0,0E0,0E0,0E0,0E0,0E0,0E0,0E0,0E0,0E0,0E0,0E0,0E0,0E0,0E0,0E0,0E0,0E0,0E0,0E0,0E0,0E0,0E0,0E0,0E0,0E0,0E0,0E0],"parents":[2147483647,0,0,1,1,2,2,3,3,4,4,5,5,6,6,7,7,8,8,9,9,10,10,11,11,12,12,13,13,14,14,15,15,16,16,17,17,18,18,20,20,23,23,24,24,25,25,26,26,27,27,28,28,29,29,30,30,31,31,32,32,33,33,34,34,35,35,36,36,37,37,38,38,40,40,41,41,42,42,43,43,44,44,45,45,46,46,47,47,48,48,49,49,50,50,51,51,52,52,53,53,54,54,55,55,56,56],"right_children":[2,4,6,8,10,12,14,16,18,20,22,24,26,28,30,32,34,36,38,-1,40,-1,-1,42,44,46,48,50,52,54,56,58,60,62,64,66,68,70,72,-1,74,76,78,80,82,84,86,88,90,92,94,96,98,100,102,104,106,-1,-1,-1,-1,-1,-1,-1,-1,-1,-1,-1,-1,-1,-1,-1,-1,-1,-1,-1,-1,-1,-1,-1,-1,-1,-1,-1,-1,-1,-1,-1,-1,-1,-1,-1,-1,-1,-1,-1,-1,-1,-1,-1,-1,-1,-1,-1,-1,-1,-1],"split_conditions":[-7.3900894E1,-7.390137E1,4.086313E1,-7.3902794E1,1.4E1,4.0673237E1,4.0872623E1,-7.390704E1,4.0718655E1,4.06998E1,4.0747204E1,4.067094E1,4.0704468E1,4.086992E1,-7.387324E1,-7.391274E1,4.070666E1,8E0,2.3E1,1.2687798E3,9E0,-1.2941965E2,-3.3546326E1,2.3E1,1.7E1,4.0696384E1,-7.379423E1,-7.3838585E1,2.3E1,4.0885025E1,-7.3859764E1,2.1E1,8E0,4.069544E1,2.2E1,4.0700623E1,-7.390228E1,6E0,4.0853878E1,-4.930456E1,4.0737373E1,1.3E1,4.0651817E1,3E0,-7.386674E1,-7.3863815E1,-7.3884865E1,-7.381339E1,4.070543E1,4.0865383E1,-7.383357E1,2E0,-7.389342E1,-7.389342E1,4.0899647E1,4.088241E1,1E0,5.329031E0,-8.035906E0,2.5110186E1,-3.324998E1,3.519747E1,5.248362E2,-6.5445695E0,1.4689946E2,-8.495548E1,-1.1493414E1,-6.921234E1,2.7996304E2,-5.962245E1,-4.1864613E1,-3.8936737E1,-1.7855014E2,-6.7458176E1,4.519967E2,1.3978514E1,-1.759731E1,-5.2158047E1,1.5869392E2,-2.591664E0,-5.2055004E1,2.7767435E2,-4.5510162E1,7.4055E0,-2.260168E1,-1.02431656E2,-4.93153E1,-3.3110929E0,-3.1717007E1,5.459871E2,1.5682336E1,7.16721E1,-3.245774E1,1.1147722E3,-5.7909973E1,3.3418515E2,-1.0788515E1,1.5762113E3,-3.691798E1,-6.3916332E1,-1.7293613E1,1.0665851E2,-5.471384E1,7.440315E1,-5.453465E-1,5.5201183E1,-1.3659167E1],"split_indices":[1,1,0,1,2,0,0,1,0,0,0,0,0,0,1,1,0,2,2,0,2,0,0,2,2,0,1,1,2,0,1,2,2,0,2,0,1,3,0,0,0,2,0,2,1,1,1,1,0,0,1,2,1,1,0,0,2,0,0,0,0,0,0,0,0,0,0,0,0,0,0,0,0,0,0,0,0,0,0,0,0,0,0,0,0,0,0,0,0,0,0,0,0,0,0,0,0,0,0,0,0,0,0,0,0,0,0],"split_type":[0,0,0,0,0,0,0,0,0,0,0,0,0,0,0,0,0,0,0,0,0,0,0,0,0,0,0,0,0,0,0,0,0,0,0,0,0,0,0,0,0,0,0,0,0,0,0,0,0,0,0,0,0,0,0,0,0,0,0,0,0,0,0,0,0,0,0,0,0,0,0,0,0,0,0,0,0,0,0,0,0,0,0,0,0,0,0,0,0,0,0,0,0,0,0,0,0,0,0,0,0,0,0,0,0,0,0],"sum_hessian":[7.859E3,5.059E3,2.8E3,5.035E3,2.4E1,2.436E3,3.64E2,4.97E3,6.5E1,9E0,1.5E1,3.75E2,2.061E3,9.6E1,2.68E2,4.758E3,2.12E2,1.1E1,5.4E1,2E0,7E0,8E0,7E0,3.44E2,3.1E1,4.72E2,1.589E3,7.3E1,2.3E1,1.12E2,1.56E2,4.513E3,2.45E2,3.1E1,1.81E2,7E0,4E0,5E1,4E0,4E0,3E0,3.3E2,1.4E1,1.3E1,1.8E1,3.91E2,8.1E1,1.416E3,1.73E2,6.8E1,5E0,2E1,3E0,9.4E1,1.8E1,5.4E1,1.02E2,3.566E3,9.47E2,3.8E1,2.07E2,2.5E1,6E0,1.58E2,2.3E1,4E0,3E0,2E0,2E0,1.6E1,3.4E1,2E0,2E0,1E0,2E0,1.43E2,1.87E2,5E0,9E0,4E0,9E0,1.3E1,5E0,8.9E1,3.02E2,2E1,6.1E1,1.282E3,1.34E2,4E0,1.69E2,1.8E1,5E1,1E0,4E0,3E0,1.7E1,1E0,2E0,2.5E1,6.9E1,1.1E1,7E0,2E1,3.4E1,3E0,9.9E1],"tree_param":{"num_deleted":"0","num_feature":"4","num_nodes":"107","size_leaf_vector":"1"}},{"base_weights":[2.3880463E0,3.2487724E0,-9.344488E1,2.5622E0,1.8077959E2,2.2381789E2,-1.2668542E2,-1.2173916E1,7.814535E0,-3.5199154E1,1.050561E3,-2.7647547E1,6.7583923E2,-4.7965626E1,-1.7928407E2,-2.0512999E1,9.154124E1,8.438872E1,3.9190216E0,4.22992E1,-1.7767392E2,1.3003424E3,-4.7311655E2,3.335453E2,-2.9417643E1,-5.6932774E1,1.2824748E1,-2.9825134E2,-7.920553E1,-2.9131302E1,6.9711754E1,3.9735912E1,6.9262537E2,6.630632E2,8.77095E0,-1.4421284E1,1.4973851E1,-5.472514E0,1.20996994E2,-7.031386E1,-2.5630058E1,-1.871424E2,-1.8041556E2,-2.5594204E1,-3.5636204E1,-1.7569714E2,-2.4368492E2,-1.792838E2,-2.0550085E1,1.2001101E0,-1.5161377E1,1.6427286E2,9.606868E0,-7.1707616E0,4.9060017E1,4.5552948E2,-1.1587581E2,9.607661E1,1.1610361E3,6.634483E1,-1.3149498E1,-5.1233334E1,-1.0697601E0,4.525261E1,-4.86676E-1,-4.0707104E1,1.0504641E1,-7.24143E1,-1.17997875E1,2.9520426E0,-1.2850709E1,-9.513159E1,-2.0540028E1,-2.7543824E0,-7.033633E1,-2.072178E1,1.3431521E1],"categories":[],"categories_nodes":[],"categories_segments":[],"categories_sizes":[],"default_left":[0,0,0,0,0,0,0,0,0,0,0,0,0,0,0,0,0,0,0,0,0,0,0,0,0,0,0,0,0,0,0,0,0,0,0,0,0,0,0,0,0,0,0,0,0,0,0,0,0,0,0,0,0,0,0,0,0,0,0,0,0,0,0,0,0,0,0,0,0,0,0,0,0,0,0,0,0],"id":15,"left_children":[1,3,5,7,9,11,13,15,17,19,21,-1,23,25,27,29,31,33,35,37,39,-1,41,-1,-1,43,-1,45,47,49,51,53,55,57,59,61,63,65,-1,-1,-1,67,-1,-1,69,-1,71,73,75,-1,-1,-1,-1,-1,-1,-1,-1,-1,-1,-1,-1,-1,-1,-1,-1,-1,-1,-1,-1,-1,-1,-1,-1,-1,-1,-1,-1],"loss_changes":[6.486426E5,9.4916406E5,7.665735E5,6.008663E5,5.672608E6,1.0620806E6,2.5639606E5,1.7662519E6,1.7068159E6,2.8355444E5,3.2072464E7,0E0,1.1212319E6,2.4397062E4,4.288075E5,1.4708872E6,4.70566E6,1.211517E7,1.1045895E6,2.9540178E5,2.7051094E4,0E0,7.0863E4,0E0,0E0,1.2070297E4,0E0,1.2389025E5,1.2545867E5,1.2236361E6,2.9541422E6,1.1147462E6,1.1277828E7,3.3941504E7,2.757922E6,3.4771892E6,7.66459E6,8.9107375E4,0E0,0E0,0E0,1.4556828E4,0E0,0E0,5.66001E3,0E0,1.8412212E5,7.292469E4,5.063619E4,0E0,0E0,0E0,0E0,0E0,0E0,0E0,0E0,0E0,0E0,0E0,0E0,0E0,0E0,0E0,0E0,0E0,0E0,0E0,0E0,0E0,0E0,0E0,0E0,0E0,0E0,0E0,0E0],"parents":[2147483647,0,0,1,1,2,2,3,3,4,4,5,5,6,6,7,7,8,8,9,9,10,10,12,12,13,13,14,14,15,15,16,16,17,17,18,18,19,19,20,20,22,22,25,25,27,27,28,28,29,29,30,30,31,31,32,32,33,33,34,34,35,35,36,36,37,37,41,41,44,44,46,46,47,47,48,48],"right_children":[2,4,6,8,10,12,14,16,18,20,22,-1,24,26,28,30,32,34,36,38,40,-1,42,-1,-1,44,-1,46,48,50,52,54,56,58,60,62,64,66,-1,-1,-1,68,-1,-1,70,-1,72,74,76,-1,-1,-1,-1,-1,-1,-1,-1,-1,-1,-1,-1,-1,-1,-1,-1,-1,-1,-1,-1,-1,-1,-1,-1,-1,-1,-1,-1],"split_conditions":[-7.374219E1,-7.37499E1,3E0,1.2E1,4.072024E1,4.0675213E1,4.0702293E1,-7.382298E1,1.3E1,4.0709095E1,4.0722027E1,-2.7647547E1,4.0725513E1,2.3E1,4.0726917E1,4.0864365E1,4.077651E1,-7.398994E1,-7.39507E1,4.0702293E1,4.071E1,1.3003424E3,4.072795E1,3.335453E2,-2.9417643E1,6E0,1.2824748E1,4.070543E1,6E0,-7.395039E1,-7.3923225E1,4.071767E1,1E1,-7.3992325E1,-7.396836E1,1.4E1,-7.394089E1,5E0,1.20996994E2,-7.031386E1,-2.5630058E1,1.7E1,-1.8041556E2,-2.5594204E1,1E1,-1.7569714E2,1.7E1,4.073355E1,1.6E1,1.2001101E0,-1.5161377E1,1.6427286E2,9.606868E0,-7.1707616E0,4.9060017E1,4.5552948E2,-1.1587581E2,9.607661E1,1.1610361E3,6.634483E1,-1.3149498E1,-5.1233334E1,-1.0697601E0,4.525261E1,-4.86676E-1,-4.0707104E1,1.0504641E1,-7.24143E1,-1.17997875E1,2.9520426E0,-1.2850709E1,-9.513159E1,-2.0540028E1,-2.7543824E0,-7.033633E1,-2.072178E1,1.3431521E1],"split_indices":[1,1,2,2,0,0,0,1,2,0,0,0,0,2,0,0,0,1,1,0,0,0,0,0,0,3,0,0,3,1,1,0,2,1,1,2,1,2,0,0,0,2,0,0,2,0,2,0,2,0,0,0,0,0,0,0,0,0,0,0,0,0,0,0,0,0,0,0,0,0,0,0,0,0,0,0,0],"split_type":[0,0,0,0,0,0,0,0,0,0,0,0,0,0,0,0,0,0,0,0,0,0,0,0,0,0,0,0,0,0,0,0,0,0,0,0,0,0,0,0,0,0,0,0,0,0,0,0,0,0,0,0,0,0,0,0,0,0,0,0,0,0,0,0,0,0,0,0,0,0,0,0,0,0,0,0,0],"sum_hessian":[7.859E3,7.79E3,6.9E1,7.761E3,2.9E1,6E0,6.3E1,2.039E3,5.722E3,2.4E1,5E0,4E0,2E0,2.6E1,3.7E1,1.888E3,1.51E2,2.76E2,5.446E3,1.6E1,8E0,1E0,4E0,1E0,1E0,2.4E1,2E0,1.6E1,2.1E1,1.724E3,1.64E2,1.4E2,1.1E1,3.1E1,2.45E2,2.048E3,3.398E3,1.5E1,1E0,4E0,4E0,2E0,2E0,9E0,1.5E1,1E0,1.5E1,7E0,1.4E1,6.77E2,1.047E3,1.1E1,1.53E2,9.3E1,4.7E1,6E0,5E0,2.9E1,2E0,4.8E1,1.97E2,1.32E2,1.916E3,3.69E2,3.029E3,3E0,1.2E1,1E0,1E0,2E0,1.3E1,1E1,5E0,2E0,5E0,8E0,6E0],"tree_param":{"num_deleted":"0","num_feature":"4","num_nodes":"77","size_leaf_vector":"1"}},{"base_weights":[2.0223784E0,6.67779E0,-1.1350886E1,3.54205E0,2.9839624E2,-3.5742264E1,1.0265386E1,5.592411E0,-8.9860634E1,8.6692175E2,1.8549713E2,-6.0705418E1,2.016062E-1,4.102981E2,3.8461385E0,3.224844E0,2.223466E2,-1.08210754E2,4.8769583E2,3.2948578E2,-3.9022995E1,-2.3670306E2,2.5489072E2,-4.1394493E1,-1.9182025E2,1.1521137E2,-5.407342E1,2.2254814E2,5.1214465E2,1.2441366E1,-1.1990614E2,6.0367936E-1,4.7994755E1,9.9057935E2,-1.4877249E2,-1.4830292E2,7.930023E0,2.8801782E2,3.0664525E0,-1.6427202E1,-1.1331459E0,-4.973651E1,-2.3182034E2,7.588104E2,7.483564E1,-1.1861082E2,-2.0895327E1,-7.042199E0,-2.1161108E2,6.5455696E1,9.5170703E2,2.6958856E2,-8.279899E1,8.3626495E2,-1.3243814E2,6.1352735E0,5.748457E2,-3.4729443E1,-1.5396338E2,8.013637E-1,-5.470971E1,-1.3466381E1,5.2869717E1,-2.169149E0,8.534064E2,-8.054167E1,3.2941063E1,-6.1341904E1,-1.0440797E1,2.8110258E1,-5.950154E0,1.0046104E2,-5.0894794E1,7.4063666E2,1.1367676E2,-3.7919044E1,1.27531715E2,-6.9798454E1,-2.7516514E1,4.7428593E1,-1.579229E1,-5.4974274E1,1.8395932E2,-1.3177325E2,-4.86711E1,6.27021E1,-3.1656072E-1,4.3357297E2,-5.642666E1,2.5624585E2,6.032347E1,-1.7972126E1,-9.394716E1,-1.2412431E1,5.183089E2,-4.5251053E1,7.732322E0,9.709896E0,-2.6036897E0,4.4790475E2,1.3171484E1,-4.576458E1,1.9904192E1,-5.3663403E1,-2.136275E1],"categories":[],"categories_nodes":[],"categories_segments":[],"categories_sizes":[],"default_left":[0,0,0,0,0,0,0,0,0,0,0,0,0,0,0,0,0,0,0,0,0,0,0,0,0,0,0,0,0,0,0,0,0,0,0,0,0,0,0,0,0,0,0,0,0,0,0,0,0,0,0,0,0,0,0,0,0,0,0,0,0,0,0,0,0,0,0,0,0,0,0,0,0,0,0,0,0,0,0,0,0,0,0,0,0,0,0,0,0,0,0,0,0,0,0,0,0,0,0,0,0,0,0,0,0],"id":16,"left_children":[1,3,5,7,9,11,13,15,17,19,21,23,25,27,29,31,33,35,37,-1,39,41,43,45,47,49,51,53,-1,55,57,59,61,63,65,67,69,-1,-1,-1,-1,71,-1,73,75,77,79,81,83,85,87,89,91,93,95,97,99,101,103,-1,-1,-1,-1,-1,-1,-1,-1,-1,-1,-1,-1,-1,-1,-1,-1,-1,-1,-1,-1,-1,-1,-1,-1,-1,-1,-1,-1,-1,-1,-1,-1,-1,-1,-1,-1,-1,-1,-1,-1,-1,-1,-1,-1,-1,-1],"loss_changes":[4.894241E5,5.332869E6,1.0706859E6,1.1055109E6,3.818721E6,8.560099E5,2.7640602E6,2.8972112E6,1.3669548E6,2.1388885E6,1.6131265E6,1.4175466E6,2.4531558E6,3.7592998E6,1.1300552E6,6.5560156E5,1.7538828E7,5.645925E5,8.923526E5,0E0,1.4568838E3,7.633263E5,4.1169458E6,7.762938E5,2.6180725E5,5.181877E6,2.504721E6,3.5965302E6,0E0,3.518221E6,1.94814E5,1.9975074E6,3.6884265E6,3.702152E7,1.3294412E6,5.666626E5,7.8061016E4,0E0,0E0,0E0,0E0,3.7964528E5,0E0,6.8597215E6,2.5207318E6,2.9453212E5,2.224369E6,9.8668375E5,6.59285E5,1.1459475E6,4.209546E6,7.093196E5,1.2784812E6,4.7656155E6,3.5907688E4,3.8226778E5,5.296882E6,2.6020553E5,8.8289875E4,0E0,0E0,0E0,0E0,0E0,0E0,0E0,0E0,0E0,0E0,0E0,0E0,0E0,0E0,0E0,0E0,0E0,0E0,0E0,0E0,0E0,0E0,0E0,0E0,0E0,0E0,0E0,0E0,0E0,0E0,0E0,0E0,0E0,0E0,0E0,0E0,0E0,0E0,0E0,0E0,0E0,0E0,0E0,0E0,0E0,0E0],"parents":[2147483647,0,0,1,1,2,2,3,3,4,4,5,5,6,6,7,7,8,8,9,9,10,10,11,11,12,12,13,13,14,14,15,15,16,16,17,17,18,18,20,20,21,21,22,22,23,23,24,24,25,25,26,26,27,27,29,29,30,30,31,31,32,32,33,33,34,34,35,35,36,36,41,41,43,43,44,44,45,45,46,46,47,47,48,48,49,49,50,50,51,51,52,52,53,53,54,54,55,55,56,56,57,57,58,58],"right_children":[2,4,6,8,10,12,14,16,18,20,22,24,26,28,30,32,34,36,38,-1,40,42,44,46,48,50,52,54,-1,56,58,60,62,64,66,68,70,-1,-1,-1,-1,72,-1,74,76,78,80,82,84,86,88,90,92,94,96,98,100,102,104,-1,-1,-1,-1,-1,-1,-1,-1,-1,-1,-1,-1,-1,-1,-1,-1,-1,-1,-1,-1,-1,-1,-1,-1,-1,-1,-1,-1,-1,-1,-1,-1,-1,-1,-1,-1,-1,-1,-1,-1,-1,-1,-1,-1,-1,-1],"split_conditions":[4.080972E1,4.0806698E1,-7.390461E1,4.0798206E1,1.2E1,1.8E1,-7.390375E1,4.079066E1,-7.391505E1,-7.393828E1,1.6E1,1.7E1,2E1,1.9E1,-7.383357E1,4.0773952E1,1.4E1,2E1,-7.391274E1,3.2948578E2,-7.3923225E1,1.5E1,1.8E1,4.0821167E1,-7.39486E1,4.0867413E1,4.0814816E1,4.0850536E1,5.1214465E2,-7.383534E1,4.0837265E1,4.0769222E1,-7.3957794E1,1E1,-7.394312E1,-7.394242E1,-7.396457E1,2.8801782E2,3.0664525E0,-1.6427202E1,-1.1331459E0,-7.395285E1,-2.3182034E2,-7.396321E1,2.2E1,6E0,4.082812E1,4.082525E1,-7.394089E1,4.0829235E1,-7.392155E1,-7.3953125E1,4.0865383E1,1.2E1,4.0878708E1,-7.388818E1,4.086822E1,4.081818E1,1.7E1,8.013637E-1,-5.470971E1,-1.3466381E1,5.2869717E1,-2.169149E0,8.534064E2,-8.054167E1,3.2941063E1,-6.1341904E1,-1.0440797E1,2.8110258E1,-5.950154E0,1.0046104E2,-5.0894794E1,7.4063666E2,1.1367676E2,-3.7919044E1,1.27531715E2,-6.9798454E1,-2.7516514E1,4.7428593E1,-1.579229E1,-5.4974274E1,1.8395932E2,-1.3177325E2,-4.86711E1,6.27021E1,-3.1656072E-1,4.3357297E2,-5.642666E1,2.5624585E2,6.032347E1,-1.7972126E1,-9.394716E1,-1.2412431E1,5.183089E2,-4.5251053E1,7.732322E0,9.709896E0,-2.6036897E0,4.4790475E2,1.3171484E1,-4.576458E1,1.9904192E1,-5.3663403E1,-2.136275E1],"split_indices":[0,0,1,0,2,2,1,0,1,1,2,2,2,2,1,0,2,2,1,0,1,2,2,0,1,0,0,0,0,1,0,0,1,2,1,1,1,0,0,0,0,1,0,1,2,3,0,0,1,0,1,1,0,2,0,1,0,0,2,0,0,0,0,0,0,0,0,0,0,0,0,0,0,0,0,0,0,0,0,0,0,0,0,0,0,0,0,0,0,0,0,0,0,0,0,0,0,0,0,0,0,0,0,0,0],"split_type":[0,0,0,0,0,0,0,0,0,0,0,0,0,0,0,0,0,0,0,0,0,0,0,0,0,0,0,0,0,0,0,0,0,0,0,0,0,0,0,0,0,0,0,0,0,0,0,0,0,0,0,0,0,0,0,0,0,0,0,0,0,0,0,0,0,0,0,0,0,0,0,0,0,0,0,0,0,0,0,0,0,0,0,0,0,0,0,0,0,0,0,0,0,0,0,0,0,0,0,0,0,0,0,0,0],"sum_hessian":[7.859E3,5.83E3,2.029E3,5.769E3,6.1E1,9.53E2,1.076E3,5.646E3,1.23E2,9E0,5.2E1,5.62E2,3.91E2,1.6E1,1.06E3,5.586E3,6E1,1.2E2,3E0,7E0,2E0,7E0,4.5E1,4.91E2,7.1E1,1.25E2,2.66E2,1.5E1,1E0,9.92E2,6.8E1,5.278E3,3.08E2,1.9E1,4.1E1,8.9E1,3.1E1,1E0,2E0,1E0,1E0,6E0,1E0,1.1E1,3.4E1,1.02E2,3.89E2,7E0,6.4E1,1.19E2,6E0,2.1E1,2.45E2,5E0,1E1,9.82E2,1E1,2E1,4.8E1,5.22E3,5.8E1,1.79E2,1.29E2,1.3E1,6E0,2.8E1,1.3E1,5.9E1,3E1,7E0,2.4E1,1E0,5E0,1E0,1E1,2.2E1,1.2E1,1.8E1,8.4E1,5.8E1,3.31E2,6E0,1E0,1E1,5.4E1,3.7E1,8.2E1,4E0,2E0,1E0,2E1,2.24E2,2.1E1,3E0,2E0,9E0,1E0,3.54E2,6.28E2,3E0,7E0,9E0,1.1E1,3.6E1,1.2E1],"tree_param":{"num_deleted":"0","num_feature":"4","num_nodes":"105","size_leaf_vector":"1"}},{"base_weights":[1.9219056E0,-3.3264233E1,3.356489E0,1.5073367E1,-5.3922253E1,1.0102922E2,2.6003025E0,-5.0533485E1,1.3040683E2,-1.4689004E1,-1.010124E2,-1.8638727E1,