{"learner":{"attributes":{"scikit_learn":"{\"_estimator_type\": \"regressor\"}"},"feature_names":["complaint_type","borough","agency","incident_zip"],"feature_types":["int","int","int","int"],"gradient_booster":{"model":{"gbtree_model_param":{"num_parallel_tree":"1","num_trees":"100"},"iteration_indptr":[0,1,2,3,4,5,6,7,8,9,10,11,12,13,14,15,16,17,18,19,20,21,22,23,24,25,26,27,28,29,30,31,32,33,34,35,36,37,38,39,40,41,42,43,44,45,46,47,48,49,50,51,52,53,54,55,56,57,58,59,60,61,62,63,64,65,66,67,68,69,70,71,72,73,74,75,76,77,78,79,80,81,82,83,84,85,86,87,88,89,90,91,92,93,94,95,96,97,98,99,100],"tree_info":[0,0,0,0,0,0,0,0,0,0,0,0,0,0,0,0,0,0,0,0,0,0,0,0,0,0,0,0,0,0,0,0,0,0,0,0,0,0,0,0,0,0,0,0,0,0,0,0,0,0,0,0,0,0,0,0,0,0,0,0,0,0,0,0,0,0,0,0,0,0,0,0,0,0,0,0,0,0,0,0,0,0,0,0,0,0,0,0,0,0,0,0,0,0,0,0,0,0,0,0],"trees":[{"base_weights":[-1.9921036E-9,-1.6679806E-1,1.1792637E-1,-6.0155973E-2,-3.4471774E-1,3.9267167E-2,-2.4706195E-1,-3.09861E-1,9.445209E-2,-1.2424249E-1,-5.965824E-1,-1.7352019E-1,-5.241167E-1,3.923703E-2,-5.2139986E-2,-2.5571033E-1,-6.1350517E-2,-7.9937387E-1,-4.465156E-1,-3.9573696E-1,3.0796034E-2,5.5524603E-2,-5.5229086E-1,3.8383137E-2,-8.980288E-2,-1.2501428E-1,8.93686E-3,-2.5892615E-1,-6.969473E-1,-2.4538751E-1,-4.2505196E-1,-4.1025423E-2,-1.4778577E-1,3.450787E-2,-8.143834E-2,-1.3036212E-1,3.6470354E-2,-2.0781519E-1,-1.334145E-1,-1.8069133E-1,-8.805489E-3,-1.17685525E-2,-2.1046267E-1,3.201127E-2,-1.0173367E-2,-1.2528391E-1,-2.1932046E-1,-7.752596E-2,-1.3513334E-1],"categories":[],"categories_nodes":[],"categories_segments":[],"categories_sizes":[],"default_left":[0,0,0,0,0,0,0,0,0,0,0,0,0,0,0,0,0,0,0,0,0,0,0,0,0,0,0,0,0,0,0,0,0,0,0,0,0,0,0,0,0,0,0,0,0,0,0,0,0],"id":0,"left_children":[1,3,5,7,9,-1,-1,11,13,15,17,19,21,-1,23,-1,25,27,29,31,33,35,37,-1,39,41,43,-1,45,-1,47,-1,-1,-1,-1,-1,-1,-1,-1,-1,-1,-1,-1,-1,-1,-1,-1,-1,-1],"loss_changes":[1.5539212E2,6.206131E1,5.6594093E1,7.9056595E1,6.800554E1,0E0,0E0,2.278189E1,6.745304E0,2.9942274E1,1.7050308E1,2.1805384E1,4.9952545E0,0E0,1.7206738E0,0E0,2.7038713E0,9.777527E-1,2.2912369E0,5.7035904E0,6.421479E0,5.383083E-1,4.0728226E0,0E0,6.457426E0,1.5650633E1,1.2100921E0,0E0,6.2874603E-1,0E0,1.216423E0,0E0,0E0,0E0,0E0,0E0,0E0,0E0,0E0,0E0,0E0,0E0,0E0,0E0,0E0,0E0,0E0,0E0,0E0],"parents":[2147483647,0,0,1,1,2,2,3,3,4,4,7,7,8,8,9,9,10,10,11,11,12,12,14,14,16,16,17,17,18,18,19,19,20,20,21,21,22,22,24,24,25,25,26,26,28,28,30,30],"right_children":[2,4,6,8,10,-1,-1,12,14,16,18,20,22,-1,24,-1,26,28,30,32,34,36,38,-1,40,42,44,-1,46,-1,48,-1,-1,-1,-1,-1,-1,-1,-1,-1,-1,-1,-1,-1,-1,-1,-1,-1,-1],"split_conditions":[1E1,5.9E1,1.1E1,4.1E1,8E0,3.9267167E-2,-2.4706195E-1,2.9E1,4.5E1,6.1E1,5.1E1,2E1,3E0,3.923703E-2,5E0,-2.5571033E-1,9E1,6.4E1,6.4E1,1.2E1,2.8E1,2E0,3.6E1,3.8383137E-2,7E0,8.6E1,6.6E1,-2.5892615E-1,7.5E1,-2.4538751E-1,6.4E1,-4.1025423E-2,-1.4778577E-1,3.450787E-2,-8.143834E-2,-1.3036212E-1,3.6470354E-2,-2.0781519E-1,-1.334145E-1,-1.8069133E-1,-8.805489E-3,-1.17685525E-2,-2.1046267E-1,3.201127E-2,-1.0173367E-2,-1.2528391E-1,-2.1932046E-1,-7.752596E-2,-1.3513334E-1],"split_indices":[2,0,2,0,2,0,0,0,0,0,3,0,2,0,2,0,0,0,0,0,0,1,0,0,2,0,3,0,0,0,3,0,0,0,0,0,0,0,0,0,0,0,0,0,0,0,0,0,0],"split_type":[0,0,0,0,0,0,0,0,0,0,0,0,0,0,0,0,0,0,0,0,0,0,0,0,0,0,0,0,0,0,0,0,0,0,0,0,0,0,0,0,0,0,0,0,0,0,0,0,0],"sum_hessian":[7.898E3,3.271E3,4.627E3,2.046E3,1.225E3,4.565E3,6.2E1,7.82E2,1.264E3,6.54E2,5.71E2,4.79E2,3.03E2,1.013E3,2.51E2,5.1E1,6.03E2,2.41E2,3.3E2,2.29E2,2.5E2,1.4E1,2.89E2,4.3E1,2.08E2,3.16E2,2.87E2,1.44E2,9.7E1,1.6E1,3.14E2,6.3E1,1.66E2,1.96E2,5.4E1,1E0,1.3E1,1.23E2,1.66E2,2.1E1,1.87E2,2.76E2,4E1,8.7E1,2E2,1.2E1,8.5E1,4.3E1,2.71E2],"tree_param":{"num_deleted":"0","num_feature":"4","num_nodes":"49","size_leaf_vector":"1"}},{"base_weights":[-3.1754375E-4,-1.1746169E-1,8.250354E-2,-4.249156E-2,-2.4254033E-1,2.748959E-2,-1.7411985E-1,-2.1775949E-1,6.6028036E-2,-8.7666065E-2,-4.1946357E-1,-1.2195526E-1,-3.68313E-1,8.2826585E-2,-9.347911E-2,-1.8047246E-1,-4.327712E-2,-5.620556E-1,-3.1394476E-1,-2.7783677E-1,2.1370253E-2,3.2607775E-2,-3.8778025E-1,2.7477536E-2,1.4866453E-2,-4.2792335E-1,-3.46957E-2,-8.8211015E-2,6.3316356E-3,-1.81784E-1,-4.9137947E-1,-2.2252172E-1,-3.578303E-1,-2.8910106E-2,-1.0371552E-1,2.4208058E-2,-5.7451043E-2,-1.108078E-1,2.6310757E-2,-1.459734E-1,-9.362982E-2,-1.6777906E-1,9.7661065E-3,-6.820223E-2,-1.6046984E-1,2.7962694E-2,-4.0148977E-2,-8.250724E-3,-1.4886384E-1,2.2517018E-2,-7.136538E-3,-1.3097422E-1,-1.8031122E-1,-8.213052E-2,2.2179542E-2,-1.3035508E-1,-8.140476E-2],"categories":[],"categories_nodes":[],"categories_segments":[],"categories_sizes":[],"default_left":[0,0,0,0,0,0,0,0,0,0,0,0,0,0,0,0,0,0,0,0,0,0,0,0,0,0,0,0,0,0,0,0,0,0,0,0,0,0,0,0,0,0,0,0,0,0,0,0,0,0,0,0,0,0,0,0,0],"id":1,"left_children":[1,3,5,7,9,-1,-1,11,13,15,17,19,21,23,25,-1,27,29,31,33,35,37,39,-1,41,43,45,47,49,-1,51,53,55,-1,-1,-1,-1,-1,-1,-1,-1,-1,-1,-1,-1,-1,-1,-1,-1,-1,-1,-1,-1,-1,-1,-1,-1],"loss_changes":[7.664583E1,3.0671768E1,2.8058414E1,3.8948326E1,3.355667E1,0E0,0E0,1.124881E1,3.397295E0,1.4915737E1,8.429947E0,1.073E1,2.3853111E0,6.8069744E-1,2.3639855E0,0E0,1.3469437E0,4.529419E-1,1.248394E0,2.7999287E0,3.1851728E0,3.6458784E-1,2.0164948E0,0E0,1.3586361E0,2.6463175E-1,1.3311661E0,7.838195E0,5.979472E-1,0E0,3.2649422E-1,1.6913881E0,1.3543835E0,0E0,0E0,0E0,0E0,0E0,0E0,0E0,0E0,0E0,0E0,0E0,0E0,0E0,0E0,0E0,0E0,0E0,0E0,0E0,0E0,0E0,0E0,0E0,0E0],"parents":[2147483647,0,0,1,1,2,2,3,3,4,4,7,7,8,8,9,9,10,10,11,11,12,12,13,13,14,14,16,16,17,17,18,18,19,19,20,20,21,21,22,22,24,24,25,25,26,26,27,27,28,28,30,30,31,31,32,32],"right_children":[2,4,6,8,10,-1,-1,12,14,16,18,20,22,24,26,-1,28,30,32,34,36,38,40,-1,42,44,46,48,50,-1,52,54,56,-1,-1,-1,-1,-1,-1,-1,-1,-1,-1,-1,-1,-1,-1,-1,-1,-1,-1,-1,-1,-1,-1,-1,-1],"split_conditions":[1E1,5.9E1,1.1E1,4.1E1,8E0,2.748959E-2,-1.7411985E-1,2.9E1,5.6E1,6.1E1,5.1E1,2E1,3E0,4.5E1,5.8E1,-1.8047246E-1,9E1,6.4E1,7.7E1,1.2E1,2.8E1,2E0,3.6E1,2.7477536E-2,2E0,6.5E1,2E0,8.6E1,6.6E1,-1.81784E-1,3.1E1,7.6E1,1.15E2,-2.8910106E-2,-1.0371552E-1,2.4208058E-2,-5.7451043E-2,-1.108078E-1,2.6310757E-2,-1.459734E-1,-9.362982E-2,-1.6777906E-1,9.7661065E-3,-6.820223E-2,-1.6046984E-1,2.7962694E-2,-4.0148977E-2,-8.250724E-3,-1.4886384E-1,2.2517018E-2,-7.136538E-3,-1.3097422E-1,-1.8031122E-1,-8.213052E-2,2.2179542E-2,-1.3035508E-1,-8.140476E-2],"split_indices":[2,0,2,0,2,0,0,0,0,0,3,0,2,0,0,0,0,0,3,0,0,1,0,0,3,3,1,0,3,0,3,3,3,0,0,0,0,0,0,0,0,0,0,0,0,0,0,0,0,0,0,0,0,0,0,0,0],"split_type":[0,0,0,0,0,0,0,0,0,0,0,0,0,0,0,0,0,0,0,0,0,0,0,0,0,0,0,0,0,0,0,0,0,0,0,0,0,0,0,0,0,0,0,0,0,0,0,0,0,0,0,0,0,0,0,0,0],"sum_hessian":[7.898E3,3.271E3,4.627E3,2.046E3,1.225E3,4.565E3,6.2E1,7.82E2,1.264E3,6.54E2,5.71E2,4.79E2,3.03E2,1.144E3,1.2E2,5.1E1,6.03E2,2.41E2,3.3E2,2.29E2,2.5E2,1.4E1,2.89E2,1.013E3,1.31E2,1.7E1,1.03E2,3.16E2,2.87E2,1.44E2,9.7E1,1.09E2,2.21E2,6.3E1,1.66E2,1.96E2,5.4E1,1E0,1.3E1,1.23E2,1.66E2,3E0,1.28E2,7E0,1E1,4.5E1,5.8E1,2.76E2,4E1,8.7E1,2E2,6.8E1,2.9E1,9.3E1,1.6E1,1.15E2,1.06E2],"tree_param":{"num_deleted":"0","num_feature":"4","num_nodes":"57","size_leaf_vector":"1"}},{"base_weights":[-4.8751305E-4,-8.281866E-2,5.772078E-2,-3.0164894E-2,-1.7066485E-1,1.9244514E-2,-1.2271304E-1,-1.530574E-1,4.592601E-2,-6.185817E-2,-2.9496154E-1,-8.5714236E-2,-2.5888523E-1,5.7864577E-2,-6.7425944E-2,-1.273719E-1,-3.0528652E-2,-1.311093E-1,-2.3872818E-1,-1.9506235E-1,1.4826732E-2,-2.1208392E-1,-3.8511494E-1,1.9242397E-2,9.209454E-3,-3.7008338E-2,-4.418441E-1,-4.6768676E-2,7.056161E-2,-3.8777724E-1,-2.1271777E-1,-2.0372592E-2,-7.278717E-2,1.6982501E-2,-4.052909E-2,-7.852698E-2,4.801118E-2,-1.02763765E-1,-1.4327092E-1,-1.3002877E-1,6.858988E-3,-8.964145E-2,9.0948597E-4,-7.683031E-2,-1.6176552E-1,-9.920092E-3,-1.3531165E-1,3.8088188E-2,-1.3535272E-3,-5.5696297E-2,-1.3033205E-1,6.146447E-2,-6.727168E-2],"categories":[],"categories_nodes":[],"categories_segments":[],"categories_sizes":[],"default_left":[0,0,0,0,0,0,0,0,0,0,0,0,0,0,0,0,0,0,0,0,0,0,0,0,0,0,0,0,0,0,0,0,0,0,0,0,0,0,0,0,0,0,0,0,0,0,0,0,0,0,0,0,0],"id":2,"left_children":[1,3,5,7,9,-1,-1,11,13,15,17,19,21,23,25,-1,27,-1,29,31,33,35,37,-1,39,41,43,45,47,49,51,-1,-1,-1,-1,-1,-1,-1,-1,-1,-1,-1,-1,-1,-1,-1,-1,-1,-1,-1,-1,-1,-1],"loss_changes":[3.7859596E1,1.5129261E1,1.3911047E1,1.9148531E1,1.6562557E1,0E0,0E0,5.558079E0,1.7157753E0,7.4302497E0,4.4654007E0,5.279996E0,1.7142677E0,3.4908772E-1,1.3617053E0,0E0,9.94892E-1,0E0,1.5147667E0,1.3744774E0,1.579925E0,4.1823635E0,1.5520382E-1,0E0,8.076802E-1,1.1854082E0,2.4685025E-2,2.8710034E0,3.5623413E-1,4.8524284E-1,1.7443037E0,0E0,0E0,0E0,0E0,0E0,0E0,0E0,0E0,0E0,0E0,0E0,0E0,0E0,0E0,0E0,0E0,0E0,0E0,0E0,0E0,0E0,0E0],"parents":[2147483647,0,0,1,1,2,2,3,3,4,4,7,7,8,8,9,9,10,10,11,11,12,12,13,13,14,14,16,16,18,18,19,19,20,20,21,21,22,22,24,24,25,25,26,26,27,27,28,28,29,29,30,30],"right_children":[2,4,6,8,10,-1,-1,12,14,16,18,20,22,24,26,-1,28,-1,30,32,34,36,38,-1,40,42,44,46,48,50,52,-1,-1,-1,-1,-1,-1,-1,-1,-1,-1,-1,-1,-1,-1,-1,-1,-1,-1,-1,-1,-1,-1],"split_conditions":[1E1,5.9E1,1.1E1,4.1E1,8E0,1.9244514E-2,-1.2271304E-1,2.9E1,5.6E1,6.1E1,6.4E1,2E1,1.13E2,4.5E1,1.68E2,-1.273719E-1,7E0,-1.311093E-1,3E1,1.2E1,2.8E1,1.07E2,1.34E2,1.9242397E-2,2E0,3.5E1,1.75E2,6E0,8.1E1,1.7E1,3.1E1,-2.0372592E-2,-7.278717E-2,1.6982501E-2,-4.052909E-2,-7.852698E-2,4.801118E-2,-1.02763765E-1,-1.4327092E-1,-1.3002877E-1,6.858988E-3,-8.964145E-2,9.0948597E-4,-7.683031E-2,-1.6176552E-1,-9.920092E-3,-1.3531165E-1,3.8088188E-2,-1.3535272E-3,-5.5696297E-2,-1.3033205E-1,6.146447E-2,-6.727168E-2],"split_indices":[2,0,2,0,2,0,0,0,0,0,0,0,3,0,3,0,2,0,3,0,0,3,3,0,3,3,3,2,0,3,3,0,0,0,0,0,0,0,0,0,0,0,0,0,0,0,0,0,0,0,0,0,0],"split_type":[0,0,0,0,0,0,0,0,0,0,0,0,0,0,0,0,0,0,0,0,0,0,0,0,0,0,0,0,0,0,0,0,0,0,0,0,0,0,0,0,0,0,0,0,0,0,0,0,0,0,0,0,0],"sum_hessian":[7.898E3,3.271E3,4.627E3,2.046E3,1.225E3,4.565E3,6.2E1,7.82E2,1.264E3,6.54E2,5.71E2,4.79E2,3.03E2,1.144E3,1.2E2,5.1E1,6.03E2,1.6E2,4.11E2,2.29E2,2.5E2,2.23E2,8E1,1.013E3,1.31E2,1.12E2,8E0,5.2E2,8.3E1,5.9E1,3.52E2,6.3E1,1.66E2,1.96E2,5.4E1,1.97E2,2.6E1,5.8E1,2.2E1,3E0,1.28E2,1.4E1,9.8E1,4E0,4E0,5.04E2,1.6E1,4.7E1,3.6E1,1.2E1,4.7E1,9E0,3.43E2],"tree_param":{"num_deleted":"0","num_feature":"4","num_nodes":"53","size_leaf_vector":"1"}},{"base_weights":[-5.294712E-4,-5.8395833E-2,4.038221E-2,-2.1518225E-2,-1.1992117E-1,1.3472431E-2,-2.8827825E-1,-1.0764242E-1,3.180728E-2,-4.3660805E-2,-2.0703764E-1,-9.0054736E-2,-2.047145E-1,-6.051136E-2,-1.8291372E-1,4.0414426E-2,-4.9903363E-2,-8.989517E-2,-2.1549668E-2,-2.836111E-1,-1.5042792E-1,-4.0762104E-2,-7.804463E-2,-1.369487E-1,8.94179E-3,-3.6468998E-1,-1.560561E-1,1.3475366E-2,5.5134976E-3,-2.6988128E-1,-1.1350425E-2,-1.1061169E-1,-6.1464324E-3,7.3820474E-3,-2.8628212E-1,-1.1609767E-1,-1.3718341E-1,-3.4408357E-2,-9.000579E-2,-6.112471E-2,1.0541217E-2,-7.4796535E-2,-1.2250427E-1,4.098563E-3,-6.742145E-2,-1.007723E-1,4.817238E-3,-3.3559572E-2,-1.08080216E-1,2.0167826E-2,-3.600842E-2,-7.640537E-3,-1.694751E-1,1.4477386E-2,-8.385152E-3,-8.18062E-2,-1.02667086E-1,-5.01714E-2,-1.6562914E-2],"categories":[],"categories_nodes":[],"categories_segments":[],"categories_sizes":[],"default_left":[0,0,0,0,0,0,0,0,0,0,0,0,0,0,0,0,0,0,0,0,0,0,0,0,0,0,0,0,0,0,0,0,0,0,0,0,0,0,0,0,0,0,0,0,0,0,0,0,0,0,0,0,0,0,0,0,0,0,0],"id":3,"left_children":[1,3,5,7,9,-1,11,13,15,17,19,-1,21,23,25,27,29,-1,31,33,35,-1,-1,37,39,41,43,-1,45,47,49,51,53,-1,55,-1,57,-1,-1,-1,-1,-1,-1,-1,-1,-1,-1,-1,-1,-1,-1,-1,-1,-1,-1,-1,-1,-1,-1],"loss_changes":[1.8702532E1,7.421282E0,6.8970127E0,9.40451E0,8.135935E0,0E0,1.2183189E-3,2.766716E0,8.916855E-1,3.7009897E0,2.436842E0,0E0,6.6301525E-3,2.5653815E0,1.4125938E0,1.7971766E-1,1.0231128E0,0E0,8.279136E-1,2.0627213E-1,9.8399305E-1,0E0,0E0,8.0026054E-1,1.4223361E0,8.958435E-2,3.080408E0,0E0,4.8058474E-1,2.1678281E-1,8.9617795E-1,3.4282236E0,6.134471E-1,0E0,8.920288E-2,0E0,7.668276E-1,0E0,0E0,0E0,0E0,0E0,0E0,0E0,0E0,0E0,0E0,0E0,0E0,0E0,0E0,0E0,0E0,0E0,0E0,0E0,0E0,0E0,0E0],"parents":[2147483647,0,0,1,1,2,2,3,3,4,4,6,6,7,7,8,8,9,9,10,10,12,12,13,13,14,14,15,15,16,16,18,18,19,19,20,20,23,23,24,24,25,25,26,26,28,28,29,29,30,30,31,31,32,32,34,34,36,36],"right_children":[2,4,6,8,10,-1,12,14,16,18,20,-1,22,24,26,28,30,-1,32,34,36,-1,-1,38,40,42,44,-1,46,48,50,52,54,-1,56,-1,58,-1,-1,-1,-1,-1,-1,-1,-1,-1,-1,-1,-1,-1,-1,-1,-1,-1,-1,-1,-1,-1,-1],"split_conditions":[1E1,5.9E1,1.1E1,4.1E1,8E0,1.3472431E-2,1.5E2,3E1,5.6E1,6.1E1,5.1E1,-9.0054736E-2,5.7E1,2E1,3.2E1,4.5E1,5.8E1,-8.989517E-2,7.1E1,2E0,6.4E1,-4.0762104E-2,-7.804463E-2,1.55E2,3.7E1,1E0,4E0,1.3475366E-2,2E0,6.5E1,1.24E2,1.48E2,8.2E1,7.3820474E-3,3.1E1,-1.1609767E-1,1.18E2,-3.4408357E-2,-9.000579E-2,-6.112471E-2,1.0541217E-2,-7.4796535E-2,-1.2250427E-1,4.098563E-3,-6.742145E-2,-1.007723E-1,4.817238E-3,-3.3559572E-2,-1.08080216E-1,2.0167826E-2,-3.600842E-2,-7.640537E-3,-1.694751E-1,1.4477386E-2,-8.385152E-3,-8.18062E-2,-1.02667086E-1,-5.01714E-2,-1.6562914E-2],"split_indices":[2,0,2,0,2,0,3,0,0,0,3,0,0,0,0,0,0,0,0,3,0,0,0,3,3,1,2,0,3,3,3,3,0,0,3,0,3,0,0,0,0,0,0,0,0,0,0,0,0,0,0,0,0,0,0,0,0,0,0],"split_type":[0,0,0,0,0,0,0,0,0,0,0,0,0,0,0,0,0,0,0,0,0,0,0,0,0,0,0,0,0,0,0,0,0,0,0,0,0,0,0,0,0,0,0,0,0,0,0,0,0,0,0,0,0,0,0,0,0,0,0],"sum_hessian":[7.898E3,3.271E3,4.627E3,2.046E3,1.225E3,4.565E3,6.2E1,7.82E2,1.264E3,6.54E2,5.71E2,5.2E1,1E1,4.82E2,3E2,1.144E3,1.2E2,5.1E1,6.03E2,2.41E2,3.3E2,6E0,4E0,2.29E2,2.53E2,3.7E1,2.63E2,1.013E3,1.31E2,1.7E1,1.03E2,8.8E1,5.15E2,2E0,2.39E2,1.6E1,3.14E2,2.03E2,2.6E1,2.7E1,2.26E2,1.2E1,2.5E1,7.6E1,1.87E2,3E0,1.28E2,7E0,1E1,6E1,4.3E1,7.5E1,1.3E1,1.47E2,3.68E2,1.97E2,4.2E1,2.29E2,8.5E1],"tree_param":{"num_deleted":"0","num_feature":"4","num_nodes":"59","size_leaf_vector":"1"}},{"base_weights":[-5.594938E-4,-4.12733E-2,2.8225321E-2,-1.5392791E-2,-8.445121E-2,9.431585E-3,-2.0511003E-1,-7.5906046E-2,2.207541E-2,-3.0960904E-2,-1.4555559E-1,-6.840181E-2,-1.7412041E-1,-1.3957869E-1,-4.4711035E-2,2.8218068E-2,-3.623385E-2,-6.344524E-2,-1.5367908E-2,-2.2034566E-1,-1.1597608E-1,-1.2738813E-1,-6.653028E-2,3.5426868E-3,-1.9212611E-1,-2.1871857E-1,-1.0753207E-2,-5.8302447E-2,2.9185897E-2,-1.4987187E-1,-2.0220375E-2,-3.9094325E-2,4.4939883E-2,-6.362969E-2,-8.331716E-2,-5.1517743E-3,-1.3375589E-1,-6.046232E-2,-7.35166E-2,4.072848E-3,-1.0331504E-1,-7.977952E-2,1.805394E-3,2.866294E-2,-1.16633765E-1,6.4510717E-3,-4.7772978E-2,8.501455E-3,-7.809853E-2,8.184657E-3,2.1777945E-2,5.5635924E-4,-8.6333424E-2,-8.023823E-3,-1.08006224E-1,-1.1329151E-2,3.646894E-2,-8.687339E-3,9.704069E-2,-3.7114177E-2,-9.446729E-2,1.1473032E-1,-4.492004E-2],"categories":[],"categories_nodes":[],"categories_segments":[],"categories_sizes":[],"default_left":[0,0,0,0,0,0,0,0,0,0,0,0,0,0,0,0,0,0,0,0,0,0,0,0,0,0,0,0,0,0,0,0,0,0,0,0,0,0,0,0,0,0,0,0,0,0,0,0,0,0,0,0,0,0,0,0,0,0,0,0,0,0,0],"id":4,"left_children":[1,3,5,7,9,-1,11,13,15,17,19,-1,21,23,25,27,29,-1,31,33,35,37,-1,39,41,43,45,47,49,-1,51,53,55,-1,-1,57,59,-1,61,-1,-1,-1,-1,-1,-1,-1,-1,-1,-1,-1,-1,-1,-1,-1,-1,-1,-1,-1,-1,-1,-1,-1,-1],"loss_changes":[9.258313E0,3.6550498E0,3.476408E0,4.6428857E0,4.0026655E0,0E0,5.0005913E-3,1.5490079E0,4.541124E-1,1.8405081E0,1.2398539E0,0E0,4.0775895E-2,1.9334903E0,3.1116476E0,9.758043E-2,8.876782E-1,0E0,8.6601317E-1,1.727724E-2,8.111305E-1,5.7088524E-2,0E0,2.490389E-1,2.750939E0,4.6332893E0,2.1205206E0,2.3492476E-1,9.1644526E-2,0E0,6.9747835E-1,1.7102604E0,1.0882223E0,0E0,0E0,4.6310973E-1,6.0677195E-1,0E0,4.7427702E-1,0E0,0E0,0E0,0E0,0E0,0E0,0E0,0E0,0E0,0E0,0E0,0E0,0E0,0E0,0E0,0E0,0E0,0E0,0E0,0E0,0E0,0E0,0E0,0E0],"parents":[2147483647,0,0,1,1,2,2,3,3,4,4,6,6,7,7,8,8,9,9,10,10,12,12,13,13,14,14,15,15,16,16,18,18,19,19,20,20,21,21,23,23,24,24,25,25,26,26,27,27,28,28,30,30,31,31,32,32,35,35,36,36,38,38],"right_children":[2,4,6,8,10,-1,12,14,16,18,20,-1,22,24,26,28,30,-1,32,34,36,38,-1,40,42,44,46,48,50,-1,52,54,56,-1,-1,58,60,-1,62,-1,-1,-1,-1,-1,-1,-1,-1,-1,-1,-1,-1,-1,-1,-1,-1,-1,-1,-1,-1,-1,-1,-1,-1],"split_conditions":[1E1,5.9E1,1.1E1,4.1E1,8E0,9.431585E-3,4.2E1,6E0,5.6E1,6.1E1,6.4E1,-6.840181E-2,5.7E1,3E0,4.1E1,2E0,2E1,-6.344524E-2,9.6E1,4.7E1,7.5E1,1.7E1,-6.653028E-2,1.76E2,3.6E1,8E0,3.9E1,4.3E1,5E1,-1.4987187E-1,1.68E2,9.3E1,2E0,-6.362969E-2,-8.331716E-2,1.74E2,1.68E2,-6.046232E-2,2.3E1,4.072848E-3,-1.0331504E-1,-7.977952E-2,1.805394E-3,2.866294E-2,-1.16633765E-1,6.4510717E-3,-4.7772978E-2,8.501455E-3,-7.809853E-2,8.184657E-3,2.1777945E-2,5.5635924E-4,-8.6333424E-2,-8.023823E-3,-1.08006224E-1,-1.1329151E-2,3.646894E-2,-8.687339E-3,9.704069E-2,-3.7114177E-2,-9.446729E-2,1.1473032E-1,-4.492004E-2],"split_indices":[2,0,2,0,2,0,0,2,0,0,0,0,0,2,3,3,3,0,0,3,0,3,0,3,0,2,0,0,0,0,3,0,2,0,0,3,3,0,3,0,0,0,0,0,0,0,0,0,0,0,0,0,0,0,0,0,0,0,0,0,0,0,0],"split_type":[0,0,0,0,0,0,0,0,0,0,0,0,0,0,0,0,0,0,0,0,0,0,0,0,0,0,0,0,0,0,0,0,0,0,0,0,0,0,0,0,0,0,0,0,0,0,0,0,0,0,0,0,0,0,0,0,0,0,0,0,0,0,0],"sum_hessian":[7.898E3,3.271E3,4.627E3,2.046E3,1.225E3,4.565E3,6.2E1,7.82E2,1.264E3,6.54E2,5.71E2,3.2E1,3E1,2.56E2,5.26E2,1.144E3,1.2E2,5.1E1,6.03E2,1.6E2,4.11E2,1.7E1,1.3E1,6.9E1,1.87E2,8.5E1,4.41E2,1.2E1,1.132E3,3E0,1.17E2,4.33E2,1.7E2,1.44E2,1.6E1,5.7E1,3.54E2,6E0,1.1E1,6.8E1,1E0,1.36E2,5.1E1,3E1,5.5E1,3.63E2,7.8E1,9E0,3E0,1.086E3,4.6E1,1.09E2,8E0,4.18E2,1.5E1,8.2E1,8.8E1,5.4E1,3E0,3.37E2,1.7E1,1E0,1E1],"tree_param":{"num_deleted":"0","num_feature":"4","num_nodes":"63","size_leaf_vector":"1"}},{"base_weights":[-5.2362913E-4,-2.9174412E-2,1.9732613E-2,-1.1059175E-2,-5.9396856E-2,6.602725E-3,-1.4557041E-1,-5.3525683E-2,1.5235161E-2,-1.30345E-1,-3.6372215E-2,-4.8503105E-2,-1.2372888E-1,-3.383981E-2,-1.0960433E-1,6.982922E-3,-1.7181732E-2,-1.2334367E-1,-1.8528233E-1,-4.3859927E-4,-8.1288174E-2,-8.8652365E-2,-4.7996845E-2,-1.03943095E-1,-1.3602495E-2,-8.349107E-2,-7.1571544E-2,-3.2698225E-2,3.9476216E-2,-1.03041835E-1,-2.8263584E-1,-3.1180425E-2,2.4006944E-2,-1.0264554E-1,8.646957E-4,-4.4914864E-2,-4.564409E-2,-2.0389776E-3,-8.2606524E-2,-3.418461E-2,5.9363595E-3,-4.1620308E-3,-5.5706907E-2,1.44585E-2,-1.5497538E-2,7.0259753E-3,-4.510219E-2,-1.4830278E-1,-6.518427E-2,9.836015E-3,-9.758786E-2,1.3361851E-2,-8.435401E-3,-2.371269E-2,-1.0273906E-1,1.7047958E-2,-4.9354915E-2,9.7520776E-2,-3.2669116E-2],"categories":[],"categories_nodes":[],"categories_segments":[],"categories_sizes":[],"default_left":[0,0,0,0,0,0,0,0,0,0,0,0,0,0,0,0,0,0,0,0,0,0,0,0,0,0,0,0,0,0,0,0,0,0,0,0,0,0,0,0,0,0,0,0,0,0,0,0,0,0,0,0,0,0,0,0,0,0,0],"id":5,"left_children":[1,3,5,7,9,-1,11,13,15,17,19,-1,21,23,25,-1,27,29,-1,31,33,35,-1,37,39,-1,41,43,-1,45,47,49,51,53,55,-1,57,-1,-1,-1,-1,-1,-1,-1,-1,-1,-1,-1,-1,-1,-1,-1,-1,-1,-1,-1,-1,-1,-1],"loss_changes":[4.584817E0,1.7907197E0,1.7447537E0,2.2865543E0,1.9979982E0,0E0,2.1588802E-3,8.606894E-1,3.3015022E-1,9.4726896E-1,1.4961355E0,0E0,2.5245309E-2,8.2285213E-1,1.2825503E0,0E0,5.860132E-1,9.3135166E-1,0E0,3.885229E-1,7.2297144E-1,4.0438846E-2,0E0,2.1628983E0,1.5167241E0,0E0,1.0970187E0,3.5371944E-1,0E0,1.5886152E0,3.4917927E-1,4.3189635E0,3.094867E-1,1.8239076E0,8.052813E-1,0E0,3.167837E-1,0E0,0E0,0E0,0E0,0E0,0E0,0E0,0E0,0E0,0E0,0E0,0E0,0E0,0E0,0E0,0E0,0E0,0E0,0E0,0E0,0E0,0E0],"parents":[2147483647,0,0,1,1,2,2,3,3,4,4,6,6,7,7,8,8,9,9,10,10,12,12,13,13,14,14,16,16,17,17,19,19,20,20,21,21,23,23,24,24,26,26,27,27,29,29,30,30,31,31,32,32,33,33,34,34,36,36],"right_children":[2,4,6,8,10,-1,12,14,16,18,20,-1,22,24,26,-1,28,30,-1,32,34,36,-1,38,40,-1,42,44,-1,46,48,50,52,54,56,-1,58,-1,-1,-1,-1,-1,-1,-1,-1,-1,-1,-1,-1,-1,-1,-1,-1,-1,-1,-1,-1,-1,-1],"split_conditions":[1E1,5.9E1,1.1E1,4.1E1,7.1E1,6.602725E-3,4.2E1,3.5E1,4.5E1,6.4E1,8E0,-4.8503105E-2,5.7E1,4.9E1,3.6E1,6.982922E-3,4E0,1.48E2,-1.8528233E-1,9E1,1.18E2,1.7E1,-4.7996845E-2,8E0,6E0,-8.349107E-2,1.13E2,5E0,3.9476216E-2,2E0,1.54E2,8.6E1,1.09E2,1.09E2,1.71E2,-4.4914864E-2,2.3E1,-2.0389776E-3,-8.2606524E-2,-3.418461E-2,5.9363595E-3,-4.1620308E-3,-5.5706907E-2,1.44585E-2,-1.5497538E-2,7.0259753E-3,-4.510219E-2,-1.4830278E-1,-6.518427E-2,9.836015E-3,-9.758786E-2,1.3361851E-2,-8.435401E-3,-2.371269E-2,-1.0273906E-1,1.7047958E-2,-4.9354915E-2,9.7520776E-2,-3.2669116E-2],"split_indices":[2,0,2,0,0,0,0,0,0,0,2,0,0,3,0,0,1,3,0,0,3,3,0,2,2,0,3,2,0,2,3,0,0,3,3,0,3,0,0,0,0,0,0,0,0,0,0,0,0,0,0,0,0,0,0,0,0,0,0],"split_type":[0,0,0,0,0,0,0,0,0,0,0,0,0,0,0,0,0,0,0,0,0,0,0,0,0,0,0,0,0,0,0,0,0,0,0,0,0,0,0,0,0,0,0,0,0,0,0,0,0,0,0,0,0,0,0,0,0,0,0],"sum_hessian":[7.898E3,3.271E3,4.627E3,2.046E3,1.225E3,4.565E3,6.2E1,7.82E2,1.264E3,2.99E2,9.26E2,3.2E1,3E1,5.8E2,2.02E2,1.013E3,2.51E2,2.96E2,3E0,5.15E2,4.11E2,1.7E1,1.3E1,1.29E2,4.51E2,3.6E1,1.66E2,2.28E2,2.3E1,2.64E2,3.2E1,2.28E2,2.87E2,3.26E2,8.5E1,6E0,1.1E1,8.3E1,4.6E1,1.12E2,3.39E2,1.11E2,5.5E1,4.3E1,1.85E2,7.2E1,1.92E2,6E0,2.6E1,1.88E2,4E1,2.06E2,8.1E1,2.98E2,2.8E1,6.4E1,2.1E1,1E0,1E1],"tree_param":{"num_deleted":"0","num_feature":"4","num_nodes":"59","size_leaf_vector":"1"}},{"base_weights":[-4.8796512E-4,-2.0693868E-2,1.3797731E-2,-7.844421E-3,-4.2131167E-2,4.622347E-3,-1.03114575E-1,-3.779526E-2,1.0700521E-2,-7.954767E-3,-6.737648E-2,-3.2404266E-2,-7.013318E-2,-1.9413799E-1,-3.3442713E-2,4.890111E-3,-1.1874662E-2,-8.395113E-2,1.444999E-2,-7.190784E-2,1.7936239E-1,-1.0328922E-2,-3.182741E-2,-2.4017864E-1,4.8649635E-2,1.2101583E-1,-4.28354E-2,-9.6542425E-2,4.081138E-3,-6.3999064E-2,-1.9247197E-1,1.0639422E-1,-2.2060478E-2,-6.497354E-2,-3.283343E-1,9.393877E-2,1.0442426E-1,-9.986252E-2,-4.27505E-2,7.560286E-2,-2.8632116E-3,-6.861152E-2,-1.0411144E-2,-1.8870587E-2,-1.471423E-1,1.1239385E-2,-1.7353198E-2,-8.986973E-3,-9.296495E-2,4.7727108E-2,2.251435E-2,-6.902556E-2,3.6431449E-3,-2.3090484E-2,1.9990621E-2,1.4484108E-2,-1.05998434E-1,-6.3732885E-2,4.547579E-2],"categories":[],"categories_nodes":[],"categories_segments":[],"categories_sizes":[],"default_left":[0,0,0,0,0,0,0,0,0,0,0,0,0,0,0,0,0,0,0,0,0,0,0,0,0,0,0,0,0,0,0,0,0,0,0,0,0,0,0,0,0,0,0,0,0,0,0,0,0,0,0,0,0,0,0,0,0,0,0],"id":6,"left_children":[1,3,5,7,9,-1,11,13,15,17,19,-1,21,23,25,-1,27,29,31,33,35,-1,-1,37,-1,39,41,43,45,47,-1,49,51,53,55,57,-1,-1,-1,-1,-1,-1,-1,-1,-1,-1,-1,-1,-1,-1,-1,-1,-1,-1,-1,-1,-1,-1,-1],"loss_changes":[2.2803745E0,9.0096617E-1,8.7276125E-1,1.1373831E0,1.0572495E0,0E0,2.6051998E-3,5.2633023E-1,1.6011178E-1,8.900121E-1,8.011308E-1,0E0,1.046944E-2,3.8344198E-1,1.1121292E0,0E0,3.4083134E-1,1.2828997E0,1.3585454E0,1.210916E0,1.5466478E-1,0E0,0E0,1.24596596E-1,0E0,7.5491595E-1,1.0802817E0,4.9923044E-1,4.424969E-1,9.616957E-1,0E0,1.7802143E-1,2.0662422E0,1.0722721E0,1.8649375E-1,2.0882377E-1,0E0,0E0,0E0,0E0,0E0,0E0,0E0,0E0,0E0,0E0,0E0,0E0,0E0,0E0,0E0,0E0,0E0,0E0,0E0,0E0,0E0,0E0,0E0],"parents":[2147483647,0,0,1,1,2,2,3,3,4,4,6,6,7,7,8,8,9,9,10,10,12,12,13,13,14,14,16,16,17,17,18,18,19,19,20,20,23,23,25,25,26,26,27,27,28,28,29,29,31,31,32,32,33,33,34,34,35,35],"right_children":[2,4,6,8,10,-1,12,14,16,18,20,-1,22,24,26,-1,28,30,32,34,36,-1,-1,38,-1,40,42,44,46,48,-1,50,52,54,56,58,-1,-1,-1,-1,-1,-1,-1,-1,-1,-1,-1,-1,-1,-1,-1,-1,-1,-1,-1,-1,-1,-1,-1],"split_conditions":[1E1,5.9E1,1.1E1,4.1E1,6E0,4.622347E-3,1.5E2,2E0,4.5E1,7.9E1,1.77E2,-3.2404266E-2,5.7E1,1.1E2,1.2E1,4.890111E-3,3.5E1,7.8E1,8.6E1,1.71E2,1.02E2,-1.0328922E-2,-3.182741E-2,6.6E1,4.8649635E-2,9.7E1,1.3E1,3.2E1,1.24E2,1.48E2,-1.9247197E-1,4E0,9E1,1.44E2,7.2E1,1.79E2,1.0442426E-1,-9.986252E-2,-4.27505E-2,7.560286E-2,-2.8632116E-3,-6.861152E-2,-1.0411144E-2,-1.8870587E-2,-1.471423E-1,1.1239385E-2,-1.7353198E-2,-8.986973E-3,-9.296495E-2,4.7727108E-2,2.251435E-2,-6.902556E-2,3.6431449E-3,-2.3090484E-2,1.9990621E-2,1.4484108E-2,-1.05998434E-1,-6.3732885E-2,4.547579E-2],"split_indices":[2,0,2,0,2,0,3,0,0,0,3,0,0,3,0,0,3,0,0,3,0,0,0,3,0,3,0,3,3,3,0,2,0,3,0,3,0,0,0,0,0,0,0,0,0,0,0,0,0,0,0,0,0,0,0,0,0,0,0],"split_type":[0,0,0,0,0,0,0,0,0,0,0,0,0,0,0,0,0,0,0,0,0,0,0,0,0,0,0,0,0,0,0,0,0,0,0,0,0,0,0,0,0,0,0,0,0,0,0,0,0,0,0,0,0,0,0,0,0,0,0],"sum_hessian":[7.898E3,3.271E3,4.627E3,2.046E3,1.225E3,4.565E3,6.2E1,7.82E2,1.264E3,5.21E2,7.04E2,5.2E1,1E1,2E1,7.62E2,1.013E3,2.51E2,1.18E2,4.03E2,6.92E2,1.2E1,6E0,4E0,1.8E1,2E0,4.3E1,7.19E2,3.9E1,2.12E2,1.15E2,3E0,1.14E2,2.89E2,6.75E2,1.7E1,9E0,3E0,8E0,1E1,2.1E1,2.2E1,2.9E1,6.9E2,3.7E1,2E0,1.38E2,7.4E1,1.02E2,1.3E1,4.1E1,7.3E1,4E1,2.49E2,6.19E2,5.6E1,1E0,1.6E1,1E0,8E0],"tree_param":{"num_deleted":"0","num_feature":"4","num_nodes":"59","size_leaf_vector":"1"}},{"base_weights":[-4.2201416E-4,-1.4658531E-2,9.643307E-3,-3.8901392E-2,-6.5748976E-3,3.2359487E-3,-7.336371E-2,-2.7455154E-1,-3.564514E-2,4.908405E-2,-1.2907696E-2,-2.5746489E-2,-6.2289987E-2,7.4699E-2,-3.5180604E-1,8.180464E-2,-4.6722054E-2,-1.8231797E-1,5.3569578E-2,-3.9428726E-2,-1.9169952E-3,8.7753296E-2,-8.027087E-2,-1.2550168E-1,-2.0160536E-1,4.6490345E-2,4.504302E-2,-1.1185032E-1,-3.3915523E-2,9.37742E-3,-9.397221E-2,2.4107537E-1,4.2968962E-2,1.5919176E-1,-4.570142E-2,5.00165E-3,-5.1532842E-2,-2.6625805E-2,-5.2925624E-2,-4.013419E-4,-1.0040135E-1,3.70406E-2,-7.819778E-3,-1.3792456E-2,-5.6247585E-2,6.753236E-3,-2.1207081E-2,-7.530101E-2,7.952085E-2,-3.1377867E-2,9.402978E-2,3.0746773E-2,8.142888E-3,-1.0838525E-2,8.0142975E-2,-2.620572E-2,-1.1714709E-3,7.358873E-4,1.9768192E-2,-2.4786858E-2,2.2745892E-2,-7.672916E-3,-2.418883E-2],"categories":[],"categories_nodes":[],"categories_segments":[],"categories_sizes":[],"default_left":[0,0,0,0,0,0,0,0,0,0,0,0,0,0,0,0,0,0,0,0,0,0,0,0,0,0,0,0,0,0,0,0,0,0,0,0,0,0,0,0,0,0,0,0,0,0,0,0,0,0,0,0,0,0,0,0,0,0,0,0,0,0,0],"id":7,"left_children":[1,3,5,7,9,-1,11,13,15,17,19,-1,21,-1,23,25,27,29,31,33,35,-1,37,-1,39,-1,41,43,45,47,-1,49,51,53,55,57,59,-1,61,-1,-1,-1,-1,-1,-1,-1,-1,-1,-1,-1,-1,-1,-1,-1,-1,-1,-1,-1,-1,-1,-1,-1,-1],"loss_changes":[1.1320294E0,6.409594E-1,4.3995455E-1,6.17895E-1,8.659643E-1,0E0,3.3453703E-3,5.325095E-1,1.0550148E0,2.702949E-1,6.4264816E-1,0E0,2.5952664E-1,0E0,1.559329E-2,1.8129155E-1,6.125821E-1,1.2842382E-1,4.8059744E-1,8.121177E-1,5.357659E-1,0E0,3.6524683E-3,0E0,1.3279605E-1,0E0,2.7090305E-1,5.9431446E-1,1.2860553E0,2.662652E-1,0E0,3.5793358E-1,2.185806E-1,4.3135363E-1,1.0911819E0,2.1245663E-1,7.62508E-1,0E0,6.272247E-3,0E0,0E0,0E0,0E0,0E0,0E0,0E0,0E0,0E0,0E0,0E0,0E0,0E0,0E0,0E0,0E0,0E0,0E0,0E0,0E0,0E0,0E0,0E0,0E0],"parents":[2147483647,0,0,1,1,2,2,3,3,4,4,6,6,7,7,8,8,9,9,10,10,12,12,14,14,15,15,16,16,17,17,18,18,19,19,20,20,22,22,24,24,26,26,27,27,28,28,29,29,31,31,32,32,33,33,34,34,35,35,36,36,38,38],"right_children":[2,4,6,8,10,-1,12,14,16,18,20,-1,22,-1,24,26,28,30,32,34,36,-1,38,-1,40,-1,42,44,46,48,-1,50,52,54,56,58,60,-1,62,-1,-1,-1,-1,-1,-1,-1,-1,-1,-1,-1,-1,-1,-1,-1,-1,-1,-1,-1,-1,-1,-1,-1,-1],"split_conditions":[1E1,4.7E1,1.1E1,1E0,6.3E1,3.2359487E-3,2.1E1,3E0,3E0,1E0,7E0,-2.5746489E-2,2.3E1,7.4699E-2,3E1,3.4E1,3.9E1,5E1,1.8E1,1E0,8.1E1,8.7753296E-2,1.5E2,-1.2550168E-1,3.2E1,4.6490345E-2,2.1E1,8E0,4.3E1,4.9E1,-9.397221E-2,1E0,5.5E1,1.11E2,7.9E1,1.74E2,1.44E2,-2.6625805E-2,5.7E1,-4.013419E-4,-1.0040135E-1,3.70406E-2,-7.819778E-3,-1.3792456E-2,-5.6247585E-2,6.753236E-3,-2.1207081E-2,-7.530101E-2,7.952085E-2,-3.1377867E-2,9.402978E-2,3.0746773E-2,8.142888E-3,-1.0838525E-2,8.0142975E-2,-2.620572E-2,-1.1714709E-3,7.358873E-4,1.9768192E-2,-2.4786858E-2,2.2745892E-2,-7.672916E-3,-2.418883E-2],"split_indices":[2,3,2,2,3,0,3,3,2,2,2,0,3,0,3,0,0,3,0,2,0,0,3,0,3,0,3,2,0,3,0,0,3,3,0,3,3,0,0,0,0,0,0,0,0,0,0,0,0,0,0,0,0,0,0,0,0,0,0,0,0,0,0],"split_type":[0,0,0,0,0,0,0,0,0,0,0,0,0,0,0,0,0,0,0,0,0,0,0,0,0,0,0,0,0,0,0,0,0,0,0,0,0,0,0,0,0,0,0,0,0,0,0,0,0,0,0,0,0,0,0,0,0,0,0,0,0,0,0],"sum_hessian":[7.898E3,3.271E3,4.627E3,8.17E2,2.454E3,4.565E3,6.2E1,1E1,8.07E2,2.5E2,2.204E3,2.6E1,3.6E1,1E0,9E0,6.9E1,7.38E2,4E0,2.46E2,6.45E2,1.559E3,1E0,3.5E1,5E0,4E0,2.2E1,4.7E1,1.2E2,6.18E2,2E0,2E0,1.2E1,2.34E2,1.9E1,6.26E2,1.369E3,1.9E2,2.5E1,1E1,2E0,2E0,2.2E1,2.5E1,6.5E1,5.5E1,2.44E2,3.74E2,1E0,1E0,2E0,1E1,4.8E1,1.86E2,7E0,1.2E1,3.13E2,3.13E2,1.315E3,5.4E1,1.53E2,3.7E1,6E0,4E0],"tree_param":{"num_deleted":"0","num_feature":"4","num_nodes":"63","size_leaf_vector":"1"}},{"base_weights":[-3.0571275E-4,-1.0287926E-2,6.7517865E-3,-3.1349823E-2,-5.508039E-3,2.2653805E-3,-5.1298734E-2,-1.1669975E-4,-5.0105914E-2,1.2021466E-1,-7.662008E-3,-1.8308615E-2,-4.2812023E-2,1.2388622E-2,-2.4793883E-1,-1.3884783E-1,-3.9193124E-2,6.2104795E-2,2.9418108E-1,4.6264054E-3,-1.931526E-2,7.45903E-2,-5.7814267E-2,-1.804543E-1,1.7762654E-2,-3.2767847E-2,-3.2453197E-1,-2.001589E-1,-6.3079675E-3,1.387639E-3,-7.334984E-2,2.0171563E-1,6.019671E-3,3.3584797E-1,2.133601E-2,-5.1711616E-4,2.0491843E-1,-1.08297534E-1,-8.656818E-3,-1.8945284E-2,-3.994446E-2,6.3494146E-2,-9.036121E-2,1.9908836E-2,7.3425187E-4,-5.6475755E-2,2.4543365E-2,-4.1647784E-2,-1.089889E-1,-4.134262E-2,-6.9719024E-2,5.950978E-2,-5.538274E-2,-1.6196566E-2,-4.5585673E-2,1.7985022E-2,9.9447355E-2,1.1606548E-2,5.0557463E-4,6.012959E-2,1.3650301E-1,-1.5458037E-2,2.3408232E-3,1.1685693E-1,4.939044E-2,-1.6780743E-2,-5.617102E-2,-9.306089E-3,1.278982E-3,-5.6998804E-3,-1.838351E-2],"categories":[],"categories_nodes":[],"categories_segments":[],"categories_sizes":[],"default_left":[0,0,0,0,0,0,0,0,0,0,0,0,0,0,0,0,0,0,0,0,0,0,0,0,0,0,0,0,0,0,0,0,0,0,0,0,0,0,0,0,0,0,0,0,0,0,0,0,0,0,0,0,0,0,0,0,0,0,0,0,0,0,0,0,0,0,0,0,0,0,0],"id":8,"left_children":[1,3,5,7,9,-1,11,13,15,17,19,-1,21,23,25,27,29,31,33,35,37,-1,39,41,43,45,47,49,51,-1,53,55,57,59,-1,61,63,65,67,-1,69,-1,-1,-1,-1,-1,-1,-1,-1,-1,-1,-1,-1,-1,-1,-1,-1,-1,-1,-1,-1,-1,-1,-1,-1,-1,-1,-1,-1,-1,-1],"loss_changes":[5.5654967E-1,3.29231E-1,2.151742E-1,3.5441E-1,7.234228E-1,0E0,2.589509E-3,7.096654E-1,3.606217E-1,4.366424E-1,3.7584603E-1,0E0,1.7615151E-1,2.2912836E-1,1.7065257E-1,3.3191E-1,5.062237E-1,2.7283892E-1,7.835132E-2,1.3167095E0,1.2765739E0,0E0,9.106174E-4,3.4782583E-1,1.5837735E-1,8.6662315E-2,7.155299E-3,2.425468E-2,5.475304E-1,0E0,2.809466E-1,1.6410407E-1,3.6164122E-3,5.4029465E-2,0E0,5.2962047E-1,1.738404E-1,5.8473516E-1,3.4801385E-1,0E0,3.7509296E-3,0E0,0E0,0E0,0E0,0E0,0E0,0E0,0E0,0E0,0E0,0E0,0E0,0E0,0E0,0E0,0E0,0E0,0E0,0E0,0E0,0E0,0E0,0E0,0E0,0E0,0E0,0E0,0E0,0E0,0E0],"parents":[2147483647,0,0,1,1,2,2,3,3,4,4,6,6,7,7,8,8,9,9,10,10,12,12,13,13,14,14,15,15,16,16,17,17,18,18,19,19,20,20,22,22,23,23,24,24,25,25,26,26,27,27,28,28,30,30,31,31,32,32,33,33,35,35,36,36,37,37,38,38,40,40],"right_children":[2,4,6,8,10,-1,12,14,16,18,20,-1,22,24,26,28,30,32,34,36,38,-1,40,42,44,46,48,50,52,-1,54,56,58,60,-1,62,64,66,68,-1,70,-1,-1,-1,-1,-1,-1,-1,-1,-1,-1,-1,-1,-1,-1,-1,-1,-1,-1,-1,-1,-1,-1,-1,-1,-1,-1,-1,-1,-1,-1],"split_conditions":[1E1,3E1,1.1E1,8E0,3.1E1,2.2653805E-3,2.1E1,2.9E1,3.9E1,6.4E1,9.9E1,-1.8308615E-2,2.3E1,1E0,2.4E1,2.7E1,4.3E1,3.9E1,1.02E2,9.8E1,1.04E2,7.45903E-2,1.5E2,3E0,3E0,1E0,3.2E1,2.2E1,2.8E1,1.387639E-3,2.3E1,1.3E1,7E0,8.2E1,2.133601E-2,4.9E1,1.8E1,1.02E2,7E0,-1.8945284E-2,5.7E1,6.3494146E-2,-9.036121E-2,1.9908836E-2,7.3425187E-4,-5.6475755E-2,2.4543365E-2,-4.1647784E-2,-1.089889E-1,-4.134262E-2,-6.9719024E-2,5.950978E-2,-5.538274E-2,-1.6196566E-2,-4.5585673E-2,1.7985022E-2,9.9447355E-2,1.1606548E-2,5.0557463E-4,6.012959E-2,1.3650301E-1,-1.5458037E-2,2.3408232E-3,1.1685693E-1,4.939044E-2,-1.6780743E-2,-5.617102E-2,-9.306089E-3,1.278982E-3,-5.6998804E-3,-1.838351E-2],"split_indices":[2,3,2,2,3,0,3,3,0,0,3,0,3,2,0,3,0,0,0,3,3,0,3,3,2,2,0,3,3,0,3,0,2,0,0,3,0,3,2,0,0,0,0,0,0,0,0,0,0,0,0,0,0,0,0,0,0,0,0,0,0,0,0,0,0,0,0,0,0,0,0],"split_type":[0,0,0,0,0,0,0,0,0,0,0,0,0,0,0,0,0,0,0,0,0,0,0,0,0,0,0,0,0,0,0,0,0,0,0,0,0,0,0,0,0,0,0,0,0,0,0,0,0,0,0,0,0,0,0,0,0,0,0,0,0,0,0,0,0,0,0,0,0,0,0],"sum_hessian":[7.898E3,3.271E3,4.627E3,6.04E2,2.667E3,4.565E3,6.2E1,2.27E2,3.77E2,4.4E1,2.623E3,2.6E1,3.6E1,2.17E2,1E1,4E1,3.37E2,3.4E1,1E1,1.277E3,1.346E3,1E0,3.5E1,5E0,2.12E2,3E0,7E0,2.7E1,1.3E1,1.48E2,1.89E2,9E0,2.5E1,8E0,2E0,1.246E3,3.1E1,1.43E2,1.203E3,2.5E1,1E1,1E0,4E0,5E1,1.62E2,1E0,2E0,2E0,5E0,1.1E1,1.6E1,6E0,7E0,1.53E2,3.6E1,5E0,4E0,2E0,2.3E1,5E0,3E0,1.74E2,1.072E3,4E0,2.7E1,8.7E1,5.6E1,4.4E2,7.63E2,6E0,4E0],"tree_param":{"num_deleted":"0","num_feature":"4","num_nodes":"71","size_leaf_vector":"1"}},{"base_weights":[-2.0399675E-4,1.5648758E-3,-2.0167457E-2,5.462016E-4,7.6752104E-2,-1.6983934E-1,-1.4136196E-2,8.158266E-4,-1.4462529E-1,3.750687E-2,6.0059525E-2,8.750063E-3,-4.4294655E-2,-2.9041747E-2,3.1058772E-3,4.461452E-2,3.6919698E-2,-1.5536982E-1,1.3102414E-2,-5.97295E-2,5.3541873E-2,-1.3154246E-2,-1.4155854E-1,-1.1248505E-1,3.471589E-3,5.730843E-2,-4.5180246E-2,3.5850503E-2,2.0332763E-3,-4.951814E-2,-2.3265553E-1,2.3579693E-1,-1.2227752E-1,6.265393E-3,-2.1668095E-2,3.6682583E-2,-4.703645E-2,-4.3379266E-2,3.8516738E-2,-1.6879811E-3,1.7236449E-3,1.0673133E-2,3.6919698E-2,-4.5694076E-2,7.199762E-3,-1.6321892E-2,9.959131E-2,-9.428642E-2,-2.5510874E-2,7.972029E-2,-3.7341216E-3,-6.868053E-2,1.9897722E-2],"categories":[],"categories_nodes":[],"categories_segments":[],"categories_sizes":[],"default_left":[0,0,0,0,0,0,0,0,0,0,0,0,0,0,0,0,0,0,0,0,0,0,0,0,0,0,0,0,0,0,0,0,0,0,0,0,0,0,0,0,0,0,0,0,0,0,0,0,0,0,0,0,0],"id":9,"left_children":[1,3,5,7,9,-1,11,13,-1,-1,15,17,19,21,23,25,-1,-1,27,29,31,33,35,37,39,41,-1,-1,43,45,47,49,51,-1,-1,-1,-1,-1,-1,-1,-1,-1,-1,-1,-1,-1,-1,-1,-1,-1,-1,-1,-1],"loss_changes":[2.789675E-1,5.557811E-1,2.109299E0,9.322487E-1,7.065034E-2,0E0,4.4005406E-1,4.8952097E-1,0E0,0E0,6.652114E-2,8.3884084E-1,4.184733E-1,9.0981936E-1,2.8146347E-1,1.5979151E-1,0E0,0E0,4.2492405E-1,4.0874225E-1,1.2465036E0,9.023335E-1,2.7231073E-1,1.8100125E-1,1.371752E-1,7.850318E-2,0E0,0E0,1.1156974E0,4.3950206E-1,1.2993109E-1,1.445111E-1,4.1750365E-1,0E0,0E0,0E0,0E0,0E0,0E0,0E0,0E0,0E0,0E0,0E0,0E0,0E0,0E0,0E0,0E0,0E0,0E0,0E0,0E0],"parents":[2147483647,0,0,1,1,2,2,3,3,4,4,6,6,7,7,10,10,11,11,12,12,13,13,14,14,15,15,18,18,19,19,20,20,21,21,22,22,23,23,24,24,25,25,28,28,29,29,30,30,31,31,32,32],"right_children":[2,4,6,8,10,-1,12,14,-1,-1,16,18,20,22,24,26,-1,-1,28,30,32,34,36,38,40,42,-1,-1,44,46,48,50,52,-1,-1,-1,-1,-1,-1,-1,-1,-1,-1,-1,-1,-1,-1,-1,-1,-1,-1,-1,-1],"split_conditions":[8.2E1,7.9E1,8.3E1,7.8E1,8.1E1,-1.6983934E-1,8E0,7E0,-1.4462529E-1,3.750687E-2,1.24E2,8.5E1,1.44E2,1.48E2,2E0,1.2E2,3.6919698E-2,-1.5536982E-1,8.6E1,1.22E2,1.68E2,4E0,1E0,1.1E2,4.7E1,1.08E2,-4.5180246E-2,3.5850503E-2,9E1,1.21E2,1.02E2,1E1,1.77E2,6.265393E-3,-2.1668095E-2,3.6682583E-2,-4.703645E-2,-4.3379266E-2,3.8516738E-2,-1.6879811E-3,1.7236449E-3,1.0673133E-2,3.6919698E-2,-4.5694076E-2,7.199762E-3,-1.6321892E-2,9.959131E-2,-9.428642E-2,-2.5510874E-2,7.972029E-2,-3.7341216E-3,-6.868053E-2,1.9897722E-2],"split_indices":[0,0,0,0,0,0,2,2,0,0,3,0,3,3,0,3,0,0,0,3,3,2,2,3,3,3,0,0,0,3,0,2,3,0,0,0,0,0,0,0,0,0,0,0,0,0,0,0,0,0,0,0,0],"split_type":[0,0,0,0,0,0,0,0,0,0,0,0,0,0,0,0,0,0,0,0,0,0,0,0,0,0,0,0,0,0,0,0,0,0,0,0,0,0,0,0,0,0,0,0,0,0,0,0,0,0,0,0,0],"sum_hessian":[7.898E3,7.256E3,6.42E2,7.16E3,9.6E1,6E0,6.36E2,7.157E3,3E0,2.3E1,7.3E1,3.62E2,2.74E2,5.09E2,6.648E3,6E1,1.3E1,2E0,3.6E2,2.37E2,3.7E1,4.47E2,6.2E1,2E1,6.628E3,5.7E1,3E0,3.3E1,3.27E2,2.25E2,1.2E1,1.8E1,1.9E1,2.84E2,1.63E2,3E0,5.9E1,1.8E1,2E0,1.325E3,5.303E3,4.4E1,1.3E1,4E1,2.87E2,2.23E2,2E0,7E0,5E0,1.6E1,2E0,1.2E1,7E0],"tree_param":{"num_deleted":"0","num_feature":"4","num_nodes":"53","size_leaf_vector":"1"}},{"base_weights":[-1.9793547E-4,-5.733033E-3,3.7154262E-3,-6.418718E-3,7.393769E-2,4.1686706E-3,-2.9192977E-2,-4.05617E-3,-4.275522E-2,1.4955407E-1,-1.5667799E-3,2.0955496E-3,3.573951E-3,-1.1955746E-2,-1.6904047E-2,-6.7702876E-3,3.8472336E-2,-1.17220074E-1,-2.0164999E-3,6.1879784E-2,8.123693E-2,-5.3400468E-2,2.37501E-2,1.0688807E-3,3.918037E-3,-3.6028568E-2,-1.0903053E-3,-4.8622475E-3,-3.9511794E-1,-1.3934113E-2,8.210903E-2,-9.4105855E-2,-2.634269E-1,1.4568281E-1,-3.0453831E-2,6.199082E-3,6.1270095E-2,2.5601482E-3,3.0177964E-2,-1.32702915E-2,-7.3034945E-3,6.365496E-2,-2.6117168E-2,-1.662712E-3,8.1734665E-2,1.9226671E-3,-1.8567017E-1,-7.3493354E-2,-7.05756E-4,5.101469E-3,4.654876E-2,-3.691959E-2,1.10441875E-2,2.7890049E-2,-9.5879085E-2,-2.8449388E-2,4.873503E-2,-2.5792522E-2,2.5357422E-3,1.4149726E-2,-3.428221E-3,6.6068177E-3,-2.977194E-3,-1.614499E-2,-1.8347848E-3],"categories":[],"categories_nodes":[],"categories_segments":[],"categories_sizes":[],"default_left":[0,0,0,0,0,0,0,0,0,0,0,0,0,0,0,0,0,0,0,0,0,0,0,0,0,0,0,0,0,0,0,0,0,0,0,0,0,0,0,0,0,0,0,0,0,0,0,0,0,0,0,0,0,0,0,0,0,0,0,0,0,0,0,0,0],"id":10,"left_children":[1,3,5,7,9,11,13,15,17,19,21,-1,23,-1,25,27,29,31,33,-1,35,-1,37,-1,-1,39,41,43,45,47,49,51,53,55,57,59,-1,61,-1,-1,-1,-1,63,-1,-1,-1,-1,-1,-1,-1,-1,-1,-1,-1,-1,-1,-1,-1,-1,-1,-1,-1,-1,-1,-1],"loss_changes":[1.7112027E-1,1.7922068E-1,6.915084E-2,2.7839923E-1,1.6009684E-1,7.6231956E-3,7.578954E-3,3.5208306E-1,6.0041696E-1,3.7485063E-2,7.122923E-2,0E0,3.4763664E-4,0E0,9.336057E-3,2.1217358E0,4.1963664E-1,2.117719E-1,5.4625916E-1,0E0,7.2569214E-2,0E0,2.2538692E-2,0E0,0E0,2.653282E-4,1.0161781E-1,5.396036E-1,1.2619324E0,2.2419547E-1,4.729699E-1,2.3959512E-1,2.0987982E-1,1.00093395E-1,2.3618051E-1,4.871572E-3,0E0,3.1342322E-3,0E0,0E0,0E0,0E0,9.089253E-3,0E0,0E0,0E0,0E0,0E0,0E0,0E0,0E0,0E0,0E0,0E0,0E0,0E0,0E0,0E0,0E0,0E0,0E0,0E0,0E0,0E0,0E0],"parents":[2147483647,0,0,1,1,2,2,3,3,4,4,5,5,6,6,7,7,8,8,9,9,10,10,12,12,14,14,15,15,16,16,17,17,18,18,20,20,22,22,25,25,26,26,27,27,28,28,29,29,30,30,31,31,32,32,33,33,34,34,35,35,37,37,42,42],"right_children":[2,4,6,8,10,12,14,16,18,20,22,-1,24,-1,26,28,30,32,34,-1,36,-1,38,-1,-1,40,42,44,46,48,50,52,54,56,58,60,-1,62,-1,-1,-1,-1,64,-1,-1,-1,-1,-1,-1,-1,-1,-1,-1,-1,-1,-1,-1,-1,-1,-1,-1,-1,-1,-1,-1],"split_conditions":[1E1,1.79E2,1.1E1,1.58E2,1.8E2,4.7E1,4.2E1,1.44E2,1.66E2,7.5E1,4E0,2.0955496E-3,7.7E1,-1.1955746E-2,2.1E1,1.43E2,4.3E1,9.3E1,1.68E2,6.1879784E-2,1.02E2,-5.3400468E-2,6.1E1,1.0688807E-3,3.918037E-3,5.7E1,2.3E1,1.42E2,4.3E1,1.3E1,7E0,7.9E1,1.59E2,1.3E1,1.74E2,8.6E1,6.1270095E-2,8E0,3.0177964E-2,-1.32702915E-2,-7.3034945E-3,6.365496E-2,1.48E2,-1.662712E-3,8.1734665E-2,1.9226671E-3,-1.8567017E-1,-7.3493354E-2,-7.05756E-4,5.101469E-3,4.654876E-2,-3.691959E-2,1.10441875E-2,2.7890049E-2,-9.5879085E-2,-2.8449388E-2,4.873503E-2,-2.5792522E-2,2.5357422E-3,1.4149726E-2,-3.428221E-3,6.6068177E-3,-2.977194E-3,-1.614499E-2,-1.8347848E-3],"split_indices":[2,3,2,3,3,3,0,3,3,0,2,0,0,0,3,3,0,0,3,0,0,0,0,0,0,0,3,3,0,0,2,0,3,0,3,0,0,2,0,0,0,0,3,0,0,0,0,0,0,0,0,0,0,0,0,0,0,0,0,0,0,0,0,0,0],"split_type":[0,0,0,0,0,0,0,0,0,0,0,0,0,0,0,0,0,0,0,0,0,0,0,0,0,0,0,0,0,0,0,0,0,0,0,0,0,0,0,0,0,0,0,0,0,0,0,0,0,0,0,0,0,0,0,0,0,0,0,0,0,0,0,0,0],"sum_hessian":[7.898E3,3.271E3,4.627E3,3.244E3,2.7E1,4.565E3,6.2E1,3.047E3,1.97E2,1.3E1,1.4E1,7.94E2,3.771E3,3.2E1,3E1,2.865E3,1.82E2,6.9E1,1.28E2,6E0,7E0,1E0,1.3E1,3.768E3,3E0,1.3E1,1.7E1,2.852E3,1.3E1,8.3E1,9.9E1,6.1E1,8E0,2E1,1.08E2,5E0,2E0,1.1E1,2E0,6E0,7E0,1E0,1.6E1,2.846E3,6E0,5E0,8E0,3E0,8E1,5.3E1,4.6E1,5E1,1.1E1,1E0,7E0,1E0,1.9E1,4.4E1,6.4E1,1E0,4E0,4E0,7E0,6E0,1E1],"tree_param":{"num_deleted":"0","num_feature":"4","num_nodes":"65","size_leaf_vector":"1"}},{"base_weights":[-1.4976239E-4,1.0421618E-3,-1.3601776E-2,3.0331785E-4,5.5576388E-2,-1.2591875E-1,-9.117485E-3,5.066045E-4,-1.0906621E-1,8.839744E-2,3.475745E-2,7.099823E-3,-3.0491177E-2,-1.1506689E-2,2.858212E-3,3.8298856E-2,1.05533995E-1,-3.1364642E-2,7.2861314E-2,-1.2438317E-1,1.0584674E-2,-6.9861904E-2,-1.2510265E-2,2.3560856E-2,-2.5687914E-2,-5.841547E-2,3.0527741E-3,3.2895114E-2,-1.8852198E-1,8.974269E-3,3.218757E-2,3.904076E-2,-2.373534E-1,5.2820906E-2,2.735293E-2,2.4083389E-2,3.3280998E-3,-4.4356752E-2,-3.1299248E-1,1.24859296E-1,-2.6346682E-2,-9.932328E-3,1.4878576E-2,3.1301181E-3,-1.1955884E-2,-3.606891E-2,6.1033588E-2,-6.78654E-4,1.3391895E-3,2.8679065E-2,-1.1351396E-1,-2.5145713E-2,2.7822645E-2,1.2268827E-2,-9.0354756E-2,2.6185224E-2,-3.4640573E-2,-3.2012753E-2,5.6944718E-3,-2.0552928E-2,3.874499E-2,-1.2871617E-1,7.491557E-2,-3.1849165E-2,-3.788135E-3],"categories":[],"categories_nodes":[],"categories_segments":[],"categories_sizes":[],"default_left":[0,0,0,0,0,0,0,0,0,0,0,0,0,0,0,0,0,0,0,0,0,0,0,0,0,0,0,0,0,0,0,0,0,0,0,0,0,0,0,0,0,0,0,0,0,0,0,0,0,0,0,0,0,0,0,0,0,0,0,0,0,0,0,0,0],"id":11,"left_children":[1,3,5,7,9,-1,11,13,-1,15,17,19,21,23,25,27,29,31,33,-1,35,37,39,41,43,45,47,-1,49,-1,-1,51,53,55,-1,-1,57,59,61,-1,63,-1,-1,-1,-1,-1,-1,-1,-1,-1,-1,-1,-1,-1,-1,-1,-1,-1,-1,-1,-1,-1,-1,-1,-1],"loss_changes":[1.2666503E-1,2.9238424E-1,1.1672002E0,5.298644E-1,6.32076E-2,0E0,2.2101581E-1,2.0225033E-1,0E0,2.7723312E-2,1.559752E-1,5.3785247E-1,1.9380438E-1,5.8344173E-1,7.1552604E-2,1.9869563E-1,3.7962198E-4,3.4282902E-1,9.498641E-3,0E0,1.8230298E-1,5.194097E-1,1.1380038E0,5.003045E-1,4.276554E-1,3.320078E-1,4.478006E-2,0E0,1.9799852E-1,0E0,0E0,1.265329E-1,1.18879706E-1,1.3187414E-1,0E0,0E0,5.6699413E-1,3.3991402E-1,6.2961495E-1,0E0,2.0124507E-1,0E0,0E0,0E0,0E0,0E0,0E0,0E0,0E0,0E0,0E0,0E0,0E0,0E0,0E0,0E0,0E0,0E0,0E0,0E0,0E0,0E0,0E0,0E0,0E0],"parents":[2147483647,0,0,1,1,2,2,3,3,4,4,6,6,7,7,9,9,10,10,11,11,12,12,13,13,14,14,15,15,16,16,17,17,18,18,20,20,21,21,22,22,23,23,24,24,25,25,26,26,28,28,31,31,32,32,33,33,36,36,37,37,38,38,40,40],"right_children":[2,4,6,8,10,-1,12,14,-1,16,18,20,22,24,26,28,30,32,34,-1,36,38,40,42,44,46,48,-1,50,-1,-1,52,54,56,-1,-1,58,60,62,-1,64,-1,-1,-1,-1,-1,-1,-1,-1,-1,-1,-1,-1,-1,-1,-1,-1,-1,-1,-1,-1,-1,-1,-1,-1],"split_conditions":[8.2E1,7.9E1,8.3E1,7.8E1,9E1,-1.2591875E-1,8E0,9E0,-1.0906621E-1,3E1,1.08E2,8.5E1,6.1E1,2.8E1,1E0,2.6E1,8E1,1.07E2,1.24E2,-1.2438317E-1,8.6E1,5.2E1,6.2E1,6E0,4E0,1.03E2,4.2E1,3.2895114E-2,8E1,8.974269E-3,3.218757E-2,9.6E1,8.1E1,1.2E2,2.735293E-2,2.4083389E-2,9E1,5.1E1,1.02E2,1.24859296E-1,7.2E1,-9.932328E-3,1.4878576E-2,3.1301181E-3,-1.1955884E-2,-3.606891E-2,6.1033588E-2,-6.78654E-4,1.3391895E-3,2.8679065E-2,-1.1351396E-1,-2.5145713E-2,2.7822645E-2,1.2268827E-2,-9.0354756E-2,2.6185224E-2,-3.4640573E-2,-3.2012753E-2,5.6944718E-3,-2.0552928E-2,3.874499E-2,-1.2871617E-1,7.491557E-2,-3.1849165E-2,-3.788135E-3],"split_indices":[0,0,0,0,3,0,2,2,0,3,3,0,3,0,0,3,0,3,3,0,0,3,3,2,2,3,0,0,0,0,0,3,0,3,0,0,0,3,0,0,3,0,0,0,0,0,0,0,0,0,0,0,0,0,0,0,0,0,0,0,0,0,0,0,0],"split_type":[0,0,0,0,0,0,0,0,0,0,0,0,0,0,0,0,0,0,0,0,0,0,0,0,0,0,0,0,0,0,0,0,0,0,0,0,0,0,0,0,0,0,0,0,0,0,0,0,0,0,0,0,0,0,0,0,0,0,0,0,0,0,0,0,0],"sum_hessian":[7.898E3,7.256E3,6.42E2,7.16E3,9.6E1,6E0,6.36E2,7.157E3,3E0,3.6E1,6E1,3.62E2,2.74E2,1.171E3,5.986E3,1E1,2.6E1,2.2E1,3.8E1,2E0,3.6E2,8.5E1,1.89E2,3.37E2,8.34E2,1.8E1,5.968E3,8E0,2E0,1E0,2.5E1,1.7E1,5E0,2E1,1.8E1,3.3E1,3.27E2,7.8E1,7E0,5E0,1.84E2,1.06E2,2.31E2,2.35E2,5.99E2,1.5E1,3E0,1.252E3,4.716E3,1E0,1E0,5E0,1.2E1,1E0,4E0,1.7E1,3E0,4E1,2.87E2,6.9E1,9E0,6E0,1E0,2.6E1,1.58E2],"tree_param":{"num_deleted":"0","num_feature":"4","num_nodes":"65","size_leaf_vector":"1"}},{"base_weights":[-1.4959436E-4,-6.176013E-2,1.4635977E-5,-3.751107E-2,-8.201121E-2,-1.0140999E-2,8.879962E-4,-5.359141E-2,-2.0981922E-3,-4.5130096E-2,5.631682E-3,3.5634788E-4,3.4491602E-2,9.488808E-2,-4.176603E-2,-2.5855014E-2,-1.2622017E-1,2.3021895E-2,-4.470967E-2,1.2681752E-3,-3.895011E-2,-1.0534153E-2,6.444298E-2,5.167071E-2,-8.893461E-2,-4.5116402E-2,6.9269374E-2,-4.1169673E-2,-2.8296454E-2,9.9496424E-2,2.0047223E-2,-6.2489517E-2,-1.8951522E-2,8.4830244E-4,5.947076E-2,-8.738906E-2,-8.04407E-3,7.177369E-2,-8.254369E-2,1.00516565E-1,4.2294472E-2,-3.1353112E-2,7.2806574E-2,-9.539507E-2,-1.0269407E-2,-4.058787E-3,-3.775584E-2,-6.0071293E-2,2.9651834E-2,-1.2023931E-2,-2.1242963E-3,1.0880036E-2,-7.952402E-3,-2.3802252E-2,5.8832713E-3,4.2710334E-4,-3.8196217E-2,1.3302863E-3,3.3030935E-2,-1.3199769E-2,-8.043878E-2,4.9356055E-2,-1.5165965E-2,6.010026E-3,2.1985061E-2,6.8579987E-3,-3.1112747E-2,-7.030705E-2,1.5121715E-2],"categories":[],"categories_nodes":[],"categories_segments":[],"categories_sizes":[],"default_left":[0,0,0,0,0,0,0,0,0,0,0,0,0,0,0,0,0,0,0,0,0,0,0,0,0,0,0,0,0,0,0,0,0,0,0,0,0,0,0,0,0,0,0,0,0,0,0,0,0,0,0,0,0,0,0,0,0,0,0,0,0,0,0,0,0,0,0,0,0],"id":12,"left_children":[1,3,5,7,-1,9,11,-1,13,15,17,19,21,-1,23,25,27,29,31,33,35,37,39,41,43,45,47,-1,49,-1,51,-1,53,55,57,59,61,63,65,-1,67,-1,-1,-1,-1,-1,-1,-1,-1,-1,-1,-1,-1,-1,-1,-1,-1,-1,-1,-1,-1,-1,-1,-1,-1,-1,-1,-1,-1],"loss_changes":[7.9925515E-2,9.750407E-2,6.989202E-2,9.957941E-2,0E0,3.446222E-1,1.2961833E-1,0E0,2.2791886E-1,2.9996207E-1,3.783469E-1,2.5609535E-1,1.5306875E-1,0E0,7.511177E-2,2.926172E-1,3.601551E-2,2.8805542E-1,4.637779E-1,1.7059787E-1,2.4182013E-1,2.7856416E-1,3.933976E-1,2.0436373E-1,1.2694195E-1,3.3492762E-1,2.3496357E-1,0E0,9.661382E-4,0E0,2.4184002E-1,0E0,2.2744551E-1,5.115312E-1,1.3884307E-1,4.8226666E-1,7.4187285E-1,2.5051832E-4,5.8143735E-2,0E0,1.5542796E-1,0E0,0E0,0E0,0E0,0E0,0E0,0E0,0E0,0E0,0E0,0E0,0E0,0E0,0E0,0E0,0E0,0E0,0E0,0E0,0E0,0E0,0E0,0E0,0E0,0E0,0E0,0E0,0E0],"parents":[2147483647,0,0,1,1,2,2,3,3,5,5,6,6,8,8,9,9,10,10,11,11,12,12,14,14,15,15,16,16,17,17,18,18,19,19,20,20,21,21,22,22,23,23,24,24,25,25,26,26,28,28,30,30,32,32,33,33,34,34,35,35,36,36,37,37,38,38,40,40],"right_children":[2,4,6,8,-1,10,12,-1,14,16,18,20,22,-1,24,26,28,30,32,34,36,38,40,42,44,46,48,-1,50,-1,52,-1,54,56,58,60,62,64,66,-1,68,-1,-1,-1,-1,-1,-1,-1,-1,-1,-1,-1,-1,-1,-1,-1,-1,-1,-1,-1,-1,-1,-1,-1,-1,-1,-1,-1,-1],"split_conditions":[2E0,3E0,5E0,2.7E1,-8.201121E-2,3.6E1,1.02E2,-5.359141E-2,2.8E1,3.4E1,8.6E1,1.01E2,5.1E1,9.488808E-2,7.8E1,3.2E1,1.34E2,2E0,8.9E1,9.9E1,7.2E1,1.07E2,6.2E1,6.6E1,1E0,3.1E1,1E0,-4.1169673E-2,1.38E2,9.9496424E-2,3E0,-6.2489517E-2,1.1E2,9.3E1,7E1,6.2E1,7.9E1,1.05E2,1.7E1,1.00516565E-1,6.3E1,-3.1353112E-2,7.2806574E-2,-9.539507E-2,-1.0269407E-2,-4.058787E-3,-3.775584E-2,-6.0071293E-2,2.9651834E-2,-1.2023931E-2,-2.1242963E-3,1.0880036E-2,-7.952402E-3,-2.3802252E-2,5.8832713E-3,4.2710334E-4,-3.8196217E-2,1.3302863E-3,3.3030935E-2,-1.3199769E-2,-8.043878E-2,4.9356055E-2,-1.5165965E-2,6.010026E-3,2.1985061E-2,6.8579987E-3,-3.1112747E-2,-7.030705E-2,1.5121715E-2],"split_indices":[0,1,2,3,0,0,0,0,3,0,0,0,3,0,3,0,3,3,0,0,3,0,3,3,1,0,1,0,3,0,1,0,3,0,3,3,3,0,3,0,3,0,0,0,0,0,0,0,0,0,0,0,0,0,0,0,0,0,0,0,0,0,0,0,0,0,0,0,0],"split_type":[0,0,0,0,0,0,0,0,0,0,0,0,0,0,0,0,0,0,0,0,0,0,0,0,0,0,0,0,0,0,0,0,0,0,0,0,0,0,0,0,0,0,0,0,0,0,0,0,0,0,0,0,0,0,0,0,0,0,0,0,0,0,0,0,0,0,0,0,0],"sum_hessian":[7.898E3,2E1,7.878E3,1.9E1,1E0,6.23E2,7.255E3,3E0,1.6E1,1.93E2,4.3E2,7.143E3,1.12E2,1E0,1.5E1,1.57E2,3.6E1,3.2E2,1.1E2,6.982E3,1.61E2,4.5E1,6.7E1,5E0,1E1,1.31E2,2.6E1,3.2E1,4E0,2E0,3.18E2,1.4E1,9.6E1,6.933E3,4.9E1,6.2E1,9.9E1,2.1E1,2.4E1,4E0,6.3E1,3E0,2E0,1E0,9E0,9.5E1,3.6E1,2E0,2.4E1,2E0,2E0,2.36E2,8.2E1,3.7E1,5.9E1,6.903E3,3E1,2.4E1,2.5E1,5.1E1,1.1E1,1.9E1,8E1,1E0,2E1,4E0,2E1,1E0,6.2E1],"tree_param":{"num_deleted":"0","num_feature":"4","num_nodes":"69","size_leaf_vector":"1"}},{"base_weights":[-1.3312437E-4,-3.3429379E-4,3.2101862E-2,-8.298258E-4,1.2823689E-2,1.0722365E-3,1.1794757E-1,6.807368E-3,-2.030163E-3,-6.9709525E-2,1.4505217E-2,-4.4667058E-2,9.373697E-3,5.6635518E-2,7.781783E-2,3.7677463E-3,8.1791826E-2,-8.470215E-2,-1.7295504E-3,-1.363752E-1,1.7147705E-2,7.830403E-2,-4.270035E-3,3.886611E-2,4.672494E-2,6.346024E-3,-7.886274E-2,-7.5255565E-2,1.8962574E-1,-4.9845345E-2,-9.815615E-4,1.8602163E-2,-7.376826E-2,3.952196E-2,8.451922E-4,6.591654E-4,6.882572E-2,-1.8737584E-2,4.6239966E-3,2.089026E-2,1.943525E-3,1.2383119E-3,9.232937E-2,-5.55738E-2,-2.256793E-3,-4.4891E-2,9.652052E-2,1.2270155E-1,3.7589878E-2,-4.2272437E-2,6.396963E-3,9.162048E-3,-5.540831E-4,-6.027889E-2,6.8649866E-2,7.103521E-2,8.6094355E-3,3.6764148E-4,-5.9534595E-3,-1.4997554E-2,-2.2462644E-3,1.8764932E-2,-5.150465E-4],"categories":[],"categories_nodes":[],"categories_segments":[],"categories_sizes":[],"default_left":[0,0,0,0,0,0,0,0,0,0,0,0,0,0,0,0,0,0,0,0,0,0,0,0,0,0,0,0,0,0,0,0,0,0,0,0,0,0,0,0,0,0,0,0,0,0,0,0,0,0,0,0,0,0,0,0,0,0,0,0,0,0,0],"id":13,"left_children":[1,3,5,7,9,11,13,15,17,-1,19,-1,21,-1,23,25,27,-1,29,31,33,35,37,39,-1,41,43,45,47,49,51,53,-1,55,57,-1,-1,59,61,-1,-1,-1,-1,-1,-1,-1,-1,-1,-1,-1,-1,-1,-1,-1,-1,-1,-1,-1,-1,-1,-1,-1,-1],"loss_changes":[5.123333E-2,5.1200747E-2,1.303978E-1,6.938208E-2,1.2087363E-1,4.745722E-2,2.2264123E-2,2.3399806E-1,5.506035E-1,0E0,1.1556927E-1,0E0,3.4191176E-2,0E0,2.4302453E-2,2.1120134E-1,6.916717E-1,0E0,2.351103E-1,8.9438975E-2,1.0209845E-1,6.850122E-2,4.075563E-3,7.52094E-3,0E0,6.406262E-1,2.2628821E-1,5.501294E-1,2.8743583E-1,6.5108526E-1,1.7559248E-1,1.8443628E-1,0E0,2.4515048E-1,1.3068034E-3,0E0,0E0,3.8450225E-3,7.4533224E-3,0E0,0E0,0E0,0E0,0E0,0E0,0E0,0E0,0E0,0E0,0E0,0E0,0E0,0E0,0E0,0E0,0E0,0E0,0E0,0E0,0E0,0E0,0E0,0E0],"parents":[2147483647,0,0,1,1,2,2,3,3,4,4,5,5,6,6,7,7,8,8,10,10,12,12,14,14,15,15,16,16,18,18,19,19,20,20,21,21,22,22,23,23,25,25,26,26,27,27,28,28,29,29,30,30,31,31,33,33,34,34,37,37,38,38],"right_children":[2,4,6,8,10,12,14,16,18,-1,20,-1,22,-1,24,26,28,-1,30,32,34,36,38,40,-1,42,44,46,48,50,52,54,-1,56,58,-1,-1,60,62,-1,-1,-1,-1,-1,-1,-1,-1,-1,-1,-1,-1,-1,-1,-1,-1,-1,-1,-1,-1,-1,-1,-1,-1],"split_conditions":[1.79E2,4E0,6.7E1,1.6E1,1E0,4E0,7.5E1,1.3E1,1.7E1,-6.9709525E-2,1E0,-4.4667058E-2,1.8E1,5.6635518E-2,1.07E2,1.2E1,4.4E1,-8.470215E-2,2.2E1,5E1,1E1,1E1,4.3E1,7E0,4.672494E-2,1E1,1.29E2,6E0,1.5E1,7E1,2.6E1,4.9E1,-7.376826E-2,1.8E1,1.1E1,6.591654E-4,6.882572E-2,1.8E2,4.6E1,2.089026E-2,1.943525E-3,1.2383119E-3,9.232937E-2,-5.55738E-2,-2.256793E-3,-4.4891E-2,9.652052E-2,1.2270155E-1,3.7589878E-2,-4.2272437E-2,6.396963E-3,9.162048E-3,-5.540831E-4,-6.027889E-2,6.8649866E-2,7.103521E-2,8.6094355E-3,3.6764148E-4,-5.9534595E-3,-1.4997554E-2,-2.2462644E-3,1.8764932E-2,-5.150465E-4],"split_indices":[3,1,0,0,0,2,0,0,0,0,2,0,0,0,0,0,3,0,0,3,2,0,0,2,0,0,3,2,0,3,0,3,0,0,2,0,0,3,0,0,0,0,0,0,0,0,0,0,0,0,0,0,0,0,0,0,0,0,0,0,0,0,0],"split_type":[0,0,0,0,0,0,0,0,0,0,0,0,0,0,0,0,0,0,0,0,0,0,0,0,0,0,0,0,0,0,0,0,0,0,0,0,0,0,0,0,0,0,0,0,0,0,0,0,0,0,0,0,0,0,0,0,0,0,0,0,0,0,0],"sum_hessian":[7.898E3,7.85E3,4.8E1,7.566E3,2.84E2,3.6E1,1.2E1,1.027E3,6.539E3,1E0,2.83E2,1E0,3.5E1,3E0,9E0,9.88E2,3.9E1,6E0,6.533E3,4E0,2.79E2,5E0,3E1,7E0,2E0,9.59E2,2.9E1,1.6E1,2.3E1,9.9E1,6.434E3,2E0,2E0,1.17E2,1.62E2,4E0,1E0,1.1E1,1.9E1,3E0,4E0,9.53E2,6E0,1.1E1,1.8E1,1.4E1,2E0,4E0,1.9E1,4.3E1,5.6E1,1.71E2,6.263E3,1E0,1E0,5E0,1.12E2,1.6E2,2E0,2E0,9E0,1E0,1.8E1],"tree_param":{"num_deleted":"0","num_feature":"4","num_nodes":"63","size_leaf_vector":"1"}},{"base_weights":[-6.448814E-5,-5.255081E-3,1.2943118E-3,7.932774E-2,-6.9350535E-3,2.0231532E-3,-1.6841719E-2,2.810231E-1,4.877225E-2,5.9708916E-2,-8.848125E-3,-2.2723072E-3,3.172102E-3,3.5453849E-3,-4.6325568E-2,2.5988067E-2,9.5083855E-2,-5.468989E-2,8.244591E-2,-4.4077195E-2,1.7021608E-1,-2.7716982E-3,-2.7195245E-2,-1.2997672E-2,7.398347E-3,7.3148618E-3,1.7976465E-3,-9.490768E-3,1.3865504E-1,-2.2967418E-1,-1.0850529E-2,2.3665455E-1,2.4350595E-2,-4.5576778E-1,1.1847343E-1,6.945519E-2,7.35029E-2,-1.0691683E-2,2.8819308E-2,8.484252E-3,-5.269552E-2,-2.8056505E-3,-1.6883223E-1,1.2776792E-1,1.9410674E-3,8.745356E-3,-2.5275052E-2,1.6137824E-3,1.2754392E-2,-4.2855162E-2,3.017922E-2,-1.177868E-1,-8.094726E-2,8.16977E-2,-3.382802E-2,-5.787939E-3,1.02867685E-1,-1.674483E-2,2.154325E-2,-5.2693952E-2,-1.598061E-1,4.5673423E-2,-6.834581E-2,-6.4900994E-2,6.858753E-2,-6.3266032E-3,4.6487623E-3,5.4733478E-2,3.1701424E-3,2.18902E-2,-6.9744634E-3,-4.6686906E-2,-2.6552696E-4,-3.6859259E-3,6.291634E-3,-1.2451401E-1,-2.7511595E-4,1.1024463E-1,4.567328E-4,-6.5684333E-3,2.4496443E-3,2.4939487E-3,5.0673444E-2,3.2042644E-3,-1.0530439E-1,5.0639844E-4,-3.916342E-3,-6.167982E-3,-6.977445E-2,8.637664E-2,2.5674035E-3,-6.4634316E-2,-4.528329E-3,1.1897693E-2,4.082624E-2,-7.481454E-2,2.2908335E-3],"categories":[],"categories_nodes":[],"categories_segments":[],"categories_sizes":[],"default_left":[0,0,0,0,0,0,0,0,0,0,0,0,0,0,0,0,0,0,0,0,0,0,0,0,0,0,0,0,0,0,0,0,0,0,0,0,0,0,0,0,0,0,0,0,0,0,0,0,0,0,0,0,0,0,0,0,0,0,0,0,0,0,0,0,0,0,0,0,0,0,0,0,0,0,0,0,0,0,0,0,0,0,0,0,0,0,0,0,0,0,0,0,0,0,0,0,0],"id":14,"left_children":[1,3,5,7,9,11,13,15,17,19,21,23,25,27,29,-1,-1,-1,31,33,35,37,39,41,43,45,47,49,-1,51,53,55,57,59,61,-1,63,65,67,69,71,73,75,77,79,81,83,85,-1,87,89,91,-1,93,95,-1,-1,-1,-1,-1,-1,-1,-1,-1,-1,-1,-1,-1,-1,-1,-1,-1,-1,-1,-1,-1,-1,-1,-1,-1,-1,-1,-1,-1,-1,-1,-1,-1,-1,-1,-1,-1,-1,-1,-1,-1,-1],"loss_changes":[5.571827E-2,2.3344675E-1,8.279377E-2,1.8350664E-1,2.0553973E-1,2.9717498E-2,1.456281E-1,4.772246E-4,2.4067993E-1,5.236126E-1,1.7428705E-1,1.3192593E-1,2.7033534E-2,8.6534464E-1,6.4143354E-1,0E0,0E0,0E0,2.2716612E-1,1.66009E0,1.134128E-1,2.9454368E-1,3.5437375E-1,9.572525E-1,4.3921167E-1,5.537214E-2,2.6642855E-2,1.8791603E-1,0E0,4.0094793E-2,1.813919E-1,1.9695455E-1,8.0102794E-2,5.72623E-2,2.4518993E-1,0E0,4.9906537E-1,2.565346E-1,6.598161E-1,3.3522812E-1,1.2103893E0,1.2807731E-1,1.5293157E0,8.7706256E-1,9.52802E-2,7.7094525E-2,5.893626E-1,3.8897078E-3,0E0,3.2092747E-1,3.5976228E-1,5.6922123E-2,0E0,3.3473007E-2,6.0967135E-1,0E0,0E0,0E0,0E0,0E0,0E0,0E0,0E0,0E0,0E0,0E0,0E0,0E0,0E0,0E0,0E0,0E0,0E0,0E0,0E0,0E0,0E0,0E0,0E0,0E0,0E0,0E0,0E0,0E0,0E0,0E0,0E0,0E0,0E0,0E0,0E0,0E0,0E0,0E0,0E0,0E0,0E0],"parents":[2147483647,0,0,1,1,2,2,3,3,4,4,5,5,6,6,7,7,8,8,9,9,10,10,11,11,12,12,13,13,14,14,18,18,19,19,20,20,21,21,22,22,23,23,24,24,25,25,26,26,27,27,29,29,30,30,31,31,32,32,33,33,34,34,36,36,37,37,38,38,39,39,40,40,41,41,42,42,43,43,44,44,45,45,46,46,47,47,49,49,50,50,51,51,53,53,54,54],"right_children":[2,4,6,8,10,12,14,16,18,20,22,24,26,28,30,-1,-1,-1,32,34,36,38,40,42,44,46,48,50,-1,52,54,56,58,60,62,-1,64,66,68,70,72,74,76,78,80,82,84,86,-1,88,90,92,-1,94,96,-1,-1,-1,-1,-1,-1,-1,-1,-1,-1,-1,-1,-1,-1,-1,-1,-1,-1,-1,-1,-1,-1,-1,-1,-1,-1,-1,-1,-1,-1,-1,-1,-1,-1,-1,-1,-1,-1,-1,-1,-1,-1],"split_conditions":[9E0,4E0,9.9E1,2E1,1.2E1,4.2E1,9.9E1,5E0,3.3E1,4E0,1.24E2,1.06E2,1E1,9.5E1,1.04E2,2.5988067E-2,9.5083855E-2,-5.468989E-2,4.1E1,2E0,5E0,1.1E2,5E0,1.03E2,1.09E2,1.62E2,7.7E1,6.1E1,1.3865504E-1,1E2,1.09E2,3.6E1,6.1E1,2E0,1.43E2,6.945519E-2,8E0,7.1E1,1.11E2,1.37E2,1.44E2,7.7E1,1E1,1E1,1.25E2,1.61E2,7.5E1,1.1E1,1.2754392E-2,5.2E1,6.2E1,1.02E2,-8.094726E-2,1.07E2,1.15E2,-5.787939E-3,1.02867685E-1,-1.674483E-2,2.154325E-2,-5.2693952E-2,-1.598061E-1,4.5673423E-2,-6.834581E-2,-6.4900994E-2,6.858753E-2,-6.3266032E-3,4.6487623E-3,5.4733478E-2,3.1701424E-3,2.18902E-2,-6.9744634E-3,-4.6686906E-2,-2.6552696E-4,-3.6859259E-3,6.291634E-3,-1.2451401E-1,-2.7511595E-4,1.1024463E-1,4.567328E-4,-6.5684333E-3,2.4496443E-3,2.4939487E-3,5.0673444E-2,3.2042644E-3,-1.0530439E-1,5.0639844E-4,-3.916342E-3,-6.167982E-3,-6.977445E-2,8.637664E-2,2.5674035E-3,-6.4634316E-2,-4.528329E-3,1.1897693E-2,4.082624E-2,-7.481454E-2,2.2908335E-3],"split_indices":[2,3,0,0,0,0,3,0,0,0,3,3,2,3,3,0,0,0,0,1,0,3,2,3,3,3,0,3,0,3,3,0,0,0,3,0,0,0,3,3,3,3,2,2,3,3,0,2,0,3,3,0,0,3,3,0,0,0,0,0,0,0,0,0,0,0,0,0,0,0,0,0,0,0,0,0,0,0,0,0,0,0,0,0,0,0,0,0,0,0,0,0,0,0,0,0,0],"split_type":[0,0,0,0,0,0,0,0,0,0,0,0,0,0,0,0,0,0,0,0,0,0,0,0,0,0,0,0,0,0,0,0,0,0,0,0,0,0,0,0,0,0,0,0,0,0,0,0,0,0,0,0,0,0,0,0,0,0,0,0,0,0,0,0,0,0,0,0,0,0,0,0,0,0,0,0,0,0,0,0,0,0,0,0,0,0,0,0,0,0,0,0,0,0,0,0,0],"sum_hessian":[7.898E3,1.638E3,6.26E3,3.1E1,1.607E3,6.019E3,2.41E2,3E0,2.8E1,4.4E1,1.563E3,1.27E3,4.749E3,1.43E2,9.8E1,1E0,2E0,3E0,2.5E1,2.3E1,2.1E1,1.175E3,3.88E2,6.02E2,6.68E2,1.182E3,3.567E3,1.4E2,3E0,1.5E1,8.3E1,6E0,1.9E1,6E0,1.7E1,1.2E1,9E0,9.4E2,2.35E2,1.62E2,2.26E2,5.66E2,3.6E1,2.8E1,6.4E2,1.133E3,4.9E1,3.552E3,1.5E1,7.6E1,6.4E1,5E0,1E1,1.6E1,6.7E1,2E0,4E0,7E0,1.2E1,2E0,4E0,1.6E1,1E0,3E0,6E0,6.73E2,2.67E2,2.4E1,2.11E2,5.3E1,1.09E2,7.5E1,1.51E2,4.05E2,1.61E2,1.4E1,2.2E1,9E0,1.9E1,1.32E2,5.08E2,1.131E3,2E0,4.5E1,4E0,3.535E3,1.7E1,6.9E1,7E0,4E0,6E1,2E0,3E0,1E1,6E0,1E1,5.7E1],"tree_param":{"num_deleted":"0","num_feature":"4","num_nodes":"97","size_leaf_vector":"1"}},{"base_weights":[-5.0589388E-5,-5.1415563E-2,8.632076E-5,-7.329466E-2,3.1287175E-2,-7.274713E-3,1.0665093E-3,-4.2692825E-2,-9.361917E-2,8.764721E-3,-1.8961549E-2,4.6060182E-4,1.7942011E-2,-6.887676E-2,3.3355728E-2,-9.447898E-2,1.4000286E-2,-3.6174345E-1,-1.5052598E-2,2.8386625E-4,2.7872674E-2,5.239399E-2,1.134353E-3,-3.515415E-2,-8.620738E-2,-1.284368E-1,7.751427E-2,-8.810503E-5,4.0026844E-2,-1.6005883E-1,-4.2740438E-2,1.710263E-2,-3.1042522E-2,7.7134644E-4,-1.040817E-2,8.63719E-3,9.958038E-2,7.292487E-2,4.1668337E-2,1.7739636E-3,-4.163623E-4,-2.9138047E-3,-5.8700204E-2,4.784937E-2,-4.642691E-2,4.6537938E-3,-2.797331E-2,4.8210495E-3,4.7397252E-2,1.2707981E-2,-9.486624E-3,-1.2574573E-2,2.9229691E-2,3.267665E-5,6.1594634E-3,-7.9730677E-4,-5.278343E-2,1.9305684E-2,-8.3812E-4,4.3171562E-2,1.6030127E-2,1.802906E-2,-1.1184244E-2,-4.025582E-3,-2.7966647E-5],"categories":[],"categories_nodes":[],"categories_segments":[],"categories_sizes":[],"default_left":[0,0,0,0,0,0,0,0,0,0,0,0,0,0,0,0,0,0,0,0,0,0,0,0,0,0,0,0,0,0,0,0,0,0,0,0,0,0,0,0,0,0,0,0,0,0,0,0,0,0,0,0,0,0,0,0,0,0,0,0,0,0,0,0,0],"id":15,"left_children":[1,3,5,7,-1,9,11,13,-1,15,17,19,21,23,-1,25,27,29,31,33,35,37,39,41,-1,43,-1,45,47,-1,-1,49,51,53,55,57,59,-1,61,-1,63,-1,-1,-1,-1,-1,-1,-1,-1,-1,-1,-1,-1,-1,-1,-1,-1,-1,-1,-1,-1,-1,-1,-1,-1],"loss_changes":[5.555325E-2,7.918485E-2,5.6856327E-2,1.255059E-1,0E0,1.737451E-1,7.109633E-2,8.018274E-2,0E0,2.1267352E-1,7.127506E-1,3.2519326E-2,1.3949332E-1,1.07782245E-1,0E0,2.608503E-1,1.367723E-1,1.4999962E-1,2.735497E-1,3.4783527E-2,5.8451194E-2,1.5144691E-1,1.2103978E-3,5.935491E-2,0E0,1.6109297E-1,0E0,3.5460016E-1,3.6767033E-1,0E0,0E0,2.1916544E-1,4.9997306E-1,8.3535805E-2,3.7288195E-1,2.2470402E-2,1.0719575E-2,0E0,1.1281414E-1,0E0,5.19741E-4,0E0,0E0,0E0,0E0,0E0,0E0,0E0,0E0,0E0,0E0,0E0,0E0,0E0,0E0,0E0,0E0,0E0,0E0,0E0,0E0,0E0,0E0,0E0,0E0],"parents":[2147483647,0,0,1,1,2,2,3,3,5,5,6,6,7,7,9,9,10,10,11,11,12,12,13,13,15,15,16,16,17,17,18,18,19,19,20,20,21,21,22,22,23,23,25,25,27,27,28,28,31,31,32,32,33,33,34,34,35,35,36,36,38,38,40,40],"right_children":[2,4,6,8,-1,10,12,14,-1,16,18,20,22,24,-1,26,28,30,32,34,36,38,40,42,-1,44,-1,46,48,-1,-1,50,52,54,56,58,60,-1,62,-1,64,-1,-1,-1,-1,-1,-1,-1,-1,-1,-1,-1,-1,-1,-1,-1,-1,-1,-1,-1,-1,-1,-1,-1,-1],"split_conditions":[2E0,1.1E2,7E0,1E0,3.1287175E-2,9.2E1,4E0,1.03E2,-9.361917E-2,1E0,9.3E1,1.79E2,1E1,1E2,3.3355728E-2,8.3E1,5E0,2E0,2E0,8.1E1,6.7E1,1.8E1,1E1,3E0,-8.620738E-2,3E0,7.751427E-2,7.3E1,7.5E1,-1.6005883E-1,-4.2740438E-2,1.09E2,9.5E1,7E1,1.73E2,1.8E1,7.5E1,7.292487E-2,9.6E1,1.7739636E-3,3.8E1,-2.9138047E-3,-5.8700204E-2,4.784937E-2,-4.642691E-2,4.6537938E-3,-2.797331E-2,4.8210495E-3,4.7397252E-2,1.2707981E-2,-9.486624E-3,-1.2574573E-2,2.9229691E-2,3.267665E-5,6.1594634E-3,-7.9730677E-4,-5.278343E-2,1.9305684E-2,-8.3812E-4,4.3171562E-2,1.6030127E-2,1.802906E-2,-1.1184244E-2,-4.025582E-3,-2.7966647E-5],"split_indices":[0,3,2,0,0,3,1,3,0,2,3,3,2,3,0,3,2,2,2,0,0,0,0,1,0,3,0,3,3,0,0,0,0,0,3,0,0,0,0,0,0,0,0,0,0,0,0,0,0,0,0,0,0,0,0,0,0,0,0,0,0,0,0,0,0],"split_type":[0,0,0,0,0,0,0,0,0,0,0,0,0,0,0,0,0,0,0,0,0,0,0,0,0,0,0,0,0,0,0,0,0,0,0,0,0,0,0,0,0,0,0,0,0,0,0,0,0,0,0,0,0,0,0,0,0,0,0,0,0,0,0,0,0],"sum_hessian":[7.898E3,2E1,7.878E3,1.8E1,2E0,9.25E2,6.953E3,1.7E1,1E0,3.9E2,5.35E2,6.713E3,2.4E2,1.5E1,2E0,1.8E1,3.72E2,5E0,5.3E2,6.671E3,4.2E1,7.8E1,1.62E2,1.4E1,1E0,1.7E1,1E0,2.42E2,1.3E2,2E0,3E0,1.76E2,3.54E2,6.381E3,2.9E2,3.4E1,8E0,3E0,7.5E1,3.9E1,1.23E2,1.3E1,1E0,1E0,1.6E1,2.08E2,3.4E1,1.09E2,2.1E1,1.16E2,6E1,3.27E2,2.7E1,6.175E3,2.06E2,2.78E2,1.2E1,5E0,2.9E1,3E0,5E0,6.1E1,1.4E1,2E0,1.21E2],"tree_param":{"num_deleted":"0","num_feature":"4","num_nodes":"65","size_leaf_vector":"1"}},{"base_weights":[-5.364777E-5,-4.440982E-2,6.458212E-5,-6.2258083E-2,2.502974E-2,-2.8170468E-4,1.3226588E-2,-3.624417E-2,-7.957629E-2,3.7970033E-4,-2.0693526E-2,4.8277386E-2,-1.0636155E-2,-5.7452552E-2,2.6684584E-2,2.6180124E-4,4.3912135E-2,-2.0629093E-1,-7.462322E-3,6.0651167E-3,1.252148E-1,-3.235798E-1,2.828412E-3,-2.8715493E-2,-7.3276274E-2,-1.04516286E-4,2.7680611E-2,-3.8805366E-1,-2.1802843E-2,-3.6408074E-2,1.3426381E-2,5.4242108E-2,-4.7904033E-2,9.276864E-2,5.9636977E-2,-5.37709E-3,-1.5641281E-1,8.4358506E-2,-4.4579203E-3,-4.0327024E-2,2.6740315E-3,7.9854304E-5,-3.7006985E-2,2.745665E-2,-1.4863314E-2,-1.4114948E-1,2.8358737E-2,7.141281E-2,-5.741982E-2,-1.3261494E-3,-5.487437E-2,1.0863804E-1,1.5828508E-3,1.2580208E-2,2.8330227E-2,-4.967182E-2,-7.6071373E-3,5.508301E-2,8.323284E-3,-1.818229E-2,9.357815E-3],"categories":[],"categories_nodes":[],"categories_segments":[],"categories_sizes":[],"default_left":[0,0,0,0,0,0,0,0,0,0,0,0,0,0,0,0,0,0,0,0,0,0,0,0,0,0,0,0,0,0,0,0,0,0,0,0,0,0,0,0,0,0,0,0,0,0,0,0,0,0,0,0,0,0,0,0,0,0,0,0,0],"id":16,"left_children":[1,3,5,7,-1,9,11,13,-1,15,17,19,21,23,-1,25,-1,27,29,31,33,35,37,39,-1,41,43,45,47,49,51,53,55,57,-1,-1,-1,-1,59,-1,-1,-1,-1,-1,-1,-1,-1,-1,-1,-1,-1,-1,-1,-1,-1,-1,-1,-1,-1,-1,-1],"loss_changes":[4.1427E-2,5.311136E-2,3.591486E-2,9.071989E-2,0E0,1.0366455E-1,1.6946794E-1,5.2902788E-2,0E0,1.2798882E-1,5.9027874E-1,2.6555216E-1,5.107669E-1,7.887622E-2,0E0,7.465988E-2,0E0,5.2806836E-1,1.371373E-1,1.4300226E-1,5.0788224E-2,2.9294318E-1,2.3856135E-1,6.086331E-2,0E0,3.3520895E-1,4.8769048E-1,3.6276627E-1,4.421814E-1,4.4439822E-1,3.7323102E-1,1.0385901E-2,6.4781256E-2,1.2485771E-1,0E0,0E0,0E0,0E0,2.3209439E-1,0E0,0E0,0E0,0E0,0E0,0E0,0E0,0E0,0E0,0E0,0E0,0E0,0E0,0E0,0E0,0E0,0E0,0E0,0E0,0E0,0E0,0E0],"parents":[2147483647,0,0,1,1,2,2,3,3,5,5,6,6,7,7,9,9,10,10,11,11,12,12,13,13,15,15,17,17,18,18,19,19,20,20,21,21,22,22,23,23,25,25,26,26,27,27,28,28,29,29,30,30,31,31,32,32,33,33,38,38],"right_children":[2,4,6,8,-1,10,12,14,-1,16,18,20,22,24,-1,26,-1,28,30,32,34,36,38,40,-1,42,44,46,48,50,52,54,56,58,-1,-1,-1,-1,60,-1,-1,-1,-1,-1,-1,-1,-1,-1,-1,-1,-1,-1,-1,-1,-1,-1,-1,-1,-1,-1,-1],"split_conditions":[2E0,1.1E2,1.02E2,1E0,2.502974E-2,9.3E1,7.6E1,1.03E2,-7.957629E-2,9.2E1,9.6E1,5.1E1,8.2E1,1E2,2.6684584E-2,9E1,4.3912135E-2,1.01E2,7.2E1,8E0,6.8E1,1.08E2,8.4E1,2.7E1,-7.3276274E-2,8.7E1,1.11E2,3E0,2E0,6.3E1,7.3E1,2.3E1,1.2E1,6.2E1,5.9636977E-2,-5.37709E-3,-1.5641281E-1,8.4358506E-2,1.19E2,-4.0327024E-2,2.6740315E-3,7.9854304E-5,-3.7006985E-2,2.745665E-2,-1.4863314E-2,-1.4114948E-1,2.8358737E-2,7.141281E-2,-5.741982E-2,-1.3261494E-3,-5.487437E-2,1.0863804E-1,1.5828508E-3,1.2580208E-2,2.8330227E-2,-4.967182E-2,-7.6071373E-3,5.508301E-2,8.323284E-3,-1.818229E-2,9.357815E-3],"split_indices":[0,3,0,0,0,0,3,3,0,0,0,3,3,3,0,0,0,3,3,2,3,0,3,3,0,0,3,1,1,3,3,3,3,3,0,0,0,0,3,0,0,0,0,0,0,0,0,0,0,0,0,0,0,0,0,0,0,0,0,0,0],"split_type":[0,0,0,0,0,0,0,0,0,0,0,0,0,0,0,0,0,0,0,0,0,0,0,0,0,0,0,0,0,0,0,0,0,0,0,0,0,0,0,0,0,0,0,0,0,0,0,0,0,0,0,0,0,0,0,0,0,0,0,0,0],"sum_hessian":[7.898E3,2E1,7.878E3,1.8E1,2E0,7.677E3,2.01E2,1.7E1,1E0,7.437E3,2.4E2,8.1E1,1.2E2,1.5E1,2E0,7.432E3,5E0,1.5E1,2.25E2,5.3E1,2.8E1,4E0,1.16E2,1.4E1,1E0,7.335E3,9.7E1,7E0,8E0,9.4E1,1.31E2,2.8E1,2.5E1,2.1E1,7E0,2E0,2E0,2E0,1.14E2,3E0,1.1E1,7.314E3,2.1E1,5.3E1,4.4E1,6E0,1E0,3E0,5E0,7.8E1,1.6E1,2E0,1.29E2,2.3E1,5E0,3E0,2.2E1,8E0,1.3E1,4.4E1,7E1],"tree_param":{"num_deleted":"0","num_feature":"4","num_nodes":"61","size_leaf_vector":"1"}},{"base_weights":[-5.574207E-5,1.5252225E-4,-1.9911287E-2,-3.0280132E-4,2.9118871E-2,-3.349573E-2,1.5774094E-1,7.919932E-5,-1.8073393E-2,2.3375377E-2,1.9127226E-1,-6.906955E-3,-2.3362125E-1,5.237889E-2,1.1019624E-2,-1.6117284E-4,2.7713383E-2,-1.0560949E-2,-1.20238684E-1,2.9674318E-2,-4.9068905E-2,4.6113525E-3,7.343467E-2,-3.4479775E-2,4.7766197E-2,-1.7256045E-1,-1.0831615E-1,1.615462E-4,-1.505785E-1,-4.348257E-2,3.9932065E-2,-1.9473596E-2,1.523009E-1,-5.432693E-2,-3.2998326E-3,-4.9326317E-3,5.2817103E-2,7.719935E-2,-7.684489E-2,-2.4283215E-1,-1.2474221E-2,2.1982936E-5,3.2934107E-2,-8.572093E-2,-4.1121603E-3,1.3856185E-2,-3.328811E-2,1.3365921E-2,3.6609857E-4,-4.419119E-3,-1.0537419E-1,6.693873E-2,1.9553455E-2,9.736722E-3,-1.1739788E-2,2.9471852E-2,2.5353087E-3,1.5002213E-2,3.561502E-2,-9.9182494E-2,-8.42303E-3,-3.6903985E-2,-1.0831615E-1],"categories":[],"categories_nodes":[],"categories_segments":[],"categories_sizes":[],"default_left":[0,0,0,0,0,0,0,0,0,0,0,0,0,0,0,0,0,0,0,0,0,0,0,0,0,0,0,0,0,0,0,0,0,0,0,0,0,0,0,0,0,0,0,0,0,0,0,0,0,0,0,0,0,0,0,0,0,0,0,0,0,0,0],"id":17,"left_children":[1,3,5,7,9,11,13,15,17,19,21,23,25,-1,-1,27,29,31,33,35,-1,-1,-1,37,-1,39,-1,41,43,45,47,49,51,-1,-1,53,55,57,59,61,-1,-1,-1,-1,-1,-1,-1,-1,-1,-1,-1,-1,-1,-1,-1,-1,-1,-1,-1,-1,-1,-1,-1],"loss_changes":[3.2666996E-2,1.031209E-1,2.0317478E-1,5.225836E-2,1.0821952E-1,4.0811056E-1,5.8246106E-3,5.00689E-2,1.2306696E-1,1.4380026E-1,3.3887252E-2,3.215517E-1,7.72658E-3,0E0,0E0,3.627827E-1,5.8281194E-2,2.2359845E-1,7.112871E-2,9.236416E-2,0E0,0E0,0E0,2.8981033E-1,0E0,6.35362E-2,0E0,7.215574E-2,2.9207116E-1,6.563219E-2,9.963296E-3,2.2300804E-1,3.4822807E-2,0E0,0E0,6.1368134E-2,1.382195E-1,1.3255253E-2,5.3524244E-1,2.6411504E-2,0E0,0E0,0E0,0E0,0E0,0E0,0E0,0E0,0E0,0E0,0E0,0E0,0E0,0E0,0E0,0E0,0E0,0E0,0E0,0E0,0E0,0E0,0E0],"parents":[2147483647,0,0,1,1,2,2,3,3,4,4,5,5,6,6,7,7,8,8,9,9,10,10,11,11,12,12,15,15,16,16,17,17,18,18,19,19,23,23,25,25,27,27,28,28,29,29,30,30,31,31,32,32,35,35,36,36,37,37,38,38,39,39],"right_children":[2,4,6,8,10,12,14,16,18,20,22,24,26,-1,-1,28,30,32,34,36,-1,-1,-1,38,-1,40,-1,42,44,46,48,50,52,-1,-1,54,56,58,60,62,-1,-1,-1,-1,-1,-1,-1,-1,-1,-1,-1,-1,-1,-1,-1,-1,-1,-1,-1,-1,-1,-1,-1],"split_conditions":[1.09E2,1.02E2,1.65E2,1.01E2,1.74E2,1.52E2,1.79E2,9.6E1,1.68E2,1.67E2,1.07E2,1.47E2,1.64E2,5.237889E-2,1.1019624E-2,9.3E1,1E0,1.55E2,1.79E2,5.1E1,-4.9068905E-2,4.6113525E-3,7.343467E-2,7.6E1,4.7766197E-2,1.63E2,-1.0831615E-1,9.2E1,1.01E2,6.6E1,4E0,1.52E2,1.58E2,-5.432693E-2,-3.2998326E-3,1.07E2,1.02E2,6.2E1,9.8E1,1.59E2,-1.2474221E-2,2.1982936E-5,3.2934107E-2,-8.572093E-2,-4.1121603E-3,1.3856185E-2,-3.328811E-2,1.3365921E-2,3.6609857E-4,-4.419119E-3,-1.0537419E-1,6.693873E-2,1.9553455E-2,9.736722E-3,-1.1739788E-2,2.9471852E-2,2.5353087E-3,1.5002213E-2,3.561502E-2,-9.9182494E-2,-8.42303E-3,-3.6903985E-2,-1.0831615E-1],"split_indices":[0,0,3,0,3,3,3,0,3,3,0,3,3,0,0,0,1,3,3,3,0,0,0,3,0,3,0,0,3,3,1,3,3,0,0,0,3,3,3,3,0,0,0,0,0,0,0,0,0,0,0,0,0,0,0,0,0,0,0,0,0,0,0],"split_type":[0,0,0,0,0,0,0,0,0,0,0,0,0,0,0,0,0,0,0,0,0,0,0,0,0,0,0,0,0,0,0,0,0,0,0,0,0,0,0,0,0,0,0,0,0,0,0,0,0,0,0,0,0,0,0,0,0,0,0,0,0,0,0],"sum_hessian":[7.898E3,7.817E3,8.1E1,7.697E3,1.2E2,7.6E1,5E0,7.536E3,1.61E2,1.17E2,3E0,6.8E1,8E0,4E0,1E0,7.472E3,6.4E1,1.51E2,1E1,1.14E2,3E0,1E0,2E0,5.9E1,9E0,7E0,1E0,7.457E3,1.5E1,9E0,5.5E1,1.44E2,7E0,6E0,4E0,4.6E1,6.8E1,1.6E1,4.3E1,4E0,3E0,7.452E3,5E0,7E0,8E0,4E0,5E0,4.9E1,6E0,1.43E2,1E0,3E0,4E0,2.2E1,2.4E1,3.3E1,3.5E1,1.1E1,5E0,6E0,3.7E1,3E0,1E0],"tree_param":{"num_deleted":"0","num_feature":"4","num_nodes":"63","size_leaf_vector":"1"}},{"base_weights":[-7.654093E-5,-3.771693E-2,2.3792198E-5,-2.283625E-2,-5.029958E-2,-6.4569685E-6,3.574901E-2,3.85406E-2,-7.655736E-2,1.9776874E-4,-1.9667514E-2,-3.125839E-2,1.1459778E-1,-8.218263E-2,-2.9424682E-2,-1.2804754E-4,2.0870658E-2,-3.0512882E-2,1.2098507E-1,8.105467E-2,4.3636676E-2,-6.1805096E-2,2.0019393E-2,1.1813915E-2,-4.868499E-4,9.236254E-2,1.2152629E-2,-8.546392E-3,-1.9309159E-1,3.9807957E-2,9.366676E-3,-2.3698939E-2,5.778059E-2,-1.8637062E-3,-6.764314E-2,1.7289942E-2,1.651852E-3,-6.5845004E-3,6.5339635E-5,2.936455E-2,3.919646E-3,2.0668018E-3,5.8747742E-2,-8.865078E-3,3.486932E-2,-4.2151235E-2,-9.2068724E-2],"categories":[],"categories_nodes":[],"categories_segments":[],"categories_sizes":[],"default_left":[0,0,0,0,0,0,0,0,0,0,0,0,0,0,0,0,0,0,0,0,0,0,0,0,0,0,0,0,0,0,0,0,0,0,0,0,0,0,0,0,0,0,0,0,0,0,0],"id":18,"left_children":[1,3,5,7,-1,9,-1,11,13,15,17,-1,19,-1,21,23,25,27,29,-1,31,33,-1,35,37,39,41,43,45,-1,-1,-1,-1,-1,-1,-1,-1,-1,-1,-1,-1,-1,-1,-1,-1,-1,-1],"loss_changes":[2.9832086E-2,3.6779262E-2,2.8395683E-2,6.889521E-2,0E0,3.1636372E-2,0E0,1.2050086E-1,9.427533E-2,5.2526593E-2,1.2725134E-1,0E0,6.549326E-2,0E0,3.5260044E-2,3.290448E-2,7.4293E-2,2.6976728E-1,2.162747E-3,0E0,1.2482335E-1,7.1391076E-2,0E0,6.4422205E-2,1.1274531E-1,4.4107586E-3,1.0402395E-1,1.8164967E-1,1.0741949E-2,0E0,0E0,0E0,0E0,0E0,0E0,0E0,0E0,0E0,0E0,0E0,0E0,0E0,0E0,0E0,0E0,0E0,0E0],"parents":[2147483647,0,0,1,1,2,2,3,3,5,5,7,7,8,8,9,9,10,10,12,12,14,14,15,15,16,16,17,17,18,18,20,20,21,21,23,23,24,24,25,25,26,26,27,27,28,28],"right_children":[2,4,6,8,-1,10,-1,12,14,16,18,-1,20,-1,22,24,26,28,30,-1,32,34,-1,36,38,40,42,44,46,-1,-1,-1,-1,-1,-1,-1,-1,-1,-1,-1,-1,-1,-1,-1,-1,-1,-1],"split_conditions":[2E0,3E0,1.1E2,7.8E1,-5.029958E-2,1.09E2,3.574901E-2,2.7E1,1E0,1.02E2,1.65E2,-3.125839E-2,2.8E1,-8.218263E-2,1.1E2,3E0,7E0,1.52E2,1.79E2,8.105467E-2,6.6E1,1E0,2.0019393E-2,8E0,1.4E1,1.51E2,1.74E2,1.47E2,1.64E2,3.9807957E-2,9.366676E-3,-2.3698939E-2,5.778059E-2,-1.8637062E-3,-6.764314E-2,1.7289942E-2,1.651852E-3,-6.5845004E-3,6.5339635E-5,2.936455E-2,3.919646E-3,2.0668018E-3,5.8747742E-2,-8.865078E-3,3.486932E-2,-4.2151235E-2,-9.2068724E-2],"split_indices":[0,1,0,3,0,0,0,3,1,0,3,0,3,0,3,3,2,3,3,0,3,0,0,2,3,3,3,3,3,0,0,0,0,0,0,0,0,0,0,0,0,0,0,0,0,0,0],"split_type":[0,0,0,0,0,0,0,0,0,0,0,0,0,0,0,0,0,0,0,0,0,0,0,0,0,0,0,0,0,0,0,0,0,0,0,0,0,0,0,0,0,0,0,0,0,0,0],"sum_hessian":[7.898E3,2E1,7.878E3,1.9E1,1E0,7.877E3,1E0,9E0,1E1,7.797E3,8E1,3E0,6E0,1E0,9E0,7.677E3,1.2E2,7.5E1,5E0,1E0,5E0,7E0,2E0,2.23E2,7.454E3,1.2E1,1.08E2,6.7E1,8E0,4E0,1E0,3E0,2E0,6E0,1E0,2.6E1,1.97E2,2.36E2,7.218E3,1.1E1,1E0,1.06E2,2E0,5.8E1,9E0,7E0,1E0],"tree_param":{"num_deleted":"0","num_feature":"4","num_nodes":"47","size_leaf_vector":"1"}},{"base_weights":[-5.544816E-5,1.7918965E-3,-1.7598113E-3,1.1957387E-3,4.3026082E-2,8.921543E-2,-2.1149272E-3,-6.1995674E-2,1.5181691E-3,2.926008E-2,8.018842E-2,-1.4387989E-1,1.5407434E-1,-2.9371545E-2,-9.627984E-4,-8.983323E-2,6.586206E-2,2.3329059E-4,1.0691748E-2,4.3227836E-2,-4.4747997E-2,7.733004E-2,-1.0910532E-1,1.03763826E-1,-9.038739E-3,-6.928378E-2,5.101941E-3,8.310653E-2,-2.0678702E-3,-4.6440084E-2,-8.739569E-2,4.1180788E-4,-8.7340295E-2,4.5660444E-2,6.2056486E-3,1.8128159E-2,2.604794E-1,-7.16998E-2,7.154727E-2,3.9585937E-2,-1.08178176E-1,1.2735905E-2,-1.01148136E-1,4.4096906E-2,2.2095092E-1,-1.7498117E-2,8.01054E-5,8.445323E-2,-2.6121259E-2,2.859592E-3,-2.0828487E-4,2.5319185E-3,-2.747921E-2,7.045499E-2,2.3595495E-3,1.1123417E-1,1.9005526E-2,1.8387437E-2,-9.054972E-2,5.907387E-2,-1.0763669E-2,7.7327824E-4,1.16962925E-1,-4.1441813E-2,-8.866625E-3,2.5287893E-2,1.4683224E-4,4.6549257E-2,-7.784467E-3,1.732384E-2,1.2157424E-1,-1.897595E-2,-9.0020476E-4,7.2464664E-3,-6.6825195E-4],"categories":[],"categories_nodes":[],"categories_segments":[],"categories_sizes":[],"default_left":[0,0,0,0,0,0,0,0,0,0,0,0,0,0,0,0,0,0,0,0,0,0,0,0,0,0,0,0,0,0,0,0,0,0,0,0,0,0,0,0,0,0,0,0,0,0,0,0,0,0,0,0,0,0,0,0,0,0,0,0,0,0,0,0,0,0,0,0,0,0,0,0,0,0,0],"id":19,"left_children":[1,3,5,7,9,11,13,15,17,19,-1,21,23,25,27,29,-1,31,33,35,-1,-1,-1,-1,37,39,41,43,45,47,-1,49,-1,-1,51,53,55,57,59,61,63,65,-1,67,69,71,73,-1,-1,-1,-1,-1,-1,-1,-1,-1,-1,-1,-1,-1,-1,-1,-1,-1,-1,-1,-1,-1,-1,-1,-1,-1,-1,-1,-1],"loss_changes":[2.4873521E-2,9.313922E-2,1.329371E-1,7.625524E-2,1.5889218E-1,2.6406115E-1,1.2853615E-1,1.6863014E-1,4.3844894E-2,1.3603853E-1,0E0,4.468807E-1,4.098432E-1,2.2875519E-1,3.6518633E-1,1.4384691E-1,0E0,1.6989407E-1,2.8917128E-1,2.6247224E-1,0E0,0E0,0E0,0E0,4.552676E-2,3.303328E-1,2.3944773E-1,2.6449692E-1,1.2856616E-1,2.3770975E-1,0E0,3.2922883E-2,0E0,0E0,9.778691E-2,9.824252E-2,8.522749E-2,1.7152786E-1,6.093521E-2,2.7123213E-1,1.3018823E-1,7.795131E-2,0E0,3.2299483E-1,3.0745745E-1,3.14229E-1,1.8927498E-1,0E0,0E0,0E0,0E0,0E0,0E0,0E0,0E0,0E0,0E0,0E0,0E0,0E0,0E0,0E0,0E0,0E0,0E0,0E0,0E0,0E0,0E0,0E0,0E0,0E0,0E0,0E0,0E0],"parents":[2147483647,0,0,1,1,2,2,3,3,4,4,5,5,6,6,7,7,8,8,9,9,11,11,12,12,13,13,14,14,15,15,17,17,18,18,19,19,24,24,25,25,26,26,27,27,28,28,29,29,31,31,34,34,35,35,36,36,37,37,38,38,39,39,40,40,41,41,43,43,44,44,45,45,46,46],"right_children":[2,4,6,8,10,12,14,16,18,20,-1,22,24,26,28,30,-1,32,34,36,-1,-1,-1,-1,38,40,42,44,46,48,-1,50,-1,-1,52,54,56,58,60,62,64,66,-1,68,70,72,74,-1,-1,-1,-1,-1,-1,-1,-1,-1,-1,-1,-1,-1,-1,-1,-1,-1,-1,-1,-1,-1,-1,-1,-1,-1,-1,-1,-1],"split_conditions":[9.6E1,9.5E1,1E0,1E0,8.2E1,1.11E2,9.8E1,8.3E1,7.1E1,8.1E1,8.018842E-2,1.09E2,1.17E2,4.6E1,9.9E1,6.5E1,6.586206E-2,7E1,7.3E1,6.8E1,-4.4747997E-2,7.733004E-2,-1.0910532E-1,1.03763826E-1,1.33E2,1.3E1,1E2,7.5E1,7E0,1E0,-8.739569E-2,1.5E1,-8.7340295E-2,4.5660444E-2,9.2E1,4E0,7.5E1,2E0,1.55E2,1E1,8E0,8E0,-1.01148136E-1,4E1,6E0,1.12E2,8E0,8.445323E-2,-2.6121259E-2,2.859592E-3,-2.0828487E-4,2.5319185E-3,-2.747921E-2,7.045499E-2,2.3595495E-3,1.1123417E-1,1.9005526E-2,1.8387437E-2,-9.054972E-2,5.907387E-2,-1.0763669E-2,7.7327824E-4,1.16962925E-1,-4.1441813E-2,-8.866625E-3,2.5287893E-2,1.4683224E-4,4.6549257E-2,-7.784467E-3,1.732384E-2,1.2157424E-1,-1.897595E-2,-9.0020476E-4,7.2464664E-3,-6.6825195E-4],"split_indices":[3,3,2,2,0,3,3,3,0,0,0,3,3,0,3,3,0,0,0,0,0,0,0,0,3,0,0,0,2,1,0,0,0,0,3,2,0,1,3,0,2,2,0,0,2,3,2,0,0,0,0,0,0,0,0,0,0,0,0,0,0,0,0,0,0,0,0,0,0,0,0,0,0,0,0],"split_type":[0,0,0,0,0,0,0,0,0,0,0,0,0,0,0,0,0,0,0,0,0,0,0,0,0,0,0,0,0,0,0,0,0,0,0,0,0,0,0,0,0,0,0,0,0,0,0,0,0,0,0,0,0,0,0,0,0,0,0,0,0,0,0,0,0,0,0,0,0,0,0,0,0,0,0],"sum_hessian":[7.898E3,3.79E3,4.108E3,3.737E3,5.3E1,1.5E1,4.093E3,1.8E1,3.719E3,5.1E1,2E0,3E0,1.2E1,1.65E2,3.928E3,1.7E1,1E0,3.263E3,4.56E2,4.8E1,3E0,1E0,2E0,5E0,7E0,7.6E1,8.9E1,5E1,3.878E3,1.5E1,2E0,3.262E3,1E0,1.3E1,4.43E2,4.4E1,4E0,4E0,3E0,2E1,5.6E1,8.8E1,1E0,4E1,1E1,4.73E2,3.405E3,1E0,1.4E1,3.52E2,2.91E3,4.34E2,9E0,1E0,4.3E1,2E0,2E0,3E0,1E0,1E0,2E0,1.9E1,1E0,4E1,1.6E1,1.2E1,7.6E1,1.5E1,2.5E1,6E0,4E0,1.13E2,3.6E2,2.97E2,3.108E3],"tree_param":{"num_deleted":"0","num_feature":"4","num_nodes":"75","size_leaf_vector":"1"}},{"base_weights":[1.377786E-5,-3.303816E-2,1.0186987E-4,-2.0295542E-2,-4.318358E-2,-3.8018574E-3,8.399517E-4,5.6485347E-2,-5.7236306E-2,-1.2348694E-2,4.0701954E-3,5.890411E-2,1.6630761E-4,-2.4868658E-2,1.8174489E-1,-7.859958E-2,-2.1331621E-2,2.4656593E-3,-2.427876E-2,2.0005254E-3,4.8656934E-3,2.610426E-2,2.503483E-1,-1.3502442E-2,8.174861E-4,7.621749E-2,7.2954334E-2,4.5652557E-2,-6.6712424E-2,-2.4476342E-2,2.0690583E-2,-1.7283523E-2,-9.701216E-2,2.4298844E-3,-1.1070546E-2,7.651409E-3,3.8807704E-3,1.4148943E-1,5.4032793E-3,2.9409886E-3,2.7342245E-1,-8.240048E-2,-2.1903026E-3,2.3314457E-2,4.2960048E-4,6.846753E-2,-3.5638075E-2,-7.028417E-2,-7.958267E-3,-3.5643184E-3,-6.1893087E-2,6.5608464E-2,9.82853E-4,6.0351086E-3,-7.201129E-3,-5.0915178E-2,-2.0973599E-3,9.1390364E-4,4.687337E-4,-6.572235E-3,2.1206525E-3,3.1069694E-3,-2.8998333E-3,9.824408E-4,8.812963E-3,6.1912467E-3,7.746416E-2,1.6677309E-2,7.702573E-4,4.691732E-2,9.761347E-2,-6.1617303E-3,-6.1396852E-2,4.0346675E-2,-2.3078187E-3,1.6319093E-3,2.6274756E-2,1.4051502E-2,8.116336E-5],"categories":[],"categories_nodes":[],"categories_segments":[],"categories_sizes":[],"default_left":[0,0,0,0,0,0,0,0,0,0,0,0,0,0,0,0,0,0,0,0,0,0,0,0,0,0,0,0,0,0,0,0,0,0,0,0,0,0,0,0,0,0,0,0,0,0,0,0,0,0,0,0,0,0,0,0,0,0,0,0,0,0,0,0,0,0,0,0,0,0,0,0,0,0,0,0,0,0,0],"id":20,"left_children":[1,3,5,7,-1,9,11,13,15,17,19,21,23,-1,25,-1,27,29,31,33,35,37,39,41,43,-1,45,-1,47,49,51,53,55,57,59,61,63,65,67,-1,69,71,73,75,77,-1,-1,-1,-1,-1,-1,-1,-1,-1,-1,-1,-1,-1,-1,-1,-1,-1,-1,-1,-1,-1,-1,-1,-1,-1,-1,-1,-1,-1,-1,-1,-1,-1,-1],"loss_changes":[2.3002185E-2,2.6756734E-2,2.2704719E-2,5.9959903E-2,0E0,8.435353E-2,2.592025E-1,1.3727732E-1,9.7338095E-2,1.0627833E-1,1.0653762E-3,4.7069475E-1,5.8329053E-2,0E0,1.2933403E-2,0E0,1.12512395E-1,1.3258971E-1,1.6774954E-1,1.0539296E-3,1.2625968E-3,1.568822E-1,5.837369E-2,2.3207603E-1,5.457268E-2,0E0,1.164302E-1,0E0,6.785585E-2,2.4718605E-1,5.54432E-1,7.714181E-2,1.8861791E-1,9.042432E-5,1.3343091E-3,5.8153896E-3,5.311164E-3,1.3573489E-1,7.969517E-3,0E0,9.9182725E-3,3.134386E-1,1.9431588E-1,1.2129386E-1,4.5384083E-2,0E0,0E0,0E0,0E0,0E0,0E0,0E0,0E0,0E0,0E0,0E0,0E0,0E0,0E0,0E0,0E0,0E0,0E0,0E0,0E0,0E0,0E0,0E0,0E0,0E0,0E0,0E0,0E0,0E0,0E0,0E0,0E0,0E0,0E0],"parents":[2147483647,0,0,1,1,2,2,3,3,5,5,6,6,7,7,8,8,9,9,10,10,11,11,12,12,14,14,16,16,17,17,18,18,19,19,20,20,21,21,22,22,23,23,24,24,26,26,28,28,29,29,30,30,31,31,32,32,33,33,34,34,35,35,36,36,37,37,38,38,40,40,41,41,42,42,43,43,44,44],"right_children":[2,4,6,8,-1,10,12,14,16,18,20,22,24,-1,26,-1,28,30,32,34,36,38,40,42,44,-1,46,-1,48,50,52,54,56,58,60,62,64,66,68,-1,70,72,74,76,78,-1,-1,-1,-1,-1,-1,-1,-1,-1,-1,-1,-1,-1,-1,-1,-1,-1,-1,-1,-1,-1,-1,-1,-1,-1,-1,-1,-1,-1,-1,-1,-1,-1,-1],"split_conditions":[2E0,3E0,3E1,6.3E1,-4.318358E-2,1E1,3.1E1,2.7E1,6.6E1,4.3E1,3E0,7E1,4.4E1,-2.4868658E-2,1E0,-7.859958E-2,7.8E1,3.9E1,2.7E1,1.1E1,1.4E1,3.9E1,5E0,4.1E1,5.2E1,7.621749E-2,2.8E1,4.5652557E-2,1E0,3.7E1,4.1E1,1E1,8.9E1,3.4E1,5.7E1,1.1E1,1.1E1,1.3E1,7E0,2.9409886E-3,7.6E1,3.6E1,2E0,7E1,1E0,6.846753E-2,-3.5638075E-2,-7.028417E-2,-7.958267E-3,-3.5643184E-3,-6.1893087E-2,6.5608464E-2,9.82853E-4,6.0351086E-3,-7.201129E-3,-5.0915178E-2,-2.0973599E-3,9.1390364E-4,4.687337E-4,-6.572235E-3,2.1206525E-3,3.1069694E-3,-2.8998333E-3,9.824408E-4,8.812963E-3,6.1912467E-3,7.746416E-2,1.6677309E-2,7.702573E-4,4.691732E-2,9.761347E-2,-6.1617303E-3,-6.1396852E-2,4.0346675E-2,-2.3078187E-3,1.6319093E-3,2.6274756E-2,1.4051502E-2,8.116336E-5],"split_indices":[0,1,3,3,0,2,3,3,3,0,3,0,3,0,1,0,3,0,3,2,3,0,2,0,3,0,3,0,1,0,0,3,0,0,0,2,2,0,2,0,0,3,2,0,2,0,0,0,0,0,0,0,0,0,0,0,0,0,0,0,0,0,0,0,0,0,0,0,0,0,0,0,0,0,0,0,0,0,0],"split_type":[0,0,0,0,0,0,0,0,0,0,0,0,0,0,0,0,0,0,0,0,0,0,0,0,0,0,0,0,0,0,0,0,0,0,0,0,0,0,0,0,0,0,0,0,0,0,0,0,0,0,0,0,0,0,0,0,0,0,0,0,0,0,0,0,0,0,0,0,0,0,0,0,0,0,0,0,0,0,0],"sum_hessian":[7.898E3,2E1,7.878E3,1.9E1,1E0,1.252E3,6.626E3,6E0,1.3E1,6E2,6.52E2,7.5E1,6.551E3,3E0,3E0,1E0,1.2E1,2.68E2,3.32E2,1.82E2,4.7E2,6.5E1,1E1,2.97E2,6.254E3,1E0,2E0,2E0,1E1,1.08E2,1.6E2,3.04E2,2.8E1,1.77E2,5E0,1.21E2,3.49E2,9E0,5.6E1,1E0,9E0,4.1E1,2.56E2,1.05E2,6.149E3,1E0,1E0,1E0,9E0,1.02E2,6E0,1.2E1,1.48E2,4.6E1,2.58E2,1.5E1,1.3E1,1.02E2,7.5E1,3E0,2E0,1.05E2,1.6E1,3.42E2,7E0,5E0,4E0,2E0,5.4E1,4E0,5E0,2.8E1,1.3E1,9E0,2.47E2,8.3E1,2.2E1,2E1,6.129E3],"tree_param":{"num_deleted":"0","num_feature":"4","num_nodes":"79","size_leaf_vector":"1"}},{"base_weights":[2.7961627E-5,2.2122254E-6,3.0509511E-2,4.7128325E-4,-5.3000473E-3,-5.13517E-6,3.5637893E-2,-8.888177E-2,-2.0891863E-3,1.5273353E-4,-8.475296E-2,2.6875721E-2,2.569961E-2,-9.043859E-3,2.5855478E-2,-9.6908845E-3,9.077482E-4,4.2787127E-2,-1.7078826E-3,-6.0549877E-3,-1.5364346E-1,8.6703084E-2,-1.7488237E-2,-1.18562E-3,-4.50283E-2,1.5312157E-4,3.6439889E-3,1.0896368E-2,2.6538242E-2,-5.1391833E-2,1.1248757E-2,-3.40456E-2,-6.9919706E-4,3.9039373E-2,7.319936E-3,-3.985352E-2,7.651317E-5],"categories":[],"categories_nodes":[],"categories_segments":[],"categories_sizes":[],"default_left":[0,0,0,0,0,0,0,0,0,0,0,0,0,0,0,0,0,0,0,0,0,0,0,0,0,0,0,0,0,0,0,0,0,0,0,0,0],"id":21,"left_children":[1,3,-1,5,7,9,11,-1,13,15,-1,17,-1,19,21,23,25,27,29,31,-1,33,35,-1,-1,-1,-1,-1,-1,-1,-1,-1,-1,-1,-1,-1,-1],"loss_changes":[2.0678978E-2,1.96459E-2,0E0,1.2158411E-1,5.9918386E-1,3.1941414E-1,4.0217556E-2,0E0,1.2383789E-1,5.32076E-2,0E0,3.8276725E-2,0E0,7.637883E-1,3.364612E-1,4.1033924E-1,2.9686175E-2,1.2734346E-2,2.1253869E-1,2.0298937E-1,0E0,1.4022782E-1,1.5354453E-1,0E0,0E0,0E0,0E0,0E0,0E0,0E0,0E0,0E0,0E0,0E0,0E0,0E0,0E0],"parents":[2147483647,0,0,1,1,3,3,4,4,5,5,6,6,8,8,9,9,11,11,13,13,14,14,15,15,16,16,17,17,18,18,19,19,21,21,22,22],"right_children":[2,4,-1,6,8,10,12,-1,14,16,-1,18,-1,20,22,24,26,28,30,32,-1,34,36,-1,-1,-1,-1,-1,-1,-1,-1,-1,-1,-1,-1,-1,-1],"split_conditions":[1.1E2,8.2E1,3.0509511E-2,7.9E1,8.3E1,7.8E1,1.32E2,-8.888177E-2,1.36E2,7E0,-8.475296E-2,1.07E2,2.569961E-2,1.35E2,1.53E2,6.2E1,4E0,1.01E2,1.08E2,8.5E1,-1.5364346E-1,1.02E2,1.57E2,-1.18562E-3,-4.50283E-2,1.5312157E-4,3.6439889E-3,1.0896368E-2,2.6538242E-2,-5.1391833E-2,1.1248757E-2,-3.40456E-2,-6.9919706E-4,3.9039373E-2,7.319936E-3,-3.985352E-2,7.651317E-5],"split_indices":[0,0,0,0,0,0,3,0,3,2,0,3,0,3,3,0,1,3,3,0,0,0,3,0,0,0,0,0,0,0,0,0,0,0,0,0,0],"split_type":[0,0,0,0,0,0,0,0,0,0,0,0,0,0,0,0,0,0,0,0,0,0,0,0,0,0,0,0,0,0,0,0,0,0,0,0,0],"sum_hessian":[7.898E3,7.897E3,1E0,7.256E3,6.41E2,7.16E3,9.6E1,6E0,6.35E2,7.157E3,3E0,8.3E1,1.3E1,5.09E2,1.26E2,5.09E2,6.648E3,5.3E1,3E1,5.07E2,2E0,5.2E1,7.4E1,4.9E2,1.9E1,6.422E3,2.26E2,4.8E1,5E0,5E0,2.5E1,1.6E1,4.91E2,3E1,2.2E1,9E0,6.5E1],"tree_param":{"num_deleted":"0","num_feature":"4","num_nodes":"37","size_leaf_vector":"1"}},{"base_weights":[-2.401888E-5,4.468461E-4,-5.031518E-3,1.0370896E-2,5.3933967E-5,-3.265131E-2,2.9291632E-3,6.34612E-3,5.69272E-2,-1.1401342E-2,5.510838E-4,-6.123146E-2,1.2192115E-2,1.1032709E-2,-6.6203973E-3,1.1866098E-2,-7.1553186E-2,-3.5914357E-3,-1.3614859E-1,1.51036475E-2,1.2595856E-4,-4.76076E-2,-2.5084284E-1,-5.97245E-2,1.9147292E-2,8.7525405E-2,3.6494268E-4,-5.2533273E-2,3.5135373E-3,2.785343E-3,7.146005E-2,-1.537205E-2,1.3850793E-1,-1.5877926E-1,6.7162993E-3,4.4743777E-3,9.992474E-2,7.574507E-4,-1.3336146E-2,-7.050085E-2,-3.239336E-3,-8.948907E-3,-1.1086579E-1,6.4859666E-2,8.440238E-3,9.030268E-2,2.3404198E-2,-8.689186E-5,6.8108845E-3,-1.49577325E-2,-4.9170036E-2,1.1702251E-3,4.710029E-2,-2.8970966E-2,2.892114E-3,4.1019797E-2,4.700691E-3,-1.6026836E-2,2.2378038E-3,1.5920195E-1,1.3099566E-2,-6.7287385E-2,-3.1078245E-2,5.788374E-3,-7.834193E-2,-4.394056E-2,4.0070925E-2,2.0743928E-4,2.0569287E-2,-6.728198E-2,-2.6545718E-3,-9.433207E-2,-1.3982491E-2,-8.943793E-2,4.9583344E-3,-1.8935343E-2,1.4908335E-2,2.6446316E-2,-4.4327555E-3,-8.105115E-3,3.9855286E-2,7.3081406E-5,-3.450065E-3,-1.8077163E-2,7.1929335E-3,1.108938E-3,-2.0486392E-2],"categories":[],"categories_nodes":[],"categories_segments":[],"categories_sizes":[],"default_left":[0,0,0,0,0,0,0,0,0,0,0,0,0,0,0,0,0,0,0,0,0,0,0,0,0,0,0,0,0,0,0,0,0,0,0,0,0,0,0,0,0,0,0,0,0,0,0,0,0,0,0,0,0,0,0,0,0,0,0,0,0,0,0,0,0,0,0,0,0,0,0,0,0,0,0,0,0,0,0,0,0,0,0,0,0,0,0],"id":22,"left_children":[1,3,5,7,9,11,13,15,-1,17,19,21,23,25,27,29,-1,31,33,35,37,39,41,-1,43,45,47,49,51,53,55,57,59,61,-1,63,65,67,69,71,73,75,-1,-1,77,-1,79,81,-1,83,-1,85,-1,-1,-1,-1,-1,-1,-1,-1,-1,-1,-1,-1,-1,-1,-1,-1,-1,-1,-1,-1,-1,-1,-1,-1,-1,-1,-1,-1,-1,-1,-1,-1,-1,-1,-1],"loss_changes":[1.862695E-2,2.8156139E-2,1.4938895E-1,1.9734308E-1,3.9569374E-2,1.9555458E-1,4.093248E-2,3.6776322E-1,0E0,2.8107345E-1,4.1195087E-2,2.282992E-1,9.197867E-2,2.3334582E-1,1.13247156E-1,1.4320786E-1,0E0,4.59136E-1,6.4547E-2,1.6995269E-1,5.5021454E-2,8.9156196E-2,1.6898397E-1,0E0,1.2265591E-1,4.7206393E-1,2.5454294E-3,1.8167384E-1,7.175006E-2,1.582613E-1,1.2531452E-1,2.2019258E-1,7.579024E-1,3.0994028E-2,0E0,6.7029953E-1,1.9365172E-1,2.7612925E-2,2.7252835E-1,3.2338786E-1,1.8562847E-1,1.2666544E-2,0E0,0E0,1.06789656E-1,0E0,1.581056E-1,9.3827344E-4,0E0,6.141048E-2,0E0,3.4995034E-2,0E0,0E0,0E0,0E0,0E0,0E0,0E0,0E0,0E0,0E0,0E0,0E0,0E0,0E0,0E0,0E0,0E0,0E0,0E0,0E0,0E0,0E0,0E0,0E0,0E0,0E0,0E0,0E0,0E0,0E0,0E0,0E0,0E0,0E0,0E0],"parents":[2147483647,0,0,1,1,2,2,3,3,4,4,5,5,6,6,7,7,9,9,10,10,11,11,12,12,13,13,14,14,15,15,17,17,18,18,19,19,20,20,21,21,22,22,24,24,25,25,26,26,27,27,28,28,29,29,30,30,31,31,32,32,33,33,35,35,36,36,37,37,38,38,39,39,40,40,41,41,44,44,46,46,47,47,49,49,51,51],"right_children":[2,4,6,8,10,12,14,16,-1,18,20,22,24,26,28,30,-1,32,34,36,38,40,42,-1,44,46,48,50,52,54,56,58,60,62,-1,64,66,68,70,72,74,76,-1,-1,78,-1,80,82,-1,84,-1,86,-1,-1,-1,-1,-1,-1,-1,-1,-1,-1,-1,-1,-1,-1,-1,-1,-1,-1,-1,-1,-1,-1,-1,-1,-1,-1,-1,-1,-1,-1,-1,-1,-1,-1,-1],"split_conditions":[1.56E2,3E0,9E0,1.54E2,5E0,1.71E2,1.73E2,1.52E2,5.69272E-2,1.38E2,6E0,1.69E2,4E0,1E1,1.74E2,1.34E2,-7.1553186E-2,1.29E2,9E1,1.39E2,8.1E1,6.4E1,4E0,-5.97245E-2,5E0,2.9E1,7E1,6.7E1,1.02E2,4E0,1.45E2,3.6E1,3.3E1,1.44E2,6.7162993E-3,1.28E2,8.7E1,1.55E2,8.3E1,2E0,1.57E2,1.3E1,-1.1086579E-1,6.4859666E-2,2E0,9.030268E-2,7.6E1,1.1E1,6.8108845E-3,3.5E1,-4.9170036E-2,7.5E1,4.710029E-2,-2.8970966E-2,2.892114E-3,4.1019797E-2,4.700691E-3,-1.6026836E-2,2.2378038E-3,1.5920195E-1,1.3099566E-2,-6.7287385E-2,-3.1078245E-2,5.788374E-3,-7.834193E-2,-4.394056E-2,4.0070925E-2,2.0743928E-4,2.0569287E-2,-6.728198E-2,-2.6545718E-3,-9.433207E-2,-1.3982491E-2,-8.943793E-2,4.9583344E-3,-1.8935343E-2,1.4908335E-2,2.6446316E-2,-4.4327555E-3,-8.105115E-3,3.9855286E-2,7.3081406E-5,-3.450065E-3,-1.8077163E-2,7.1929335E-3,1.108938E-3,-2.0486392E-2],"split_indices":[3,2,2,3,2,3,3,3,0,3,2,3,0,2,3,3,0,3,0,3,0,0,2,0,0,0,0,0,0,0,3,0,0,3,0,3,0,3,0,2,3,0,0,0,2,0,0,2,0,0,0,0,0,0,0,0,0,0,0,0,0,0,0,0,0,0,0,0,0,0,0,0,0,0,0,0,0,0,0,0,0,0,0,0,0,0,0],"split_type":[0,0,0,0,0,0,0,0,0,0,0,0,0,0,0,0,0,0,0,0,0,0,0,0,0,0,0,0,0,0,0,0,0,0,0,0,0,0,0,0,0,0,0,0,0,0,0,0,0,0,0,0,0,0,0,0,0,0,0,0,0,0,0,0,0,0,0,0,0,0,0,0,0,0,0,0,0,0,0,0,0,0,0,0,0,0,0],"sum_hessian":[7.898E3,7.22E3,6.78E2,2.74E2,6.946E3,1.51E2,5.27E2,2.69E2,5E0,2.88E2,6.658E3,9.2E1,5.9E1,2.85E2,2.42E2,2.64E2,5E0,2.72E2,1.6E1,1.88E2,6.47E3,8.7E1,5E0,1E0,5.8E1,3.4E1,2.51E2,4.3E1,1.99E2,2.3E2,3.4E1,2.52E2,2E1,1.4E1,2E0,1.68E2,2E1,6.181E3,2.89E2,5.7E1,3E1,2E0,3E0,2E0,5.6E1,7E0,2.7E1,2.47E2,4E0,3.3E1,1E1,1.97E2,2E0,1.4E1,2.16E2,1.5E1,1.9E1,9.4E1,1.58E2,3E0,1.7E1,5E0,9E0,1.6E2,8E0,2E0,1.8E1,6.176E3,5E0,5E0,2.84E2,4E0,5.3E1,1E0,2.9E1,1E0,1E0,1.2E1,4.4E1,1.9E1,8E0,2.41E2,6E0,1.5E1,1.8E1,1.91E2,6E0],"tree_param":{"num_deleted":"0","num_feature":"4","num_nodes":"87","size_leaf_vector":"1"}},{"base_weights":[-4.7323625E-5,2.989654E-4,-5.8902563E-3,2.1484669E-4,1.047386E-1,-1.4310528E-1,-2.3827206E-3,9.118281E-3,-6.10294E-5,3.80816E-2,1.2067693E-2,7.402772E-2,-2.0676762E-1,-5.143258E-3,3.3492073E-2,-6.588168E-2,1.599149E-2,-6.49817E-3,4.6577744E-4,-1.0762579E-1,-9.0380825E-2,-8.375518E-4,-2.4798843E-1,5.208297E-2,-7.080598E-3,7.108323E-2,-2.6309383E-1,2.6167644E-2,-4.0159088E-2,1.2417145E-1,-1.1951085E-2,6.033111E-4,-9.1806844E-2,3.499505E-2,-1.4432769E-1,-2.8931198E-3,4.814595E-2,-1.1948864E-1,-1.0820653E-1,6.392159E-2,-2.8027225E-2,6.9421545E-2,1.0641505E-2,-1.5663134E-1,-2.6921872E-2,5.2911905E-3,4.5523174E-2,-6.330637E-2,2.2160504E-3,2.5732826E-2,5.8258057E-2,-1.8349484E-3,-2.4806537E-2,3.449976E-5,4.2536184E-3,-2.1549068E-2,-7.6022245E-2,-2.542205E-4,-4.831867E-2,-1.1320576E-3,-7.8890786E-2,2.4657678E-2,5.476052E-3,-1.6507855E-2,5.8048423E-3],"categories":[],"categories_nodes":[],"categories_segments":[],"categories_sizes":[],"default_left":[0,0,0,0,0,0,0,0,0,0,0,0,0,0,0,0,0,0,0,0,0,0,0,0,0,0,0,0,0,0,0,0,0,0,0,0,0,0,0,0,0,0,0,0,0,0,0,0,0,0,0,0,0,0,0,0,0,0,0,0,0,0,0,0,0],"id":23,"left_children":[1,3,5,7,9,11,13,15,17,-1,-1,-1,19,21,23,25,27,29,31,-1,33,35,37,-1,39,41,43,45,47,49,51,53,-1,-1,55,57,-1,-1,59,61,63,-1,-1,-1,-1,-1,-1,-1,-1,-1,-1,-1,-1,-1,-1,-1,-1,-1,-1,-1,-1,-1,-1,-1,-1],"loss_changes":[1.5984153E-2,6.549848E-2,2.123877E-1,1.8306948E-2,3.4869611E-3,3.240382E-1,4.295482E-2,1.1652339E-1,2.4520893E-2,0E0,0E0,0E0,1.4446613E-1,4.2013147E-1,1.7746285E-1,5.3191334E-1,1.18758634E-1,3.9123812E-1,2.8193188E-1,0E0,9.5016554E-2,1.3178289E-1,1.0397324E-1,0E0,3.8972955E-2,6.0303412E-2,3.123513E-1,1.8478514E-1,2.6152027E-1,4.2490333E-2,2.1658686E-1,4.42936E-2,0E0,0E0,2.9245712E-2,1.2670273E-1,0E0,0E0,7.9819374E-2,3.5060234E-3,2.6647147E-2,0E0,0E0,0E0,0E0,0E0,0E0,0E0,0E0,0E0,0E0,0E0,0E0,0E0,0E0,0E0,0E0,0E0,0E0,0E0,0E0,0E0,0E0,0E0,0E0],"parents":[2147483647,0,0,1,1,2,2,3,3,4,4,5,5,6,6,7,7,8,8,12,12,13,13,14,14,15,15,16,16,17,17,18,18,20,20,21,21,22,22,24,24,25,25,26,26,27,27,28,28,29,29,30,30,31,31,34,34,35,35,38,38,39,39,40,40],"right_children":[2,4,6,8,10,12,14,16,18,-1,-1,-1,20,22,24,26,28,30,32,-1,34,36,38,-1,40,42,44,46,48,50,52,54,-1,-1,56,58,-1,-1,60,62,64,-1,-1,-1,-1,-1,-1,-1,-1,-1,-1,-1,-1,-1,-1,-1,-1,-1,-1,-1,-1,-1,-1,-1,-1],"split_conditions":[9.3E1,9.2E1,9.5E1,3E0,1.37E2,1E0,1.65E2,1E0,7E0,3.80816E-2,1.2067693E-2,7.402772E-2,1.01E2,1.59E2,1.69E2,7.3E1,1.48E2,1.2E1,8.4E1,-1.0762579E-1,2E0,1.55E2,1.63E2,5.208297E-2,8E0,1.6E1,7.4E1,1.42E2,1.54E2,8E0,1.62E2,7E1,-9.1806844E-2,3.499505E-2,1.46E2,1.52E2,4.814595E-2,-1.1948864E-1,1.64E2,1.79E2,1.77E2,6.9421545E-2,1.0641505E-2,-1.5663134E-1,-2.6921872E-2,5.2911905E-3,4.5523174E-2,-6.330637E-2,2.2160504E-3,2.5732826E-2,5.8258057E-2,-1.8349484E-3,-2.4806537E-2,3.449976E-5,4.2536184E-3,-2.1549068E-2,-7.6022245E-2,-2.542205E-4,-4.831867E-2,-1.1320576E-3,-7.8890786E-2,2.4657678E-2,5.476052E-3,-1.6507855E-2,5.8048423E-3],"split_indices":[0,0,0,2,3,1,3,1,2,0,0,0,3,3,3,3,3,0,0,0,1,3,3,0,2,0,3,3,3,0,3,0,0,0,3,3,0,0,3,3,3,0,0,0,0,0,0,0,0,0,0,0,0,0,0,0,0,0,0,0,0,0,0,0,0],"split_type":[0,0,0,0,0,0,0,0,0,0,0,0,0,0,0,0,0,0,0,0,0,0,0,0,0,0,0,0,0,0,0,0,0,0,0,0,0,0,0,0,0,0,0,0,0,0,0,0,0,0,0,0,0,0,0,0,0,0,0,0,0,0,0,0,0],"sum_hessian":[7.898E3,7.457E3,4.41E2,7.452E3,5E0,1E1,4.31E2,2.23E2,7.229E3,3E0,2E0,1E0,9E0,4.01E2,3E1,1.8E1,2.05E2,5.46E2,6.683E3,3E0,6E0,3.95E2,6E0,6E0,2.4E1,1.1E1,7E0,1.74E2,3.1E1,2.1E1,5.25E2,6.681E3,2E0,1E0,5E0,3.91E2,4E0,2E0,4E0,5E0,1.9E1,1E0,1E1,2E0,5E0,1.64E2,1E1,6E0,2.5E1,1.5E1,6E0,4.86E2,3.9E1,6.45E3,2.31E2,4E0,1E0,3.87E2,4E0,3E0,1E0,3E0,2E0,1.2E1,7E0],"tree_param":{"num_deleted":"0","num_feature":"4","num_nodes":"65","size_leaf_vector":"1"}},{"base_weights":[-7.343424E-5,-5.6491587E-3,2.840709E-4,2.3721915E-3,-4.1042976E-2,6.327545E-2,-2.7227742E-4,5.2722167E-2,-7.897201E-4,-1.3303117E-1,-2.4281167E-3,3.7770623E-1,2.4897637E-2,-6.759233E-2,-4.282356E-5,3.0168835E-2,7.0881985E-2,5.386543E-4,-3.644231E-2,-7.358055E-2,-2.838857E-1,-3.1875463E-3,4.433089E-3,1.4223826E-2,1.2745592E-1,-3.7457648E-4,3.724842E-1,-2.605139E-1,-2.9443298E-2,-1.2266206E-2,1.8285004E-4,5.186513E-2,-7.8570135E-3,8.354948E-2,7.397886E-3,-3.7949516E-3,1.7288081E-2,-1.3786E-1,4.484902E-3,1.6234187E-2,-3.4923795E-1,6.9708168E-3,-6.713653E-3,-1.3691884E-2,3.9850343E-3,1.1129443E-2,1.4157407E-1,-6.502274E-2,-1.2704812E-1,1.7571166E-2,-5.255479E-2,-1.6203929E-2,6.0927678E-2,2.1089297E-3,-1.2684338E-3,3.046118E-2,3.0318582E-3,7.059351E-3,2.6433112E-2,1.1530052E-3,-1.3318415E-2,4.0981483E-2,8.989707E-4,-3.8272785E-3,-8.562941E-2,-9.407518E-3,1.3979963E-2,-1.2911554E-1,8.47469E-3,2.2384517E-3,-1.0152698E-3,-3.6171507E-3,3.802116E-3,2.1425225E-2,-4.2182703E-5,2.2951886E-2,-5.221212E-2,-1.2005523E-3,9.394602E-3,-5.099256E-2,-2.7105282E-3,-3.8447557E-3,-6.646526E-2,2.5207626E-2,6.7794067E-3,2.3496137E-5,3.32071E-3,-2.9979395E-3,2.2203449E-4],"categories":[],"categories_nodes":[],"categories_segments":[],"categories_sizes":[],"default_left":[0,0,0,0,0,0,0,0,0,0,0,0,0,0,0,0,0,0,0,0,0,0,0,0,0,0,0,0,0,0,0,0,0,0,0,0,0,0,0,0,0,0,0,0,0,0,0,0,0,0,0,0,0,0,0,0,0,0,0,0,0,0,0,0,0,0,0,0,0,0,0,0,0,0,0,0,0,0,0,0,0,0,0,0,0,0,0,0,0],"id":24,"left_children":[1,3,5,7,9,11,13,15,17,19,21,23,25,27,29,31,33,35,-1,37,39,-1,41,-1,-1,43,45,47,49,51,53,55,-1,57,-1,59,61,63,65,-1,67,69,71,-1,73,-1,-1,75,-1,77,79,81,83,85,87,-1,-1,-1,-1,-1,-1,-1,-1,-1,-1,-1,-1,-1,-1,-1,-1,-1,-1,-1,-1,-1,-1,-1,-1,-1,-1,-1,-1,-1,-1,-1,-1,-1,-1],"loss_changes":[1.5747078E-2,1.3523671E-1,2.601924E-1,6.1971277E-2,3.1226283E-1,7.7496177E-1,1.1368588E-1,7.2815567E-3,5.890081E-2,2.1228981E-1,3.5903207E-3,8.886254E-2,5.184122E-1,1.7632389E-1,2.0238558E-2,1.6031697E-2,4.9659535E-3,2.6486699E-2,0E0,1.0097838E-1,1.73522E-1,0E0,1.0368584E-3,0E0,0E0,1.12328E-2,1.158818E-1,9.9907726E-2,2.4828091E-2,3.9320175E-2,2.0139933E-2,1.764214E-2,0E0,3.9029866E-4,0E0,9.010346E-2,1.2748203E-1,1.9943541E-1,1.6556691E-2,0E0,1.9594985E-1,1.7260353E-4,8.779862E-4,0E0,1.4476541E-2,0E0,0E0,5.960267E-2,0E0,2.4973438E-3,7.511576E-2,8.551851E-2,4.2984895E-3,5.632921E-2,7.201343E-2,0E0,0E0,0E0,0E0,0E0,0E0,0E0,0E0,0E0,0E0,0E0,0E0,0E0,0E0,0E0,0E0,0E0,0E0,0E0,0E0,0E0,0E0,0E0,0E0,0E0,0E0,0E0,0E0,0E0,0E0,0E0,0E0,0E0,0E0],"parents":[2147483647,0,0,1,1,2,2,3,3,4,4,5,5,6,6,7,7,8,8,9,9,10,10,11,11,12,12,13,13,14,14,15,15,16,16,17,17,19,19,20,20,22,22,25,25,26,26,27,27,28,28,29,29,30,30,31,31,33,33,35,35,36,36,37,37,38,38,40,40,41,41,42,42,44,44,47,47,49,49,50,50,51,51,52,52,53,53,54,54],"right_children":[2,4,6,8,10,12,14,16,18,20,22,24,26,28,30,32,34,36,-1,38,40,-1,42,-1,-1,44,46,48,50,52,54,56,-1,58,-1,60,62,64,66,-1,68,70,72,-1,74,-1,-1,76,-1,78,80,82,84,86,88,-1,-1,-1,-1,-1,-1,-1,-1,-1,-1,-1,-1,-1,-1,-1,-1,-1,-1,-1,-1,-1,-1,-1,-1,-1,-1,-1,-1,-1,-1,-1,-1,-1,-1],"split_conditions":[1.4E1,1.2E1,1.7E1,3E0,8E0,3.3E1,2E1,5.5E1,1.06E2,6E0,9E0,4E0,7E1,3.3E1,2.1E1,3.4E1,6.2E1,9E0,-3.644231E-2,4E1,2.4E1,-3.1875463E-3,1.1E1,1.4223826E-2,1.2745592E-1,3.8E1,5E0,1.9E1,1.9E1,7.1E1,9.6E1,6E0,-7.8570135E-3,3E0,7.397886E-3,7E0,3.3E1,3E0,9E1,1.6234187E-2,7.4E1,7E1,3.8E1,-1.3691884E-2,5E0,1.1129443E-2,1.4157407E-1,2.2E1,-1.2704812E-1,5.5E1,8E0,6.8E1,9.1E1,7.8E1,1.06E2,3.046118E-2,3.0318582E-3,7.059351E-3,2.6433112E-2,1.1530052E-3,-1.3318415E-2,4.0981483E-2,8.989707E-4,-3.8272785E-3,-8.562941E-2,-9.407518E-3,1.3979963E-2,-1.2911554E-1,8.47469E-3,2.2384517E-3,-1.0152698E-3,-3.6171507E-3,3.802116E-3,2.1425225E-2,-4.2182703E-5,2.2951886E-2,-5.221212E-2,-1.2005523E-3,9.394602E-3,-5.099256E-2,-2.7105282E-3,-3.8447557E-3,-6.646526E-2,2.5207626E-2,6.7794067E-3,2.3496137E-5,3.32071E-3,-2.9979395E-3,2.2203449E-4],"split_indices":[3,3,3,2,2,0,3,0,0,2,2,0,0,0,3,0,0,3,0,0,0,0,2,0,0,0,2,3,3,0,3,3,0,3,0,3,0,2,0,0,0,0,0,0,2,0,0,0,0,0,2,0,0,3,3,0,0,0,0,0,0,0,0,0,0,0,0,0,0,0,0,0,0,0,0,0,0,0,0,0,0,0,0,0,0,0,0,0,0],"split_type":[0,0,0,0,0,0,0,0,0,0,0,0,0,0,0,0,0,0,0,0,0,0,0,0,0,0,0,0,0,0,0,0,0,0,0,0,0,0,0,0,0,0,0,0,0,0,0,0,0,0,0,0,0,0,0,0,0,0,0,0,0,0,0,0,0,0,0,0,0,0,0,0,0,0,0,0,0,0,0,0,0,0,0,0,0,0,0,0,0],"sum_hessian":[7.898E3,4.75E2,7.423E3,3.88E2,8.7E1,6.4E1,7.359E3,2.2E1,3.66E2,2.5E1,6.2E1,6E0,5.8E1,2.4E1,7.335E3,1.1E1,1.1E1,3.63E2,3E0,1.9E1,6E0,2.8E1,3.4E1,1E0,5E0,5.5E1,3E0,3E0,2.1E1,1.32E2,7.203E3,8E0,3E0,8E0,3E0,2.89E2,7.4E1,1E1,9E0,1E0,5E0,2.8E1,6E0,4E0,5.1E1,1E0,2E0,2E0,1E0,7E0,1.4E1,1.26E2,6E0,3.095E3,4.108E3,3E0,5E0,1E0,7E0,2.44E2,4.5E1,7E0,6.7E1,6E0,4E0,5E0,4E0,4E0,1E0,2.7E1,1E0,5E0,1E0,2E0,4.9E1,1E0,1E0,3E0,4E0,3E0,1.1E1,1.25E2,1E0,3E0,3E0,2.524E3,5.71E2,7.68E2,3.34E3],"tree_param":{"num_deleted":"0","num_feature":"4","num_nodes":"89","size_leaf_vector":"1"}},{"base_weights":[-6.010731E-5,-2.6192628E-3,7.1749056E-4,-2.9782983E-4,-4.885988E-2,2.424518E-3,-2.085205E-3,-1.6676352E-3,4.5475625E-2,8.9001045E-2,-6.4545296E-2,1.7106455E-3,5.6541953E-2,-5.2594356E-2,-5.887092E-4,7.186981E-4,-3.9548934E-2,1.1433173E-1,-1.4466779E-1,-1.4319572E-1,1.1997049E-2,9.17227E-4,1.6857835E-2,-1.607255E-2,2.3922625E-1,-1.535636E-1,-3.0243618E-2,1.6685909E-2,-1.5795295E-3,-2.195627E-3,4.8092254E-2,3.892929E-2,-4.957326E-2,-7.816989E-2,1.4586744E-1,-2.1407382E-1,1.8117897E-1,-2.7887192E-1,-1.1732401E-1,2.7703878E-1,-1.3464656E-1,1.9718346E-3,-3.687145E-2,4.9600672E-2,6.59345E-3,-1.5754856E-1,1.5631029E-3,3.630022E-1,1.01019025E-1,1.9779E-3,-1.12697385E-1,4.9305867E-2,-8.611827E-3,-2.0887803E-2,2.7000286E-5,3.3872167E-4,-1.5539408E-2,6.427351E-2,6.9572167E-3,-1.5962776E-2,9.992441E-2,-1.6880581E-2,2.2650376E-2,3.692433E-2,-6.28697E-2,8.9676455E-2,1.672592E-2,-1.0698015E-1,-4.497253E-2,1.1193697E-1,-3.040643E-2,-1.00522496E-1,3.2148958E-4,-2.7573531E-2,-9.119912E-2,-1.0418201E-2,9.7217195E-2,-1.845922E-2,-6.9929935E-2,1.2091911E-4,3.3067067E-3,3.980791E-3,-6.842094E-2,-6.1267344E-3,2.4887664E-2,6.9886013E-3,-8.2106213E-4,-1.3161828E-1,2.4726087E-2,1.422038E-3,1.5763137E-4,1.5108764E-2,1.4339568E-1,8.287445E-3,3.2267254E-2,5.430477E-3,2.5771023E-4,1.5393938E-2,-6.651977E-2,1.0173191E-2,3.6241077E-2,-1.0703435E-2,2.1017432E-2,-5.8245856E-2,-2.8280308E-3,5.46831E-4,-1.959123E-3],"categories":[],"categories_nodes":[],"categories_segments":[],"categories_sizes":[],"default_left":[0,0,0,0,0,0,0,0,0,0,0,0,0,0,0,0,0,0,0,0,0,0,0,0,0,0,0,0,0,0,0,0,0,0,0,0,0,0,0,0,0,0,0,0,0,0,0,0,0,0,0,0,0,0,0,0,0,0,0,0,0,0,0,0,0,0,0,0,0,0,0,0,0,0,0,0,0,0,0,0,0,0,0,0,0,0,0,0,0,0,0,0,0,0,0,0,0,0,0,0,0,0,0,0,0,0,0],"id":25,"left_children":[1,3,5,7,9,11,13,15,17,-1,19,21,23,25,27,29,31,33,35,37,39,41,43,45,47,-1,49,51,53,55,57,59,61,63,65,67,69,71,73,75,77,79,81,83,85,87,89,91,93,95,97,99,101,103,105,-1,-1,-1,-1,-1,-1,-1,-1,-1,-1,-1,-1,-1,-1,-1,-1,-1,-1,-1,-1,-1,-1,-1,-1,-1,-1,-1,-1,-1,-1,-1,-1,-1,-1,-1,-1,-1,-1,-1,-1,-1,-1,-1,-1,-1,-1,-1,-1,-1,-1,-1,-1],"loss_changes":[1.5720842E-2,1.9760665E-1,2.8993E-2,1.1005291E-1,4.9608934E-1,1.4539501E-1,1.7336501E-1,1.540656E-1,6.8425936E-1,0E0,5.1342535E-1,4.4667684E-2,6.53856E-1,6.620315E-1,3.8178008E-2,2.2155695E-1,8.138569E-2,2.4208808E-1,3.5540596E-1,1.1470896E-1,1.747436E0,1.4091049E-1,6.18487E-2,9.006706E-2,2.02824E-1,0E0,1.7025717E-1,1.0027515E-1,6.542031E-2,2.4940696E-1,3.7981516E-1,3.4295586E-1,7.961585E-2,1.8445472E-1,4.3848228E-1,5.628586E-2,2.0051E-1,9.476116E-2,1.4757895E-1,2.457943E-1,1.9441342E-1,4.882315E-2,9.233618E-1,1.0447143E-1,2.2192188E-2,3.0605686E-1,1.0630001E-4,2.2756588E-1,8.678436E-4,8.323418E-4,3.332702E-1,5.424182E-2,1.4942144E-1,3.1986883E-1,2.2950768E-2,0E0,0E0,0E0,0E0,0E0,0E0,0E0,0E0,0E0,0E0,0E0,0E0,0E0,0E0,0E0,0E0,0E0,0E0,0E0,0E0,0E0,0E0,0E0,0E0,0E0,0E0,0E0,0E0,0E0,0E0,0E0,0E0,0E0,0E0,0E0,0E0,0E0,0E0,0E0,0E0,0E0,0E0,0E0,0E0,0E0,0E0,0E0,0E0,0E0,0E0,0E0,0E0],"parents":[2147483647,0,0,1,1,2,2,3,3,4,4,5,5,6,6,7,7,8,8,10,10,11,11,12,12,13,13,14,14,15,15,16,16,17,17,18,18,19,19,20,20,21,21,22,22,23,23,24,24,26,26,27,27,28,28,29,29,30,30,31,31,32,32,33,33,34,34,35,35,36,36,37,37,38,38,39,39,40,40,41,41,42,42,43,43,44,44,45,45,46,46,47,47,48,48,49,49,50,50,51,51,52,52,53,53,54,54],"right_children":[2,4,6,8,10,12,14,16,18,-1,20,22,24,26,28,30,32,34,36,38,40,42,44,46,48,-1,50,52,54,56,58,60,62,64,66,68,70,72,74,76,78,80,82,84,86,88,90,92,94,96,98,100,102,104,106,-1,-1,-1,-1,-1,-1,-1,-1,-1,-1,-1,-1,-1,-1,-1,-1,-1,-1,-1,-1,-1,-1,-1,-1,-1,-1,-1,-1,-1,-1,-1,-1,-1,-1,-1,-1,-1,-1,-1,-1,-1,-1,-1,-1,-1,-1,-1,-1,-1,-1,-1,-1],"split_conditions":[4.2E1,4E1,1.09E2,3.9E1,2.5E1,1.08E2,1.1E2,3.5E1,3E0,8.9001045E-2,1.07E2,1.04E2,6.8E1,2E0,3E0,3.2E1,1E0,2.3E1,1.64E2,7.8E1,1.15E2,1.02E2,8E0,8E0,8.4E1,-1.535636E-1,6.8E1,1.33E2,7E0,2.8E1,1E0,7.7E1,1.54E2,3E0,7.8E1,8.7E1,1.65E2,3E0,9.7E1,1.1E2,1.24E2,9.4E1,6.9E1,5E0,1.05E2,4.6E1,4.3E1,5E0,8.6E1,7E0,8E0,1.27E2,1.65E2,1.12E2,1.57E2,3.3872167E-4,-1.5539408E-2,6.427351E-2,6.9572167E-3,-1.5962776E-2,9.992441E-2,-1.6880581E-2,2.2650376E-2,3.692433E-2,-6.28697E-2,8.9676455E-2,1.672592E-2,-1.0698015E-1,-4.497253E-2,1.1193697E-1,-3.040643E-2,-1.00522496E-1,3.2148958E-4,-2.7573531E-2,-9.119912E-2,-1.0418201E-2,9.7217195E-2,-1.845922E-2,-6.9929935E-2,1.2091911E-4,3.3067067E-3,3.980791E-3,-6.842094E-2,-6.1267344E-3,2.4887664E-2,6.9886013E-3,-8.2106213E-4,-1.3161828E-1,2.4726087E-2,1.422038E-3,1.5763137E-4,1.5108764E-2,1.4339568E-1,8.287445E-3,3.2267254E-2,5.430477E-3,2.5771023E-4,1.5393938E-2,-6.651977E-2,1.0173191E-2,3.6241077E-2,-1.0703435E-2,2.1017432E-2,-5.8245856E-2,-2.8280308E-3,5.46831E-4,-1.959123E-3],"split_indices":[0,0,3,0,3,3,3,0,1,0,3,3,0,2,2,0,1,3,3,3,3,3,2,2,0,0,0,3,2,0,1,3,3,3,3,3,3,1,3,3,3,3,0,2,3,0,0,2,0,2,2,3,3,3,3,0,0,0,0,0,0,0,0,0,0,0,0,0,0,0,0,0,0,0,0,0,0,0,0,0,0,0,0,0,0,0,0,0,0,0,0,0,0,0,0,0,0,0,0,0,0,0,0,0,0,0,0],"split_type":[0,0,0,0,0,0,0,0,0,0,0,0,0,0,0,0,0,0,0,0,0,0,0,0,0,0,0,0,0,0,0,0,0,0,0,0,0,0,0,0,0,0,0,0,0,0,0,0,0,0,0,0,0,0,0,0,0,0,0,0,0,0,0,0,0,0,0,0,0,0,0,0,0,0,0,0,0,0,0,0,0,0,0,0,0,0,0,0,0,0,0,0,0,0,0,0,0,0,0,0,0,0,0,0,0,0,0],"sum_hessian":[7.898E3,1.84E3,6.058E3,1.753E3,8.7E1,3.765E3,2.293E3,1.703E3,5E1,3E0,8.4E1,3.717E3,4.8E1,6.5E1,2.228E3,1.603E3,1E2,3.7E1,1.3E1,4.1E1,4.3E1,3.533E3,1.84E2,3.5E1,1.3E1,2E0,6.3E1,1.2E2,2.108E3,1.511E3,9.2E1,1.1E1,8.9E1,5E0,3.2E1,1.1E1,2E0,5E0,3.6E1,1.5E1,2.8E1,3.438E3,9.5E1,4.3E1,1.41E2,3E0,3.2E1,6E0,7E0,4.6E1,1.7E1,5.2E1,6.8E1,1.61E2,1.947E3,1.417E3,9.4E1,1.1E1,8.1E1,9E0,2E0,8.5E1,4E0,2E0,3E0,1.1E1,2.1E1,2E0,9E0,1E0,1E0,4E0,1E0,3.3E1,3E0,2E0,1.3E1,1.7E1,1.1E1,2.931E3,5.07E2,7.6E1,1.9E1,1.4E1,2.9E1,5E1,9.1E1,1E0,2E0,7E0,2.5E1,2E0,4E0,1E0,6E0,2E0,4.4E1,7E0,1E1,4.4E1,8E0,5.1E1,1.7E1,9E0,1.52E2,1.529E3,4.18E2],"tree_param":{"num_deleted":"0","num_feature":"4","num_nodes":"107","size_leaf_vector":"1"}},{"base_weights":[-5.7624275E-5,-8.021981E-5,2.6760293E-2,6.733314E-5,-1.43208215E-2,-1.9396191E-4,1.6690325E-2,5.3151183E-2,-3.1747025E-2,8.122164E-5,-1.2995594E-2,-1.0330648E-2,3.340093E-2,2.9041737E-2,2.7753463E-2,-2.3637922E-1,-6.9305454E-3,-7.421303E-5,1.7950175E-2,-4.46771E-2,7.0937113E-3,6.464818E-3,-5.9856158E-2,5.8354434E-2,2.398626E-2,3.3914555E-2,3.1184356E-3,-1.0478972E-1,-1.2135148E-1,5.881699E-2,-2.5257915E-2,3.4340635E-5,-2.6405664E-2,-1.2078651E-2,8.407409E-3,7.485278E-3,-2.7342487E-2,5.462775E-2,-3.0308522E-3,-6.291848E-3,6.865474E-3,2.1560043E-3,-2.4900688E-2,-3.3536922E-2,8.838772E-3,4.189718E-3,1.1146814E-2,-2.9581548E-3,4.3614507E-3,3.5044733E-2,-6.302918E-2,-8.076125E-2,-1.8021278E-3],"categories":[],"categories_nodes":[],"categories_segments":[],"categories_sizes":[],"default_left":[0,0,0,0,0,0,0,0,0,0,0,0,0,0,0,0,0,0,0,0,0,0,0,0,0,0,0,0,0,0,0,0,0,0,0,0,0,0,0,0,0,0,0,0,0,0,0,0,0,0,0,0,0],"id":26,"left_children":[1,3,-1,5,7,9,11,13,15,17,19,21,23,25,-1,27,29,31,33,35,37,39,41,-1,43,45,47,-1,49,-1,51,-1,-1,-1,-1,-1,-1,-1,-1,-1,-1,-1,-1,-1,-1,-1,-1,-1,-1,-1,-1,-1,-1],"loss_changes":[1.5938224E-2,1.6596578E-2,0E0,3.396076E-2,9.6925646E-2,2.711956E-2,5.498101E-2,1.3445564E-2,3.2844803E-1,2.0935012E-2,1.03423364E-1,3.9481748E-2,1.0909684E-1,1.4100736E-3,0E0,4.8534453E-2,2.2444502E-1,1.2401374E-1,3.9248336E-2,2.0609371E-1,3.0277723E-1,1.6698996E-2,1.9217897E-2,0E0,5.682933E-2,1.2772903E-4,5.880024E-4,0E0,1.3022433E-1,0E0,2.5667194E-1,0E0,0E0,0E0,0E0,0E0,0E0,0E0,0E0,0E0,0E0,0E0,0E0,0E0,0E0,0E0,0E0,0E0,0E0,0E0,0E0,0E0,0E0],"parents":[2147483647,0,0,1,1,3,3,4,4,5,5,6,6,7,7,8,8,9,9,10,10,11,11,12,12,